MTP
version = 1.1.0
potential_name = sus2mlip_l2k2
scaling = 1.200000000000000e-02
L = 2
scaling_map = K
species_count = 84
potential_tag = 
radial_basis_type = RBChebyshev_sss
	min_dist = -2.000000000000000e+00
	max_dist = 6.000000000000000e+00
	radial_basis_size = 8
	radial_funcs_count = 6
shift_coeffs = {-2.629159250697629e+00, -2.014558275548270e+00, -1.853362087116132e+00, -5.023634236384406e+00, -6.788093528465413e+00, -5.479646567180163e+00, -3.953693355558547e+00, -3.871751262526325e+00, -1.717400637338428e+00, -1.471659034289902e+00, -3.691430460685233e+00, -5.439424347918931e+00, -5.472847134287798e+00, -4.339918541934630e+00, -2.822367792656830e+00, -2.407128615711014e+00, -2.696906844311007e+00, -7.512018835701140e+00, -7.107027573295055e+00, -7.460721288149950e+00, -8.437234608133638e+00, -7.819782565063746e+00, -5.936587870941682e+00, -5.821877223526554e+00, -4.946544201391702e+00, -2.731785966189177e+00, -1.138920728171393e+00, -2.802846602315092e+00, -4.119589649592754e+00, -4.303068868142574e+00, -3.275366266375794e+00, -2.664618442691951e+00, -2.260381638591342e+00, -3.338291074892911e+00, -6.872718982451011e+00, -8.273334130016821e+00, -7.006342907235674e+00, -1.020419570829447e+01, -8.490332098103927e+00, -7.063178753147502e+00, -6.541276827767859e+00, -3.806261763631554e+00, -1.631634821357111e+00, -5.685877481145282e-01, -2.468866061395063e+00, -4.253031693748232e+00, -4.714891853657345e+00, -3.440892224171743e+00, -3.168896298257505e+00, -2.536238303684394e+00, -3.551592817668684e+00, -7.369272637481943e+00, -8.196012276985011e+00, -4.570637951610473e+00, -5.736600570248425e+00, -5.751156176222014e+00, -5.133824906627998e+00, -1.144965522236424e+01, -1.581356439585488e+01, -3.867007071065692e+00, -6.180494207955801e+00, -5.168743254083174e+00, -4.256338205634902e+00, -5.004009682411971e+00, -2.100981285037841e+00, -4.356732708317140e+00, -7.492853307913170e+00, -7.428188010404544e+00, -1.053008089600372e+01, -9.203769242457167e+00, -7.471326636593255e+00, -6.247589940971593e+00, -5.723898174928752e+00, -2.887582601159814e+00, -2.517326428630781e-01, -1.849839419127586e+00, -3.343367327338258e+00, -4.320577182353132e+00, -4.574422678738437e+00, -6.818151763571334e+00, -8.093162580768073e+00, -1.176347414945377e+01, -1.363480201391554e+01, -1.334276747937824e+01}
scal_coeffs = {-5.841283058148469e-02, 1.054466552144488e+00, 9.490716182849877e-01, 2.287044362099703e+00, 2.121229030615797e+00, 2.331260384847447e+00, 2.566185686087191e+00, 8.305483354855391e-01, 1.380158167812961e+00, 5.602066939264161e-01, 1.381089934552068e+00, 8.394667426905607e-01, 1.312938823258901e+00, 1.485757404784102e+00, 4.686770604249566e-01, 5.999833843243619e-01, 1.097229226368542e+00, 1.577108436567001e+00, 4.842940354764500e-01, 1.457335908800605e+00, 8.108123838642055e-01, 1.115763724039212e+00, 2.206379318013794e+00, 2.132314889072403e+00, 8.468483134661559e-01, 2.089248156799139e+00, 1.571333492758786e-01, 3.496597200188493e-01, 1.001567229674798e+00, 1.065009551815131e+00, 1.921975193278361e+00, 1.203456880819276e+00, 3.698862354320776e-01, 1.567125537815689e+00, 1.050026413260287e+00, 1.218061164153001e+00, 1.378968517968080e+00, 6.720035557056064e-01, 3.917862440998412e+00, 2.146554926716076e-01, 4.061585298859396e-01, 7.643621141726997e-01, 5.366922656129732e-01, 2.054986258446176e-01, 3.717400797189602e-01, 1.558012924938748e+00, 7.423073658259708e-01, 9.854763981254200e-01, 2.084365024636074e+00, 6.419372019258092e-01, 5.116721689409010e-01, 3.400304826173767e+00, 5.950501508951618e-01, 2.068032895833418e+00, 8.599932772866657e-01, 2.253872693055310e+00, 8.976822656543845e-01, 4.051608610380024e-01, 1.939287525694491e+00, 1.384009035634353e+00, 2.073929330233153e+00, 2.288384139765923e+00, 2.185026202857439e+00, 1.662312853966816e+00, 1.841727012319153e+00, 1.502909575012812e+00, 1.185061099624467e+00, 2.550787027000833e+00, 5.676853621057827e-01, 2.187323648585108e+00, 1.401370386406517e+00, 3.586660294769389e-01, 4.452788327345110e-01, 4.260904745794681e+00, 1.371899581982007e+00, 1.157506380728414e+00, 1.810277700104594e+00, 1.937690167495839e+00, 1.982066851682384e+00, 1.073543784392615e+00, 2.332574709497178e+00, 2.487022975956495e+00, 1.094774265394213e+00, 1.168514792127170e+00, 1.471168229127477e+00, 3.176428044964686e-01, 1.940777471223680e+00, 4.423895934690310e-02, 2.534360278372483e-01, 2.263034645825573e-01, 1.554253930312539e+00, 2.375323982402513e+00, 7.282026921821778e-01, 6.215600501217262e-01, 5.278742107474472e-01, 2.379745128332040e+00, 1.003582214120293e+00, 1.143739056363681e+00, 1.042519907451179e-01, 2.313156943682491e+00, 3.515058820254322e+00, 1.473849578621770e+00, 4.863333831190991e-01, 5.980516447248105e-01, 7.682511889480567e-01, 1.054334171783269e+00, 1.208194019048570e+00, 3.171393328524489e-01, 2.803373971022808e-01, 1.028831580058279e+00, 1.261424330167046e+00, 1.984965913069196e+00, 7.725465701698746e-01, 1.635306596632176e+00, 1.226650920833927e+00, 1.076690667195235e+00, 2.033547518073294e+00, 2.324295425980760e-01, 1.580329396438281e+00, 4.459652357737486e-01, 1.595723764319814e+00, 6.442035181457996e-01, 2.486609949932625e+00, 8.599272136838465e-01, 8.007525219829255e-01, 3.680887665955002e+00, 8.856232591702906e-01, 3.010685425141958e+00, 1.354557652697796e+00, 6.809952732187748e-01, 1.282338008158834e-01, 4.579419635006875e-01, 5.336262833359571e-01, 2.605173968934134e+00, 2.231788252484683e+00, 9.656137080438677e-01, 2.542852014945016e-01, 3.314055272063693e+00, 3.720403416586891e+00, 1.823580547227752e+00, 2.677319661746563e+00, 1.332949887337382e+00, 2.339109171716279e+00, 1.290036290061677e+00, 9.101364388504082e-01, 3.889828001633088e-01, 1.864080994294302e+00, 5.381246984762922e-01, 1.813989968278039e-01, 1.228517367564647e-01, 1.934201977403215e+00, 1.967030774163197e+00, 5.002279848177992e+00, 6.777497345735032e-01, 6.331735284487890e-01, 1.486518640721471e+00, 9.146883282651301e-01, 1.882108271993221e+00, 8.821277949771192e-01, 2.247356611938714e+00, 1.477472874649492e+00, 1.898686566369510e+00, 2.066750791596294e+00, 4.981544501516554e+00, 2.341355078959487e+00, 1.259664835586305e+00, 2.196149062273931e+00, 2.013734937740563e+00, 2.442447756162891e+00, 3.636640887438181e+00, 1.946732352451944e+00, 6.020701185107642e-01, 1.937662154205289e+00, 1.050613826407300e+00, 1.311770690694000e+00, 1.042407293727543e+00, 2.898413522810331e-01, 2.085998873125983e+00, 1.030828561801955e+00, 2.308580688792233e+00, 2.446661179276968e+00, 9.490571476446639e-01, 2.698159349010758e+00, 2.841033415236239e+00, 5.240822474529058e-01, 2.139925694053287e+00, 2.163666010905293e+00, 2.607833167028038e+00, 1.141482584237911e+00, 3.296274579734014e+00, 2.527130423616555e+00, 2.944591711190233e+00, 1.958909004172529e+00, 3.141372050135489e+00, 2.489454931906661e+00, 1.035130181515511e+00, 9.997265997401609e-01, 1.956863916549621e+00, 2.403172083221734e+00, 3.562545474985393e+00, 3.102342805804245e+00, 2.704277724806601e+00, 1.361734893086127e+00, 1.383317397112422e+00, 3.343733537524170e+00, 1.800554066551050e+00, 1.920518147764437e+00, 2.969280645560112e+00, 1.078240422167599e+00, 1.452099408305852e+00, 2.714526975049000e+00, 4.169262368878274e+00, 1.704027180184458e+00, 2.013778833237367e+00, 2.235260980279879e+00, 2.366979053501386e+00, 1.603068217836697e+00, 2.400748438954718e+00, 7.980863723393670e-01, 1.153841295946116e+00, 1.651475592986214e+00, 2.323570128774074e+00, 1.351833745002236e+00, 1.650592450099260e+00, 3.247966523659707e+00, 1.695128775389372e+00, 2.234872566875140e+00, 1.987851181645842e+00, 2.471573960983620e+00, 2.185837891758036e+00, 2.674670665357871e+00, 1.526719049267563e+00, 3.455898142643495e+00, 2.273649166431603e+00, 3.351333110020560e+00, 3.988635866567278e+00, 2.208203269048011e+00, -5.217547025312539e-01, 3.506681405070892e+00, 2.639131323504727e+00, 1.965702323596488e-01, 3.120875065223423e+00, 2.032588174556280e+00, 3.033296853365580e+00, 3.305321650015901e+00, 1.781841048557295e+00, 2.000000000000000e+00, 1.955770540428197e+00, 1.907138434930977e+00, 2.746642864742111e+00, 2.000000000000000e+00, 2.000000000000000e+00, 1.313525707736009e+00, 7.253347823725206e+00, 1.187307583325888e+00, 3.895307995990338e-01, 9.655206113392696e-01, 9.071469389923800e-01, 7.183897222727867e-02, 1.201467870172015e+00, 5.455284214110442e-01, 1.779011943029266e+00, 9.019694819386279e-01, 5.580680202104106e-01, 1.235800359066496e-01, 6.775816602124503e-01, 2.111628730197282e+00, 3.369390610152292e-01, 5.666720603631606e-01, 1.476794114013245e+00, 1.205693642062491e+00, 4.308666193510900e-02, 1.027541653082462e+00, 8.370462946667339e-01, 5.135558367450802e-01, 6.450016114388348e-01, 3.008515636952925e-01, 1.453625761794020e+00, 1.501267492840501e+00, 1.488805467256796e+00, 2.365146140925298e+00, 9.720606777987556e-01, 2.851580467134894e+00, 1.558638863698313e+00, 6.593949074447899e-01, 1.049970959219795e+00, 7.751834736499911e-01, 3.425861040550337e+00, 8.139437862784737e-01, 1.018566882103252e+00, 2.874534895889659e+00, 2.285917230499102e+00, 7.075195067359416e-01, 9.131045057347825e-01, 8.752256891623064e-01, 1.060034834509172e+00, 1.749773628375609e+00, 9.119938801339581e-01, 9.172506929512410e-01, 1.734429535442265e+00, 8.065728315461016e-01, 7.349699772544810e-01, 1.008920808949924e+00, 8.477919370457765e-01, 3.601767681412685e-01, 2.166384736910846e+00, 1.157619144854648e+00, 2.062951920418285e+00, 1.657535541741093e+00, 1.532780278551641e+00, 1.124586109246282e+00, 9.003468151059616e-01, 5.026436094625456e-01, 1.197875974835947e+00, 1.010619753259705e+00, 1.352942960051690e+00, 1.233428469225099e+00, 6.603799279154485e-01, 3.584339825535995e+00, 2.346262176210041e+00, 1.120889175315373e+00, 1.131727446902301e+00, 9.806426216552672e-01, 9.528346871025698e-01, 7.291498199218840e-02, 1.952142163543170e+00, 3.001452553410935e+00, 1.106033340010255e+00, 4.980077155912084e-01, 3.104725546211761e+00, 3.036990483548395e+00, 4.858839013865732e-01, 9.202648842678323e-01, 3.010753837715593e+00, 2.653670843529173e+00, 1.325789287726151e-01, 7.867789060972504e-01, 2.233447784766903e+00, 1.460661087834867e+00, 1.700273255823971e+00, 6.308592162385906e-01, 1.107059410231449e+00, 1.329241908106425e+00, 1.847345429361564e+00, 1.194000056530545e+00, 7.973278593696367e-01, 1.048913283318470e+00, 7.894200330327087e-01, 6.984089799644958e-01, 4.815173695717625e-01, 1.644819876553348e+00, 4.662375627870362e-01, 3.355139381094925e-01, -4.233293545369135e-04, 5.634113295160491e+00, 2.802834956152485e+00, 1.026839571853532e+00, 8.132131707480384e-01, 1.101217181463883e+00, 1.574871922345044e+00, 3.123722167905363e-01, 3.000636294508847e-01, 1.895402185153496e+00, 4.282310660647667e-01, 1.113064074021082e+00, 2.273338624342002e-01, 7.600835990766090e-02, 1.166568833137630e+00, 6.458246235607482e-01, 6.375453819504415e-01, 6.216279596124233e-01, 1.182449534450526e+00, 2.196801545196233e+00, 8.999522772481737e-01, 7.785074435250335e-01, 7.099848679621230e-01, 1.133512712667302e+00, 5.061321523357599e-01, 7.332419940446718e-01, 8.686806358919669e-01, 2.038454597121489e+00, 1.429050717723949e+00, 4.503771335010079e-01, 9.137051674163843e-02, 2.022676461040571e+00, 1.650294137799738e+00, 5.131636539410582e-01, 5.340568170303475e-01, 3.794739114684818e-01, 2.143971019309176e+00, 1.469262720981505e+00, 2.000000000000000e+00, 9.261739807915960e-01, 5.900668386722525e-01, 8.654577238981438e-01, 1.339211570733246e+00, 1.568849687924445e+00, 1.531202590061684e+00, 5.405802566426499e-01, 1.673136730185240e+00, 1.547784044693059e+00, 3.282529893529879e-01, 2.927448182270060e-01, 3.194949825938763e+00, 7.677528349533183e-01, 7.321161686989680e-01, 1.092397348962378e+00, 9.314694473341286e-01, 1.230740611349392e+00, 4.834972697291819e-01, 1.375335036344153e+00, 1.471840678455279e+00, 1.090449436598788e+00, 8.209125603863829e-01, 2.000000000000000e+00, 8.747794462405779e-02, 2.170023484851890e+00, 1.477731936953587e+00, 2.159674939777362e+00, 1.274189078349525e+00, 8.694365887479554e-01, 7.048282752767844e-01, 2.374896220595008e+00, 1.583803923828840e+00, 2.193099826936890e+00, 1.580348649289663e+00, 1.520634908871501e+00, 7.798345205758658e-01, 2.446820441955798e+00, 8.862254934591643e-01, 1.468824510585855e+00, 1.211991910096258e+00, 1.173277551860612e+00, 5.464217143069285e-01, 3.857083061940491e-01, 2.181070286877175e+00, 5.383920936852752e-01, 2.238139219802550e+00, 1.230445926038001e+00, 2.191601460729061e+00, 1.303669047647353e+00, 8.498094746216613e-01, 1.490542996729401e+00, 1.564947019768022e+00, 6.615880379152321e-01, 1.926575468180535e+00, 1.232110026967848e+00, 1.504659671683215e+00, 2.649294626218706e+00, 6.545825476774682e-01, 3.106802386161442e+00, 3.114520287928359e-01, 4.724630304031902e-01, 6.016622622278963e-01, 1.796182329803433e+00, 1.410129856077588e+00, 9.298671257476808e-01, 1.512116871718184e+00, 3.672319151375469e+00, 6.828751002343695e-01, 9.538416186850871e-01, 9.683515102291891e-01, 1.278327906443135e+00, 6.404840658640706e-01, 1.602331583652740e+00, 2.576703295925685e-01, 4.585541584409707e+00, 9.001788462123190e-01, 5.878281140373243e-02, 1.082722454394318e+00, 4.554100651871920e-01, 2.180382746442381e+00, 6.558971144372113e-01, 3.080853716042628e+00, 2.130187096605509e+00, 7.716563564867183e-01, 2.321443429698594e+00, 5.170673030254345e-01, 1.449936937683657e+00, 1.216600312815636e+00, 1.118358161376833e+00, -2.410761673860837e-01, 8.086774682207770e-01, 3.042584951932148e+00, 2.293741964956213e+00, 1.122728407577017e+00, 5.541021354859684e-01, 2.301459597739286e+00, 2.813923469490847e+00, 7.764827686349197e-01, 1.287067354012117e+00, 1.377235216464774e+00, 1.102283333343120e+00, 6.717653051601787e-01, 9.287675460886112e-01, 2.227418275346143e+00, 6.802585298424235e-01, 7.354294721404028e-01, 2.073168934600227e+00, -1.774854570964853e-01, 2.071910121053770e+00, 1.954023530416003e+00, 1.755906325350604e+00, 1.824531820065867e+00, 1.225766821061319e+00, 7.935310117401920e-02, 2.322440703220328e-01, 1.893258629203284e+00, 1.834812798067515e+00, 4.188767157748843e-02, 5.194835506569920e-01, 8.166459300520859e-01, 2.235516898906452e-01, 1.103583706442930e-01, 1.705826336397424e+00, 1.248631735452046e+00, 1.335799581130289e+00, 1.276360093057462e+00, 6.796036215370910e-01, 1.512866401793522e+00, 1.771572454534628e-01, 1.391066262610050e+00, 6.813232470800021e-01, 8.231500690005423e-01, 7.408879222079839e-01, 7.404500293424450e-01, 1.330619479656764e+00, 3.632458138823867e-01, 4.917770239834204e-02, 1.332807280368435e+00, 1.466773401850640e+00, 2.114494238753943e+00, 1.252901737784760e+00, 1.219016012152778e+00, 1.463374924707144e+00, 1.216439419719918e-01, 7.884912066462433e-01, 1.385576473614158e+00, 1.419385082169108e+00, 6.581772766091971e-01, 9.785981792756423e-01, 1.621752359039824e-01, 3.766328881074794e+00, 2.767884297672665e-01, 4.585984009798008e-01, 2.813301589907745e-01, 1.955100663497138e-01, 1.811593161583241e+00, 1.449323660036316e+00, 2.537825474859385e+00, 1.043847563258766e+00, 9.013456583319743e-01, 8.226699275396127e-01, 3.828934283096844e-01, 1.625749819260956e+00, 1.477986033966004e+00, 1.378148431185830e+00, 1.312237510198045e+00, 1.419511766186869e+00, 6.313027069144981e-01, 1.453236266597727e+00, 1.910535441046789e-01, 7.986223639217921e-01, 2.469195194726893e-01, 8.811561993380997e-01, 1.615098699531350e+00, 2.696083416429334e+00, 9.513730650282161e-01, 8.739439512724975e-01, 1.500163905716458e+00, 4.078509139395425e+00, 2.444679053782651e+00, 1.159098776723157e+00, 1.092391568701360e+00, 1.477424278579963e+00, 1.131708081963789e+00, 3.668910160144503e-01, 7.568962983376666e-01, 5.198337989645043e-01, 1.098704682389158e+00, 1.280447821700745e+00, 9.687958096807956e-01, 8.746235395645894e-01, 1.696996049680955e+00, 8.045974570216440e-01, 3.154914673168914e+00, 1.213104642557557e+00, 3.631089754125020e+00, 2.136162586714339e+00, 6.290764935365149e-02, 1.736853151317755e-01, 1.479472041625882e+00, 6.040059117474750e-01, 5.904837947093563e-01, 4.723213063986775e-01, 4.960390005875725e-01, 2.036951560077709e-01, 1.038685278495935e+00, 1.426117536477876e+00, 3.703033242201416e-01, 6.894311707727429e-01, 5.347042313301645e-01, 2.863223887310907e-01, 2.082662869995202e+00, 2.527927537341782e-01, 2.184386112545964e+00, 5.226762887075568e-01, 1.212744989854690e+00, 1.435632560981342e+00, 1.220507570532915e+00, 1.063695445125968e+00, 2.097720526659061e+00, 1.402406996103815e+00, 2.646351212806555e-02, 1.415715009226568e+00, 9.727347121028358e-01, 9.532709260410099e-01, 1.060430853886650e+00, 6.653830689218735e-01, 1.905902609264364e-01, 1.810415326187071e+00, 9.846571269048224e-01, 4.266131136603492e-01, 1.785515729374491e+00, 3.450208184466657e+00, 1.823023101608647e+00, 2.167910297246481e+00, 7.173000312053755e-02, 1.134225281782300e-01, 9.966721965062323e-01, 7.767120085799237e-01, 3.789081978237075e-01, 1.560214106080097e+00, 4.974303155259405e+00, 8.674524142398016e-01, 1.059002939143697e+00, 8.022684925059574e-01, 8.159546369909353e-01, 1.232650364414473e+00, 4.304116539374002e-01, 1.524179724073502e+00, 1.443404469371488e+00, 4.121818359146579e-01, 2.000000000000000e+00, 1.480272100786235e+00, 2.792950177110032e+00, 2.268270100702917e+00, 1.703073034273834e+00, 1.674153651098154e+00, 6.676306066641781e-01, 9.710588349540086e-01, 1.235008820122963e+00, 2.393351689395487e+00, 7.339724528555619e-01, 2.232881109287601e+00, 3.721574161679896e+00, 1.113140000145380e+00, 4.033587646134791e+00, 1.468992169890239e+00, 2.422470355076203e-01, 6.124756459564941e-01, 7.612593135289251e-01, 1.552726501039325e+00, 1.292398691277678e+00, 9.864595967330455e-01, 1.080936018574546e+00, 1.793526487796102e+00, 1.932291203697795e+00, 1.222197728782785e+00, 2.482876802464138e-01, -1.162709090527128e-01, 2.131105886745786e+00, 6.263498048218159e-01, 9.771696803452267e-01, 1.338231903586244e+00, 4.631760063209190e-01, 5.592481506159438e+00, 4.023648558088540e+00, 3.121323123297268e-01, 2.373598348422040e-01, 2.187699791575232e-01, 3.586338937965181e+00, 5.776102993779539e+00, 1.093125869901908e+00, 1.607396927391788e+00, 5.622712689378275e-01, 2.009623942090010e+00, 3.249088495247773e+00, 1.051766289887489e+00, 2.125946249348049e+00, 7.237726951573362e-01, 6.724319124486275e-01, 6.967306571554889e-01, 1.202167606018370e+00, 5.796655343159178e-01, 3.460319066550106e+00, 8.779565315478245e-01, 3.377170535566537e+00, 1.056770770181657e+00, 2.712692484651911e+00, 1.577483872256511e+00, 1.191449701919967e+00, 1.983177741287006e+00, 2.531871509931749e+00, 1.557875593916575e+00, 2.156017566008835e+00, 1.981489395299279e+00, 1.820502829410998e+00, 2.071126889513112e+00, 2.518019887647591e+00, 2.500321449269822e+00, 2.459368404502000e+00, 1.751189203432614e+00, 9.339660398396978e-02, 9.092580795641005e-01, 4.290497086576732e-01, 1.698562923595094e+00, 3.162072871188094e-01, 4.041566967598680e+00, 1.568290762546352e+00, 6.389428181549199e-01, 1.139726010996643e+00, 2.300580852384279e+00, 6.138735974706462e-01, 1.312271856902658e+00, 3.199843691003544e+00, 2.335579585888444e+00, 1.836797667807370e+00, 2.428471640361362e+00, 1.040450165761724e+00, 2.055234648933417e+00, 7.603954759433288e-01, 2.555386251456481e+00, 1.466041327305711e+00, 2.253346603003619e+00, 2.421130549047434e+00, 1.356541490383468e+00, 1.538672364885454e+00, 2.524092186759878e+00, 2.774931691784003e+00, 3.387265836799005e+00, 8.807583702860003e-01, 2.121348034513266e+00, 1.327996971184753e+00, 2.232338393227336e+00, 8.301345989246158e-01, 1.891067187371196e+00, 2.869563176896340e+00, 1.062451610811383e+00, 1.733271451100899e+00, 1.934494187603720e+00, 1.720010699940721e+00, 1.791646325052912e+00, 1.703147236495071e+00, 2.565250767058221e+00, 7.177220840787756e-01, 9.164623885618632e+00, 1.536315204086570e+00, 7.504140137687272e-01, 3.117765018023909e-01, 4.061494998775885e-01, 1.319710969022310e+00, 3.734816367909311e-01, 7.426627794798167e-01, 2.228975420204490e+00, 1.214478783775242e+00, 2.868613383302039e+00, 5.041128738528458e+00, 4.691832082156948e+00, 1.225152064687472e+00, 8.102139096174468e-01, 3.159215135333321e+00, 1.984682373715851e+00, 1.811001126220265e+00, 1.320092263448798e+00, 1.714302217029635e+00, 2.916723075548603e+00, 2.792997177864041e+00, 1.654569941043941e+00, 2.018537757873511e+00, 1.713745383312687e+00, 2.235185237589758e+00, 3.199857729124848e+00, 1.857993059210257e+00, 2.951358915197485e+00, 8.075763929721129e-01, 1.300562160008840e+00, 7.987936649514152e-01, 1.948098450518015e+00, 2.819830583400431e+00, 2.223855473078521e+00, 1.489718634182839e+00, 2.865010315202987e+00, 1.167249385822835e+00, 1.923022271613654e+00, 2.994834605105169e+00, 2.197340541759091e+00, 1.104868628656397e+00, 2.477024496967204e+00, 1.171815518072291e+00, 2.511089770314638e+00, 6.594549349507830e-01, 2.782938337918230e+00, 9.387676983590515e-01, 3.618004074754727e+00, 1.315259497934973e+00, 2.764854341900595e+00, 1.075008464793845e+00, 5.502084777521089e-01, 1.726499713149418e+00, 2.909769905132476e+00, 2.073386148017071e+00, 3.359950382913111e+00, 6.659326243110812e-01, 2.688483188991322e+00, 3.190478286520369e+00, 3.029495194788332e+00, 2.484430683954741e+00, 1.757415282501622e+00, 2.450330765663162e+00, 2.659507639887231e+00, 2.860118023298810e+00, 1.581504101138459e+00, 3.403107745411942e+00, 1.511025494201190e+00, 3.147338932187957e+00, 2.221717240394262e+00, 2.791063494731097e+00, 2.397866985660592e+00, 3.494295700993171e+00, 1.051010376097243e+00, 2.406391411398396e+00, 1.765046350328735e+00, 2.893387581274117e+00, 1.841470763322302e+00, 2.001046829813876e+00, 2.120649368375662e+00, 2.346222086354624e+00, 1.798142379782002e+00, 1.749529152745339e+00, 1.811485278769042e+00, 1.335069136566319e+00, 2.973481079383313e+00, 2.357201214439832e+00, 9.152010356390179e-02, 2.521972270386069e-01, 1.011939229458536e+00, 5.259315801451887e-01, 1.421458335584487e+00, 1.559884300812913e+00, 1.066833409593759e+00, 4.935315893701789e+00, 4.598464998056985e+00, 1.401543672295994e+00, 7.572113750786855e-01, 2.229929753269901e+00, 1.165516494911315e+00, 1.267294654435610e+00, 2.974930081132880e+00, 4.124086172611262e-01, 3.239537300766859e-01, 2.863517847697751e+00, 1.900985671294907e+00, 2.666273667980349e+00, 3.027983736751199e+00, 2.995477503198672e+00, 3.008900271384911e+00, 2.540622855462902e+00, 2.654542884504536e+00, 7.295650514620250e-01, 5.999487455122321e-01, 1.638725488695787e+00, 1.576519726962770e+00, 1.905472786384928e+00, 1.842367590145318e+00, 2.307783536963166e+00, 1.692904239167664e+00, 3.031487478129010e+00, 2.094568968892709e+00, 1.986255445303824e+00, 1.679284261725221e+00, 2.272826582070210e+00, 1.426930774580671e+00, 9.865849339864701e-01, 1.946677163319622e+00, 1.927077317170665e+00, 5.483563323533970e-01, 1.508458410959423e+00, 3.887101812774694e+00, 1.241055866869110e+00, 4.135698404908787e+00, 2.558881426068325e+00, 1.296376205614232e+00, 1.725628360618691e+00, 3.413665243013106e+00, 1.801416063971866e+00, 7.602793673107667e-01, 3.522875357661069e+00, 1.761169946429795e+00, 1.968640993316616e+00, 6.962573337383419e-01, 2.241191370820438e+00, 1.804391892462357e+00, 1.041536942065842e+00, 1.566740943373029e+00, 1.894665349931469e+00, 2.392392709490922e+00, 3.454954714391378e+00, 1.958737740536436e+00, 2.569032620747862e+00, 7.558850883726731e-01, 2.018727605994139e+00, 2.209116889371439e+00, 2.605217046189065e+00, 8.694229626830019e-01, 1.529978387475124e+00, 1.427686966860105e+00, 9.493867320300139e-01, 1.932205357207455e+00, 2.070013476058332e+00, 2.193522161429595e+00, 2.174450865582029e+00, 2.125904658014286e+00, 2.155164329326268e+00, 1.766687177792688e+00, 2.440302126323008e+00, 1.859266332375468e+00, 3.102084910922521e+00, 1.745659214415590e-01, 9.759372056178982e-01, 8.859916743292746e-01, 6.201212942099633e-01, 3.199568142317211e+00, 1.344657425527303e+00, 2.004005604556435e+00, 1.180809970921001e+00, 1.758748163977609e+00, -4.506950913139870e-01, 2.046617251919680e+00, 7.075378589081668e-01, 1.237841835911370e+00, 1.470371132578214e+00, 2.195674037685728e+00, 7.918391956595981e-01, 6.297271784772349e-01, 3.222176024875375e+00, 3.915238044679452e+00, 1.201795015906869e+00, 9.427884728519041e-01, 8.926473183260693e-01, 1.723910748415686e+00, 4.929584799437516e-01, 2.322152582416297e+00, 6.969733078344952e-01, 1.476091081393046e+00, 1.932389340096656e+00, 1.157645322264734e+00, 1.876249632633765e+00, 2.954990679792248e+00, 5.847649433063581e-01, 2.600835709127685e+00, 2.389816689879703e+00, 3.867923525239781e+00, 1.963649266720389e+00, 1.044729689166110e+00, 1.904543347256202e+00, 6.458925512014431e-01, 2.566800466579723e+00, 1.724124843819620e+00, 1.103110918157154e+00, 2.373856726767619e-01, 5.793282591731597e-01, -4.711335693034957e-03, 2.040734759154771e+00, 4.221771523813795e+00, 4.372370864779719e+00, 2.161362187433105e+00, 5.526188476717590e+00, 3.723340936338920e+00, 1.810305513721509e+00, 1.520961985985447e+00, 3.306400269668517e+00, 4.153598800549050e+00, 1.318034885757166e+00, 2.986663925409049e+00, 1.701059847384822e+00, 1.374099209840505e+00, 2.361778467843263e+00, 2.106165405674263e+00, 1.777078903234225e+00, 3.400831999573483e+00, 2.290230728193240e+00, 4.166848485964793e-02, 2.763688928268087e+00, 3.083146846176585e+00, 2.335519065982084e+00, 2.817332963091426e+00, 1.101151269856466e+00, 1.212017950980670e+00, 1.096411786735643e+00, 3.154709512261726e+00, 3.212100454973185e+00, 1.809258483573132e+00, 2.606027140083319e+00, 1.957192011649967e+00, 4.004720463451273e+00, 1.524318708202508e+00, 2.722629891176129e+00, 2.778921161351034e+00, 8.569885469371886e-01, 2.447589263829016e+00, 1.476575211651054e-01, 1.921146679902300e+00, 2.548988951092624e-01, 1.793442064071612e+00, 1.982306917188919e+00, 8.647771864857521e-01, 1.373492444065552e+00, 9.793126420627014e-01, 1.782425847728942e+00, 2.400798555257651e+00, 1.781637594567812e+00, 2.306052562176510e+00, 1.923825632143990e+00, 3.352020943850692e+00, 2.621685765244916e+00, 4.023980195973301e-01, 2.918689385338165e+00, 2.010100144467356e+00, 2.189233051856307e+00, 3.110294723137478e+00, 2.251632657523338e+00, 1.978730286326807e+00, 4.780149626666830e+00, 3.583623108968077e+00, 3.306490558450112e+00, 3.348973653025108e+00, 2.257482425327470e+00, 3.469887648343635e+00, 8.823039802713599e-01, 1.891527299467683e+00, 1.764485172046651e+00, 3.634385269454428e+00, 1.217522303632489e+00, 1.458047914625596e+00, 3.265854717280822e+00, 1.934477632686007e+00, 2.665700170782572e-01, 2.870078353829850e+00, 1.267608740144730e+00, 3.575935288398852e+00, 9.825521849811348e-01, 9.726277511445367e-01, 4.379199841843137e-01, 2.021046738823514e+00, 1.671347643075843e+00, 3.633786001079204e+00, 2.656712511319484e+00, 3.274525180692506e+00, 2.735222662975779e+00, 2.249002379914176e+00, 3.086525225911723e+00, 2.697894108893331e+00, 2.000000000000000e+00, 2.438414200459162e+00, 1.967617298244128e+00, 2.287193562859497e+00, 2.227137538692960e+00, 2.946470812694613e+00, 3.459506792607218e+00, 3.528044193930257e+00, 3.591086054377211e+00, 2.866785549770739e+00, 3.445736617085073e+00, 4.018602259734410e+00, 4.298307841686440e+00, 1.978259089781797e+00, 3.407809282063032e+00, 2.346861403353127e+00, 1.112564028541856e+00, 2.475375211103196e+00, 8.495785118803878e-01, 9.369936819540817e-01, 4.469655678494923e+00, 9.660819232569646e-01, 3.072745378386729e+00, 2.000000000000000e+00, 2.857845533185038e+00, 2.462376017749514e+00, 6.035092806652279e+00, 2.624593679120964e+00, 1.877321736382520e+00, 1.965233484000144e+00, 9.723490863149967e-01, 1.508263721385725e+00, 1.465812939546748e-01, 2.037277481824408e+00, 3.489386761499431e+00, 6.066540719889379e-01, 1.692507043135857e+00, 1.569523414212363e+00, 5.965118936133503e+00, 1.333999516252836e+00, 5.010935104724859e+00, 1.018991824341776e+00, 2.614274172585681e+00, 2.723867263260839e+00, 3.283366270310007e+00, 3.026248141761596e+00, 2.833033189623281e+00, 1.302458826398325e+00, 7.446414258261654e-01, 9.410546514518570e-01, 2.808886162632776e+00, 3.546757052000254e-01, 7.979036735112541e-01, 9.997395027017614e-01, 2.308669561269430e+00, 8.950685777703917e-01, 5.254174586639602e-01, 1.036478004516881e+00, 2.395009889185538e+00, 8.152272572747604e-01, 1.016326893265010e+00, 1.036596964516570e+00, 1.274737161022419e+00, 1.143907333644634e+00, 8.618561653459659e-01, 2.046984848576696e+00, 7.736641685296876e-01, 4.397915766826295e+00, 3.234774349996077e+00, 3.715697987289829e-01, 5.043189538686281e-01, 8.028937550841837e-01, 1.027089392271297e+00, 2.594825074117357e+00, 2.340453157558354e+00, 6.354585451553409e-01, 3.414241287008482e+00, 7.901880143007526e-01, 9.647779326829315e-01, 5.417189984388453e-01, 1.149299482648269e+00, 3.048205828878170e+00, 8.174519731828235e-01, 1.027398980663394e+00, 1.476652359135881e+00, 1.538154293711516e+00, 2.546132278488387e+00, 1.911520134831205e+00, 1.212048972906345e+00, 1.231425234760042e-01, 4.323971930050493e+00, 3.980053164302494e+00, 5.954671001008384e-01, 1.373272591353988e+00, 1.395939124190557e+00, 2.537853672289001e+00, 2.253182453682917e+00, 9.858622453435495e-01, 3.754098083177523e+00, 2.900874348809414e-01, 1.060690225860761e+00, 2.827181178971976e+00, 7.057719647828994e-01, 1.636894530231761e+00, 1.915219597588219e+00, 1.344338544386759e+00, 2.333777360388061e+00, 2.488242262084883e+00, 3.284881868184427e+00, 1.720830541730327e+00, 1.084999397334581e+01, 3.990062437810655e+00, 3.013728893676668e+00, 6.216909544620319e-02, 3.134719765609957e-01, 1.442191642581259e+00, 2.206773319210972e+00, 4.932135928908457e-03, 1.946442768573109e+00, 1.826908042478870e+00, 1.123247058477238e+00, 2.881379144179517e+00, 1.811152973280229e+00, 3.419577418812215e+00, 3.140195286230440e+00, 6.684781715603617e+00, 1.126736288418082e+00, 2.199396879278726e-01, 1.092171513215666e+00, 2.204281407394349e+00, 1.417372982101627e+00, 3.682732377105900e+00, 3.083307907041282e-01, 2.317207321252293e+00, 1.409744414256887e+00, 3.019612409378354e-01, 5.550783360611191e-01, 3.426787086606543e+00, 4.103370239498954e-01, 2.231577964809633e+00, 9.984940319289923e-01, 7.694641622894687e-01, 2.343285399500235e+00, 2.844787377171392e-01, 3.010989442772941e+00, 2.384477641721887e+00, 3.460998728505146e+00, 4.597011525160420e-01, 7.739612244646603e-01, 3.257576367459972e+00, 1.948016802278600e+00, 2.121638140985674e+00, 3.211070460117319e+00, -5.629005908083427e-02, 3.053236107678284e+00, 2.638845716245101e+00, 1.449203260717784e+00, 1.741050775871223e+00, 3.517942296465931e+00, 1.451344658695572e+00, 4.064434076918556e+00, 4.687544723908913e-01, 1.374887766377850e+00, 3.484679106523349e+00, 3.937387856981334e+00, 1.418560911176459e+00, 3.694343937014009e+00, 3.555465468998338e+00, 2.000000000000000e+00, 9.230273518248686e-01, 3.490472354798774e+00, 9.098363524005310e-01, 4.384707069560100e+00, 1.876820824460989e+00, 5.222532321816957e-01, 2.869169519259314e+00, 3.623247920490401e+00, 3.942922729792854e+00, 7.675511083954487e-01, 1.768037641329229e+00, 4.454011882972713e+00, 4.366839258789458e+00, 1.664843266945196e+00, 1.343030673676601e+00, 2.215233919118738e+00, 9.913326588287769e-02, 1.154166999823822e-01, 9.918212455767977e-01, 1.466984647823696e+00, 4.996680581587851e-01, 8.478081425958156e-01, 2.763406350818409e+00, 3.327602415453859e+00, 1.193789165392123e+00, 1.382211522166530e+00, 1.690970337186215e+00, 1.432064274938321e+00, 4.397765447086327e+00, 8.659844983318009e-01, 2.442570365908285e+00, 2.335638762611246e+00, 2.535997905522976e-01, 3.954406000315745e-01, 2.034992010062322e+00, 4.067747876697895e+00, 1.208126765640031e+00, 2.305479134434996e+00, 2.601488788963940e+00, 3.341466328787379e+00, 3.281588253987273e+00, 6.721514358422824e-01, 2.861518467768103e+00, 3.928094788352786e+00, 2.944561785119049e+00, 2.667126636412363e+00, 2.698106884291978e+00, 3.197633200438823e+00, 1.637381201157174e+00, 4.941348985548605e-01, 2.276201827883753e+00, 2.046575679866627e+00, 2.116894972788675e+00, 1.788723324303617e+00, 3.080814964469178e+00, 1.599555394081623e+00, 1.209381795109358e+00, 1.642483953271474e+00, 1.398433154843715e+00, 1.571297259194697e+00, 1.543614711716916e+00, 9.147256060288034e-01, 2.881889094607156e+00, 7.499650314367228e-01, 4.460336150810504e+00, 1.990739435210230e+00, 3.017705398467383e+00, 8.126606483116615e-01, 4.292634144116976e-01, 1.512924981544332e+00, 3.245479560973507e+00, 2.110103607572020e+00, 2.206586252514306e+00, 2.077463380822656e+00, 2.574062373622603e+00, 5.138651947777979e+00, 2.080216791203235e+00, 1.223644822722278e+00, 1.877129757473606e+00, 7.492149694490111e-01, 3.316867134233428e+00, 2.475876013301862e+00, 3.185896924279606e+00, 1.547333947990688e+00, 2.964187753823071e+00, 2.752247554119577e+00, 2.046651419198911e+00, 2.189112374672867e+00, 2.818305018361542e+00, 2.197300645975676e+00, 2.794474784565848e+00, 3.078019494623805e+00, 2.020553304124358e+00, 2.035252842387569e+00, 3.753899039203087e+00, 3.222526079455776e+00, 2.846574175122802e+00, 1.111423884183747e+00, 2.980129812299920e+00, 1.973902352281255e+00, 2.692824875285918e+00, 1.551020913317093e+00, 6.018753562134422e-01, 1.446423412524916e+00, 1.729415544841472e+00, 4.036647976115371e+00, 1.723875793175224e+00, 2.115269978045464e+00, 1.896147121635559e+00, 1.985693512915937e+00, 2.497352769412521e+00, 1.340278424713791e+00, 3.886320603989474e-01, 1.079684378052949e+00, 5.820261610977898e-01, 8.120949206289513e-01, 3.194672277000647e+00, 1.190888642179456e+00, 9.984570062194009e-01, 1.492099219930698e+00, 1.675319585170407e+00, 1.302241681775205e+00, 3.801935870474340e+00, 5.257593322006239e-01, 3.589030657286192e+00, 2.709985062408368e+00, 9.644031180443425e-01, 5.981098141354968e-01, 2.298417088728428e-01, 3.215359441083501e+00, 2.650341130894340e+00, 2.302310659661400e+00, 1.500685417240838e+00, 1.836703745961553e+00, 2.276457513977216e+00, 1.198837351954943e+00, 1.426592120631610e+00, 1.791089409982429e+00, 1.646727534860114e+00, 2.380531009131401e+00, 1.731234575371630e+00, 3.013695791235724e-01, 8.442898606971282e-01, 2.912691043817577e-01, 2.112188782175230e+00, 1.577598053727791e+00, 3.331538884039628e+00, 3.271924594203999e+00, 1.910186333561285e+00, 3.226299379812391e-01, 1.663167049010843e+00, 1.159974097273752e+00, 1.227365848056721e+00, 2.318416282115669e+00, 9.097177936924234e-01, 1.418496862623732e+00, 2.024938663460978e+00, 5.929112567708184e+00, 5.568802172220966e-01, 4.714122325334132e-01, 2.492665171455671e+00, 1.776087912249284e+00, 3.584947622493511e-01, 1.767005746221153e+00, 2.771406403296331e+00, 1.881555744573954e+00, 8.089111291515308e-01, 1.999314564442370e+00, 1.418513167807663e+00, 3.051121774027383e+00, 2.168353301052588e+00, 2.097561994801186e+00, 1.928533934676675e+00, 1.579401862765634e+00, 6.418451251982853e-01, 1.036385116711903e+00, 5.935604673609524e-01, 1.226872892585507e+00, 4.181119899248899e-01, 2.129251723676940e+00, 2.625909255272435e+00, 8.621971021089548e-01, 2.601603705509056e+00, 2.378636551515860e+00, 2.539251952564588e+00, 2.394486100731153e+00, 1.986869446642251e+00, 2.412703482216444e+00, 2.607401865629919e+00, 9.858132346101175e-01, 1.437761407172193e+00, 2.085284099445422e+00, 2.000000000000000e+00, 3.374577415827337e+00, 2.392331017470851e+00, 2.000000000000000e+00, 1.301981527929024e+00, 1.927283043599282e+00, 1.608894618668490e+00, 9.206864332507196e-01, 1.022501756756418e+00, 8.825430397011688e-01, 3.937287554984152e-01, 3.583337241244538e-01, 4.335483567604563e+00, 1.192694210945343e+00, 1.733214051816128e+00, 9.635701091019941e-01, 1.143943293084513e+00, 9.827915032421134e-01, 1.544228036540874e-01, 3.106129665250119e+00, 4.954030383386985e-01, 5.545339272600791e-01, 1.721057990400794e+00, 3.221406234703833e+00, 1.598729250505813e+00, 1.203792361888310e+00, 1.354044180029154e+00, 1.178961501784145e+00, 6.027111307097042e-01, 1.107122777216589e+00, 7.558284281275868e-01, 6.565745640069665e-01, 7.916882948975095e-01, 4.290774223439954e-01, 3.980354227982184e-01, 1.215679308414378e+00, 2.555072741109575e+00, 1.701132385545475e+00, 1.596580310865561e+00, 4.434925896218676e-01, 1.930694818568018e+00, 2.179015483887005e+00, 1.505568710447305e+00, 1.045821934719933e+00, 2.350867780365724e+00, 1.702964570463853e+00, 1.893039361255809e+00, 1.231484818430170e+00, 6.410114606379853e-01, 2.658259210557507e+00, 2.293206019420365e+00, 1.490200457921108e+00, 1.645290958024090e+00, 1.184642838965559e+00, 6.482257704439223e-01, 9.417780034841698e-01, 1.598887060631294e+00, 1.955502769016799e+00, 2.179529768774534e+00, 1.814845743200335e+00, 1.980577367401329e+00, 2.037280820417093e+00, 1.623207446023197e+00, 1.783308598111458e+00, 1.704651210430403e+00, 1.638514836336913e+00, 6.774080771975125e-01, 1.788227287964906e+00, 1.487504463910661e+00, 1.969395985782412e+00, 1.641426439174025e+00, 1.286903155162131e+00, 1.361141252011116e+00, 1.142538453703930e+00, 3.983348810410081e-01, 1.241166688290885e+00, 1.091590583935622e+00, 1.330076629464458e+00, 1.144188728746916e+00, 1.118378971345756e-01, 1.498322736504085e+00, 8.765218839868708e-01, 1.641276697450635e+00, 2.192219401303468e+00, 2.353431365458602e+00, 1.994269427301713e+00, 2.000000000000000e+00, 2.000000000000000e+00, 1.529377859875066e+00, 7.187934642615089e-01, 7.943064316283903e-01, 1.101467754443507e+00, 1.139984822820537e+00, 8.089718145608564e-02, 4.232239616088343e+00, 1.808019979257785e+00, 8.650227084198343e-01, 9.418382941496761e-01, 2.189837098337860e+00, 1.141118893270622e+00, 1.598643572648810e+00, 5.784226739756239e-01, 2.633356078962631e+00, 6.819387098278745e-01, 1.182412403286278e+00, 2.021959551404527e+00, 1.095705798667485e+00, 1.775470652241741e-01, 7.220586221765595e-01, 2.609765676180542e+00, 1.794800808296440e+00, 5.186994714847728e-01, 1.638721909068866e+00, 3.300106934475498e+00, 2.470103234421573e+00, 2.130443082341036e+00, 2.061417012932090e+00, 1.899921758382764e+00, 3.090070824846899e+00, 1.969494674903716e+00, 2.408040910352884e+00, 9.218661303724994e-01, 1.179286970320953e+00, 2.723164070066467e+00, 1.779970963240551e+00, 2.571655100206713e-01, 2.235879645748472e+00, 6.514217501598377e-01, 2.001660783434587e+00, 1.551276075257270e+00, 1.938604942163126e+00, 1.144042676857185e+00, 1.067957285469181e+00, 9.227608748116796e-01, 1.263627533637028e+00, 1.393293255979798e+00, 9.948251062426714e-01, 1.723666119290597e+00, 2.308776386843305e+00, 1.100061133443500e+00, 1.419133618369474e+00, 2.719178950626552e+00, 2.121559868680603e+00, 2.000000000000000e+00, 2.514280432540833e+00, 8.657178923483737e-01, 1.618539163609824e+00, 2.175719437888384e+00, 5.921777186204652e-01, 1.837945189871763e+00, 2.009455918593349e+00, 1.737186748154595e+00, 7.888942833891069e-01, 1.339997368840067e+00, 1.402012719361184e+00, 1.472450890242733e+00, 2.894506341952202e+00, 1.651567086351173e+00, 4.254946701685965e-01, 2.166949607229027e+00, 3.048944606305911e+00, 1.168899764785491e+00, 2.806171062616611e+00, 1.601951526389930e+00, 8.511163216788984e-01, 3.277153524013571e+00, 2.060901505425031e+00, 2.537651751417850e+00, 1.855030079328510e+00, 2.954737656826624e+00, 2.000000000000000e+00, 2.000000000000000e+00, 3.460494677832842e+00, 1.035696042602107e+00, 6.181959679241997e-01, 3.246510211221626e-01, 6.903741029496049e-01, 9.037606151456498e-01, 2.417485644147242e+00, 2.313805494116803e+00, 1.876417643666511e+00, 3.163921637048326e+00, 1.767188307206272e+00, 8.264128390390210e-02, 1.377487154417272e+00, 1.648606791792587e+00, 2.293550721146167e+00, 5.215826459293630e+00, 2.096054293493700e+00, 1.592622498106753e+00, 7.401297658623828e-01, 6.572748749889767e-01, 9.539931256648300e-01, 2.139013767491488e+00, 3.428399470363764e-01, 6.613598158850450e-01, 6.684244877530334e-01, 3.904655583886137e+00, 1.718542840754754e+00, 9.344912658516512e-01, 2.262887035223040e-01, 2.345185387944473e+00, 1.075374403924769e+00, 2.485980068841114e+00, 2.811538658734987e+00, 3.480084492818679e+00, 5.246230923405593e+00, 9.201392794470157e-01, 8.045720985650521e-01, 6.137329724383073e-01, 1.746577543487036e+00, 4.057999119529843e-01, 4.844279057396485e-01, 9.573851818638048e-01, 3.451114970421919e+00, 2.588646799668839e+00, 2.902186604359903e+00, 1.191590700302241e+00, 4.207256434302705e-01, 1.713434825044704e+00, 3.721766015385310e+00, 2.597810835651644e+00, 3.788439949044074e+00, 2.707528508491182e+00, 2.937765778893202e+00, 2.821228435733086e+00, 2.992588863207413e+00, 2.000000000000000e+00, 1.681893001150580e+00, 1.134675536577872e+00, 1.648847826214130e+00, 2.746401779477011e+00, 2.792017773827863e+00, 2.870490878007233e+00, 1.151632712385207e+00, 1.876662538324040e+00, 3.090871494782256e+00, 5.153859717985495e-01, 1.355242068258879e+00, 2.397050423305444e+00, 1.615074054689463e-01, 3.317405336917358e+00, 6.349390064981209e-01, 4.053964748912098e-01, 2.540213421252654e+00, 3.211160711158098e+00, 3.077543750013271e+00, 2.932237568887719e+00, 1.756875021154121e+00, 3.137840182705916e+00, 1.992496165883918e+00, 3.082028376138763e+00, 1.628072983830118e+00, 1.092778811980686e+00, 2.159435262835982e+00, 2.142553424225506e+00, 1.813390313903879e+00, 1.864665681678773e+00, 1.122819447041585e+00, 3.855271108813680e-01, 8.165596090881945e-01, 1.479621300597017e+00, 1.976753223402908e+00, 3.502546145104619e-01, 6.429364172028689e-01, 2.052016426592842e+00, 2.103564542566990e+00, 3.890722921826906e-01, 1.114601835051918e+00, 2.547438721236252e+00, 7.507536597216231e-01, 1.877552813551202e+00, 8.926836350940871e-01, 3.322371450199070e+00, 1.322769111459701e+00, 2.992105054207972e+00, 1.780807816138220e-01, 7.001511063493145e-01, 4.193419556863686e-01, 1.454836574346601e+00, 9.422098593811182e-01, 3.278631611589104e+00, 6.708639601169422e-01, 8.579966289900679e-01, 2.848749736712398e-01, 6.987854838636943e-01, 2.445487695015346e+00, 1.310374481668865e+00, 9.638856565974876e-01, 7.730188092318260e-01, 1.378846442008802e+00, 1.744111398499937e-01, 2.661882931556306e+00, 9.233475811827213e-01, 3.133813690232534e+00, 1.684328584132854e+00, 9.635306264106052e-01, 8.693472839347658e-01, 8.554950401319457e-01, 8.947071486872371e-01, 9.982193965209252e-01, 1.689211118945464e+00, 1.057988683128250e+00, 1.414019017441825e+00, 3.795222119431179e+00, 3.228836730362046e+00, 1.486427057164814e+00, 1.986268437554308e+00, 1.827535217996390e+00, 2.597036427479097e+00, 2.265348175067212e+00, 2.000000000000000e+00, 1.027692887781701e+00, 2.049889208585435e+00, 1.407560019731756e+00, 1.907920825394920e+00, 2.685213257962527e+00, 1.132443488558218e+00, 1.362254678219426e+00, 1.729580826880245e+00, 1.139682188897924e+00, 2.067741841635268e+00, 9.620928301326748e-01, 3.567957540951536e-01, 2.623659145586899e+00, 3.104424776483865e-01, 1.095233459922346e+00, 2.697115601850028e+00, 1.990748542915880e+00, 2.259095578691446e+00, 2.497468617321290e+00, 1.483818301548680e+00, 1.626351685689317e+00, 2.584721399237959e+00, 1.678417304956989e+00, 1.443265884152941e+00, 2.870917653143834e+00, 2.610466843146256e+00, 7.969835566490033e-01, 1.862599669210927e+00, 9.877985045611566e-01, 2.478065234084922e+00, 9.386235795642807e-01, 1.023897391766203e+00, 1.734442834839756e-01, 1.036129511465780e+00, 1.563619354809390e+00, 1.330317488183289e+00, 9.436291298217745e-01, 1.387517852874325e+00, 1.528293714771692e+00, 5.595425028193260e-01, 2.018708710720648e+00, 2.447789790601501e+00, 8.758881234914738e-01, 1.365088208528715e+00, 2.494037737032470e+00, 2.121851623718384e+00, 1.776655948387166e+00, 1.157437639531627e+00, 1.798018060777424e-01, 1.516141220920643e-01, 3.700176307465766e-01, 2.782077577991135e-01, 2.492117333816862e-01, 7.418605818025840e-01, 1.752913281877357e+00, 9.852272769628702e-01, 1.042684416355242e+00, 1.420326756162965e+00, 1.244006409512934e+00, 1.760580884057634e+00, 2.168116894870361e+00, 7.712456424019705e-01, 1.500237469463726e+00, 1.121560507578908e+00, 1.055494201673925e+00, 2.830990874287090e+00, 3.116758114825674e+00, 3.285347480056780e+00, 1.515649610900118e+00, 2.015931018175159e+00, 2.143079975141552e+00, 9.812468373663396e-01, 2.829967296671488e+00, 3.831683342696897e-01, 4.267348253236702e-01, 2.265188068104178e+00, 1.898251761304262e+00, 8.192142502504007e-01, 1.417895313795071e+00, 1.474592704170629e+00, 3.025393906403179e+00, 2.105504845540461e+00, 4.337250832583982e+00, 2.000000000000000e+00, 3.202702209793391e+00, 2.606820679913024e+00, 3.616740630352834e+00, 7.473042775315742e-01, 1.458703328864735e+00, 2.037686293227412e+00, 6.782499486436462e-01, 1.233123543158188e+00, 1.426955665528234e+00, 1.088518291643257e+00, 2.754282558158143e+00, 3.297816882832570e+00, 1.548592435062790e-01, 5.590621419214079e-01, 2.469661924179021e+00, 1.685103650534024e+00, 3.234742229116792e+00, 1.097191568728950e+00, 3.570993615061157e+00, 9.190383278724137e-01, 7.677715403481962e-01, 2.835488403456013e+00, 1.858674989368379e+00, 3.869343163093434e-01, 1.986588972994050e+00, 1.339867006606019e+00, 2.811344898078458e+00, 2.294360889124223e+00, 1.671811926197198e+00, 8.680492548436050e-01, 2.882857764945137e+00, 8.802264233244342e-01, 1.227215756758911e+00, 1.319506561462499e+00, 8.221137430303074e-01, 1.386564765892211e+00, 4.333215142139616e+00, 1.154863954895836e+00, 1.154881635942511e+00, 9.510413032466861e-01, 1.133787849064205e+00, 1.395603795335826e+00, 7.222376960107720e-01, 1.437117555592721e+00, 4.077891600456714e+00, 1.763463014379220e+00, 1.182608519504667e+00, 4.007159327419858e-01, 6.218195978439855e-01, 2.098363213547608e+00, 7.184365790664103e-01, 9.370000120974471e-01, 1.353598458484642e+00, 8.711820003256906e-01, 1.981945699622305e+00, 2.012469869777293e+00, 1.718715935335882e+00, 2.540462396257652e+00, 2.078080458590547e-01, 1.121782555598001e+00, 1.162973280491059e+00, 2.038102294116753e+00, 2.694425500248796e+00, 1.610823321421764e+00, 1.530765570701443e+00, 4.317957412179315e-01, 1.047699979911419e+00, 9.005034971331032e-01, 1.352011564976552e+00, 2.180086958812062e+00, 2.273598891171871e+00, 2.193671290430781e+00, 7.343750574753897e-01, 1.508587963078794e+00, 2.685043485611114e+00, 1.687181657413338e+00, 1.223676061686961e+00, 1.542170209934726e+00, 3.459906252580156e+00, 6.664071749223363e-01, 1.356999818103876e+00, 1.651239668166752e+00, 1.249317435511496e+00, 2.000000000000000e+00, 4.221429136330144e-01, 2.279337902943683e+00, 1.499070984915879e+00, 7.068518063460381e-01, 4.816949798636410e-01, 8.063274490192752e-01, 1.420052754388659e+00, 1.003263861469196e+00, 1.372904757355856e+00, 1.653623159073468e+00, 1.123857333608864e+00, 7.492740992932593e-01, 3.002847218344264e+00, 2.146376229776388e+00, 1.938179747891143e+00, 2.917305383774530e+00, 1.287093021627566e+00, 2.452053654854100e+00, 1.001015515728628e+00, 1.576579307863412e+00, 1.934447227029163e+00, 2.752905771631906e+00, 1.867331347922410e+00, 2.066085755571105e+00, 1.742558950475383e+00, 2.034105722406762e+00, 1.358332481189400e+00, 1.982164345143684e+00, 2.215643851440127e+00, 4.554073409514850e+00, 1.169075369531326e+00, 3.887344231278997e+00, 1.884377223399428e+00, 1.700867796723863e+00, 1.097127291166685e+00, 9.301354231135776e-01, 2.682080077239686e-01, 1.244439667868829e+00, 1.893248508518572e+00, 2.166884420465651e+00, 3.314516339497095e+00, 1.073016402520440e+00, 4.642963309114674e-01, 1.675833633112140e+00, 2.413253057415253e+00, 1.546551761817630e-01, 1.311730053604365e+00, 1.516725714941503e+00, 1.610212270904915e+00, 1.443253451413695e+00, 2.592716211178481e+00, 1.646808967048219e+00, 2.642591769242515e+00, 1.287492596981218e+00, 1.005189299290252e+00, 1.891333736169260e+00, 3.691584043180741e+00, 3.237456279437853e+00, 4.132072395791872e+00, 2.145405692472734e+00, 2.200094081279557e+00, 2.024260243141127e+00, 1.690226824416012e+00, 1.217070591157426e+00, 1.667619145914105e+00, 3.361980796816151e+00, 1.310984540940093e+00, 2.272678822760001e+00, 1.330255988388031e+00, 2.033080030218617e+00, 2.528444665788045e+00, 1.206926686560002e+00, 9.094063905229751e-01, 7.507692161006148e-01, 3.855854533415770e+00, 3.350369945716021e+00, 1.868081385172072e+00, 1.102373974981138e+00, 1.982018006235835e+00, 1.313624826683109e+00, 9.332611109604305e-01, 8.679092256662427e-01, 5.817106866287645e-01, 1.879547318199516e+00, 3.109568437261773e+00, 1.892234453020326e+00, 1.118779116699410e+00, 1.324325009804514e+00, 1.274609533878359e+00, 1.386015505467074e+00, 1.661951735924226e+00, 1.350187514823077e+00, 2.889265485130413e+00, 1.341275103433578e+00, 1.221049028318888e+00, 2.134908942681320e+00, 1.936406817713132e+00, 5.302610073437258e-01, 1.701016337516698e+00, 1.802286350677889e+00, 3.396142277446740e+00, 2.102767400518168e+00, 2.749832529360800e+00, 7.288104635729937e-01, 4.993557564550820e-01, 2.891681348651349e+00, 2.000000000000000e+00, 9.206593742129738e-01, 1.998349172987395e+00, 1.569186122497122e+00, 2.233404516263678e+00, 2.470482738807767e+00, 1.574676750032848e+00, 4.450887914410724e+00, 1.026057660590166e+00, 6.240558262235996e-01, 1.193500105462616e+00, 1.014395495473154e+00, 1.139386036435078e+00, 1.250317612141641e+00, 3.895815719550921e-01, 1.804658330706752e+00, 2.604420006383204e+00, 1.802164633686067e+00, 1.290042442606891e+00, 1.484901382816399e+00, 7.730134559784269e-01, 8.232787815945778e-01, 8.804619507023252e-01, 1.109984089869031e+00, 4.862036117720480e+00, 9.807453890061166e-01, 2.196105452758042e+00, 2.175579291951978e+00, 2.928418064245721e+00, 1.815413321390685e+00, 1.565597233632174e+00, 3.244958332474315e+00, 1.158816669886977e+00, 1.748018409273614e+00, 2.522102534499286e+00, 2.296077883075411e+00, 1.673968063733362e+00, 1.090550039723047e+00, 3.323220942252644e+00, 4.275318074822677e-01, 1.053307220044802e+00, 3.910141485720140e+00, 4.154873975317871e+00, 2.998217139548188e+00, 1.649959754282212e+00, 2.606064567731302e+00, 1.215047900000142e+00, 2.033917574306520e+00, 2.759211340843339e+00, 1.875182513052144e+00, 1.407210603558708e+00, 2.595807990486531e+00, 7.379734173247107e-01, 2.276086979278648e+00, 1.422163521636790e+00, 2.581622588238412e+00, 1.313809066921801e+00, 5.519407603707571e-01, 1.532012766220086e+00, 1.143792319707671e+00, 2.743987774579379e+00, 2.097656982579347e+00, 2.142149701076060e+00, 1.068223333047378e+00, 3.675534194499163e+00, 1.923523920975981e+00, 1.540179462809244e+00, 1.033733309640556e+00, 1.350739419240113e+00, 9.503753131785395e-01, 5.790404687139047e-01, 1.274826212389296e+00, 1.812419769490083e+00, 3.792425706511425e-01, 1.241404890447509e+00, 4.788317443880203e+00, 2.127265165874255e+00, 3.047960781056004e+00, 4.059346486406866e-01, 3.177620308822966e+00, 3.312555623724089e+00, 1.742547822235257e+00, 1.405225309154208e+00, 4.580062159811427e-01, 1.837737257899012e+00, 1.039981637686625e+00, 1.955544775695157e+00, 1.270315224925761e+00, 1.547827947710288e+00, 6.824005980032527e-01, 1.093701436633618e+00, 7.435220088793519e-01, 1.149174015802434e+00, 1.188674601695587e+00, 1.899362921287858e+00, 3.545804455041640e+00, 5.332495038298426e-01, 7.735592564457175e-01, 1.387494612328257e+00, 6.268922012793056e-01, 5.862726693474315e-01, 1.941378222590405e+00, 2.193797872490966e+00, 1.015963760055409e+00, 1.028007090912063e+00, 2.609931697664524e+00, 2.790814811586255e+00, 1.081371138271412e+00, 1.986832337763404e+00, 6.262392738792560e-01, 2.363645861842267e+00, 2.723924117549243e+00, 2.107163550399934e+00, 1.623947218163607e+00, 8.598604222389731e-01, 7.242075733857201e-01, 2.995647988496749e+00, 2.033380513465632e+00, 2.865547969346917e+00, 1.430990454062488e+00, 4.101856154474435e-01, 1.113431349900107e+00, 2.252611501017443e+00, 1.905527002388545e+00, 6.229019449314270e-01, 4.657242359272216e-01, 1.347777641792882e+00, 1.210998754840174e+00, 2.162313592691726e+00, 2.082842060272071e+00, 1.859022017917925e+00, 3.031023446554668e+00, 8.167314981776684e-01, 1.455336396015433e+00, 1.138396503659231e+00, 2.279446383495761e+00, 2.258916953294172e+00, 2.012266031712788e-01, 9.323205805932817e-01, 2.036337530165893e+00, 2.977567022692981e+00, 1.417433585938045e+00, 2.220073565578900e+00, 2.835483275726264e+00, 2.025540601612354e+00, 2.121541680156803e+00, 1.312012861069738e+00, 2.931217743403499e+00, 8.803092586565314e-01, 1.327485814754314e+00, 8.401608840167596e-01, 1.445817968452945e+00, 1.495207204718685e+00, 2.134727807679865e+00, 5.671014531746728e-01, 1.111501565922251e+00, 1.936397026063411e+00, 1.501252642749433e+00, 1.113639682959932e+00, 1.956858987798215e+00, 1.855348369858044e+00, 2.514617309175711e+00, 2.604602623800493e+00, 1.372450216312153e+00, 1.863954768688047e+00, 1.503384794613971e+00, 2.317848127539189e+00, 1.852887306165068e+00, 1.642266519567175e+00, 2.226569982666836e+00, 1.963208870796103e+00, 1.565840598049863e+00, 1.605824136058870e+00, 1.371536032805672e+00, 3.125443268036800e-01, 1.583349235444113e+00, 2.427702660079931e+00, 1.600165635048991e+00, 2.409290966500119e+00, 7.251249594427552e-01, 9.519803707491213e-01, 2.170955031213595e-01, 2.240683822673679e+00, 1.148882275743242e+00, 8.547530027255752e-01, 1.950419573994227e+00, 1.822185096482418e+00, 1.627489697552363e+00, 7.056584360163840e-01, 3.273224269875181e+00, 9.533302116745792e-01, 1.274099862525552e+00, 3.431310189785677e+00, 1.482063670787199e+00, 2.131777364532638e+00, 9.226621157464635e-01, 1.295627506183790e+00, 1.047547433969975e+00, 9.592790187018367e-01, 9.879729584257309e-01, 1.238626302123162e+00, 3.101601877659454e+00, 3.585162298193550e+00, 8.947470310686001e-01, 3.406159748908259e-01, 1.251531743160934e+00, 2.345351042689622e+00, 2.133666852292727e+00, 2.934842154256350e+00, 1.944478523261070e+00, 3.634913045016422e+00, 3.963617428594359e+00, 2.109880178847993e+00, 2.404053437777820e+00, 5.195211868491176e-01, 7.116922254298942e-01, 1.495339649624816e+00, 1.821673279961310e+00, 3.336272332830163e+00, 4.039740761433075e+00, 2.509627624263937e+00, 1.241663570338130e+00, 2.163679178906678e+00, 1.748815611477622e+00, 3.596448590262366e+00, 2.233548411550439e+00, 2.107261352770440e+00, 1.673569840773561e+00, 1.743882871658756e+00, 1.993082731198019e+00, 2.018467676494106e+00, 1.225657641649566e+00, 2.185074905438513e+00, 2.260862560394265e+00, 2.025341275332501e+00, 2.187266539807568e+00, 1.488215849053480e+00, 2.992194972164208e+00, 8.138850409197438e-01, 1.846401682954229e+00, 1.838979285482841e+00, 3.329507436224159e+00, 3.560467876577295e+00, 2.156574398450642e+00, 2.014096218959219e+00, 3.568473326230215e+00, 2.092253043352998e+00, 3.504309378225936e+00, 1.312379873896024e+00, 2.056201295992477e+00, 2.321904192608567e+00, 1.110033067686935e+00, 2.959496252034246e+00, 2.115701533837607e+00, 2.086283846241066e+00, 1.851999498424784e+00, 1.416871196316842e+00, 2.050713988958557e+00, 1.010539516948782e+00, 2.868289230657406e-01, 6.969075754995012e-01, 2.260100998570109e+00, 1.409699698370827e+00, 9.300850653276317e-01, 1.583575926396167e+00, 1.108299153862176e+00, 1.435448221193682e+00, 1.547822357292082e+00, 2.351165973498722e+00, 1.263404857164098e+00, 5.117555904797133e+00, 1.279949347779466e+00, 2.074772935930016e+00, 1.427243320040399e+00, 1.553920340151152e+00, 1.680210247250061e+00, 4.148876976948190e+00, 1.680572278749699e+00, 2.184060588906982e+00, 1.536500171911089e+00, 5.103386178699677e+00, 6.465655412382781e-01, 6.062889233591066e-01, 1.366228886784989e+00, 1.866759926745265e+00, 1.957334421764359e+00, 6.078350100442395e-01, 1.558336978672145e+00, 2.093590700437941e+00, 2.522018817565604e+00, 3.106160316531458e+00, 1.215417447863909e+00, 2.047934893537600e+00, 1.446817113651864e+00, 3.352541008590823e+00, 7.376447723902501e-01, 2.029487561475628e+00, 3.471461594697626e+00, 2.880797497683508e+00, 1.904889200789820e+00, 3.420318040187543e+00, 1.485986023223977e+00, 2.264355064283775e+00, 2.825313800689928e+00, -1.518857747688067e-01, 2.660074550656941e+00, 1.498413993259697e+00, 1.881701894010754e+00, 3.690842291775317e+00, 2.838562320161417e+00, 3.507237819995555e+00, 9.009482870390266e-01, 5.032006145814200e+00, 2.280615906796986e+00, 8.873663981214893e-01, 2.183539688074051e+00, 2.609647242244671e+00, 2.508451936505841e+00, 1.539399694095826e+00, 1.546562517191557e+00, 1.620469310304766e+00, 1.279419865986797e+00, 3.222336965311793e+00, 3.603404668813567e+00, 2.483052751907117e+00, 2.617702674738589e+00, 1.547305481851555e+00, 2.405491129755009e+00, 1.794941133129368e+00, 9.360000924142610e-01, 1.759657746780307e+00, 9.382777982015018e-01, 2.151869913020123e+00, 3.054696538293412e+00, 8.988834308244240e-01, 6.886225406164183e-01, 1.468407454591012e+00, 1.901425768243222e+00, 1.988679591259018e+00, 2.913069167854858e+00, 1.944399369973730e+00, 1.918433918704532e+00, 1.312230390388252e+00, 2.818722065935058e+00, 9.633324740045660e-01, 1.468267387808117e+00, 3.165240801114773e+00, 6.260927167107235e-01, 8.730412170559696e-01, 2.817126098373073e-01, 1.405709625915905e+00, 2.054548718208757e+00, 3.021818387658428e+00, 1.466973757879162e+00, 3.309693640103221e+00, 1.445702050446164e-01, 1.372831339435072e+00, 3.333741053572624e+00, 2.473777912067369e+00, 1.308565699540059e+00, 1.381331851274974e+00, 2.140496404438692e+00, 5.892893679559944e-01, 1.053000601576256e-01, 3.429894031432024e-01, 1.120487752849090e+00, 6.743582091740323e-01, 2.590116214303979e+00, 2.445284202810381e+00, 3.073933971919469e+00, 1.643248839810129e+00, 2.980347947559200e-01, 2.941911748152950e-01, 1.827546756003991e+00, 2.774763811312601e+00, 4.040044126522682e+00, 3.589634906748200e+00, 4.203798285286443e-01, 8.448314866050420e-01, 2.341514667861001e+00, 2.790630779859006e+00, 2.778179647132268e+00, 1.268277796783461e+00, 2.475090384271132e+00, 1.126842075187971e+00, 2.487158093524515e+00, 2.397225083702914e+00, 2.196762259361830e+00, 5.666943219476925e-01, 1.003220127240940e+00, 2.203885578802529e+00, 2.334976293347279e+00, 9.002158418664428e-01, 2.389664919187310e+00, 4.107993965940486e-01, 2.932374743907399e+00, 2.918935275915918e+00, 2.095168328767054e+00, 1.644347620544128e+00, 1.451707145737199e+00, 1.872477005370182e+00, 2.362604124180347e+00, 2.579225497707072e+00, 5.085306941194713e+00, 1.141741744610178e+00, 2.791311436010025e+00, 8.060672426629124e-01, 3.353761458030223e+00, 7.669123748937687e-01, 2.398649949099354e+00, 2.684788994605687e+00, 2.373060148010011e+00, 2.746688886859177e+00, 2.882290701113465e+00, 4.491642606202300e-01, 1.488518929543045e+00, 2.471387224186576e+00, 2.352450046469285e+00, 3.340583787219994e+00, 2.539161177367489e+00, 2.325768560538392e+00, 8.327756149419862e-01, 2.017611095600622e+00, 3.411214414847455e+00, 1.260176067996776e+00, 2.102913752536514e+00, 1.139896703167359e+00, 6.915084355375187e-01, 1.892117896848852e+00, 9.669469304998661e-01, 1.142636538030324e+00, 2.182250089586679e+00, 9.910922227451144e-01, 1.154177278034745e+00, 1.512212036075276e+00, 1.039146183938512e+00, 3.676366154883353e+00, 2.373859411758090e+00, 2.292589975774121e+00, 1.045397224263115e+00, 7.169283811871446e-01, 6.238503709729043e-01, 6.071450105607926e-01, 3.323656970017517e+00, 9.552705099925325e-01, 5.952149597809332e-01, 1.065087082658266e+00, 2.271946786094992e+00, 3.477487110318782e-01, 4.248072905460437e-01, 1.038305241616432e+00, 1.376918575693538e+00, 1.612900268494175e+00, 1.719020421512228e+00, 8.576741416655873e-01, 1.562138303424032e+00, 4.440590008514798e-01, 8.152251836346198e-01, 2.265543929613115e+00, 2.359781248814215e+00, 2.590492785573090e+00, 1.906016658900345e+00, 9.167741336365156e-01, 2.984963090344746e+00, 3.180320671153354e+00, 5.005404646662226e-01, 3.485809125875649e+00, 1.889351345934511e+00, 9.353101495300955e-01, 1.062664907272744e+00, 1.966474299268581e+00, 1.703145383957304e+00, 2.068570188158335e+00, 8.633570878966990e-01, 2.185712823028795e+00, 1.219311806713514e+00, 3.522123345039611e+00, 3.138449422844563e+00, 3.706943410048069e+00, 2.432506429343714e+00, 2.681135527254527e+00, 1.951533370123401e+00, 3.135384980848527e+00, 1.958758076459963e+00, 2.134196547926098e+00, 3.133071012204752e+00, 1.513931442584890e+00, 1.142387069138325e+00, 1.666428434607493e+00, 2.874774465653336e+00, 1.843687212607974e+00, 2.520566421179710e+00, 1.444367757026289e+00, 7.895324337252552e-01, 1.815383721191828e+00, 1.559175718307462e+00, 3.527785892947048e+00, 1.859722731076501e+00, 7.372675707181326e-01, 6.504243692042433e-01, 4.353397236773142e-01, 7.284270418443255e-01, 1.954012995816236e+00, 1.974649067777772e+00, 2.000000000000000e+00, 2.037991778843075e+00, 1.562527595895562e+00, 2.935484141567193e+00, 1.521907561165694e+00, 2.000000000000000e+00, 6.050379875621410e-01, 9.582029113314043e-01, 1.918885712117011e+00, 4.589277333535374e+00, 2.741808099894471e+00, 3.603383239141997e+00, 9.984021459164518e+00, 3.323049702881629e+00, 3.226770225741928e+00, 2.086955704659188e+00, 4.985441513602414e+00, 1.970361640437064e+00, 4.679453627200045e-01, 1.925890349249557e+00, 1.436297192509518e+00, 1.749445947330596e+00, 2.499578191693361e+00, 3.450027306280995e+00, 2.883650902731357e+00, 3.482630846626271e+00, 3.236704987782264e+00, 1.286368845053554e+00, 3.061510934041245e-01, 3.512342432426896e-01, 2.352094526145605e+00, 3.438433332336180e+00, 2.888733170099321e+00, 1.180211205246413e+00, 7.411377404315078e-01, 2.755444373760651e+00, 4.219758468130819e+00, 8.769793146760364e-01, 1.736266138570896e+00, 2.544766925124866e+00, 3.690613187691656e+00, 1.322514425390212e+00, 2.622226439255480e+00, 2.834441373802085e+00, 2.312894896902213e+00, 8.106610219458730e-01, 2.851350366516196e+00, 1.052708975713831e+00, 4.081650326804395e+00, 2.937750174076910e+00, 3.217774512513651e+00, 2.471797087944695e+00, 7.638156236887180e-01, 4.959178588144797e+00, 2.211153388663823e+00, 3.004551655264767e+00, 8.911566694241672e-01, 2.431962927616497e+00, 3.657323211671190e+00, 3.439026553085469e+00, 3.697035129442032e+00, 3.494976072425495e+00, 3.212916422294016e+00, 2.186048448614679e+00, 2.678641763830904e+00, 2.772175708514234e+00, 3.192178061973516e+00, 2.383904911089053e+00, 2.304337634021327e+00, 5.385293972615527e-01, 2.997632388760413e+00, 2.079598353725007e+00, 1.588924865886610e+00, 2.560873380629299e+00, 3.530513806876205e+00, 9.243774937485524e-01, 2.169040635956886e+00, 1.037450114120309e+00, 7.037427727377762e-01, 5.071040158279934e+00, 1.406766711729518e+00, 2.053204284532934e+00, 2.347401738045614e+00, 2.984879597849860e+00, 2.040753067546514e+00, 3.508567434982909e+00, 1.753595945228119e+00, 2.112318361200924e+00, 1.047767605923198e+00, 3.520964444528743e+00, 1.440065031687353e+00, 6.354144337774262e-01, 2.506555730100333e+00, 3.003079113798237e+00, 3.927145183242702e-01, 2.822927642901661e+00, 3.149317750862700e+00, 5.402499854392080e-02, 5.710644851634887e-01, 1.822316661353012e+00, 1.548298845345348e+00, 3.642145559695299e+00, 1.079176237703827e+00, 1.273206279984761e+00, 8.475685911561022e-01, 2.997104372655930e+00, 3.556824631029875e+00, 2.904781730323440e+00, 2.608329227776482e+00, 3.842750465837996e-01, 2.036804332225146e+00, 2.310085684847733e+00, 1.849356341092061e+00, 3.161344779783294e-01, 6.005148371326378e-01, 5.789270666740898e-01, 8.738693868158376e-01, 8.150191832170460e-01, 1.627651074090795e+00, 2.616913069759221e+00, 1.017399292183747e+00, 2.737616647982283e-01, 5.063589936156103e-01, 3.509081766635510e+00, 3.303758196603554e+00, 4.783272204621969e-01, 9.941454372574603e-01, 3.656679675410363e+00, 1.587128107050370e+00, 7.692652715653909e-01, 2.310931571485625e+00, 4.199494512800787e-02, 7.931017875439514e-01, 2.241293975069797e+00, 2.526698046745020e+00, -6.078983330855660e-03, 2.114386742508157e+00, 1.179866041372208e+00, 1.366053620965129e+00, 1.557357458514911e+00, 3.708294903292308e+00, 3.573595681152160e+00, 3.519552213627941e+00, 3.388904794628045e+00, 3.724310844581274e+00, 2.022242558530397e+00, 3.866358501421397e+00, 2.222303909398067e+00, 2.322042766937525e+00, 3.303243776974560e+00, 2.338670895819976e+00, 3.047361318273710e+00, 4.023491240972053e+00, 8.550830621293158e-01, 2.195086848053265e+00, 2.569227764838355e+00, 2.060481345907269e+00, 2.904193399811282e+00, 3.988631028333705e+00, 3.985413314734159e+00, 1.458849181991359e+00, 1.740525680813642e+00, 3.964214046530775e+00, 2.359297075585960e+00, 1.288388304950104e+00, 1.043210479156703e+00, 2.114350542106266e+00, 1.369902210257633e+00, 3.306304938476530e+00, 3.693464928808458e+00, 3.133544350884627e+00, 4.069226957879070e+00, 1.937897274516722e+00, 3.580218732530505e+00, 1.948743635203770e+00, 1.260586389499333e+00, 1.905503700335919e+00, 3.506047206095477e+00, 8.064907938773919e+00, 3.756635197926121e+00, 1.401519589550771e+00, 1.945095809770176e+00, 2.117972002590493e+00, 1.245199186747496e+00, 2.135303318909622e+00, 4.154792350093970e-01, 4.755382695587593e-01, 1.637516951837096e+00, 3.660514326708564e+00, 2.758636471229545e+00, 2.388049446603837e+00, 2.824250207293220e+00, 3.057925898325430e+00, 2.434044810714098e+00, 3.258698494813431e+00, 1.831723212193676e+00, 1.207267853327400e+00, 7.076719274598732e-01, 2.926918843527285e+00, 2.220430986226982e+00, 1.602880548702813e+00, 1.842618869614206e+00, 3.094140300536744e+00, 1.079957135689670e+00, 1.402490392979948e+00, 3.946124296627260e+00, 3.151740506909275e-01, 2.693020052025250e+00, 2.673041326304277e+00, 2.520415998408506e+00, 3.308110330847415e+00, 1.392988866307232e+00, 1.860571223668176e+00, 1.146824090780634e+00, 1.707968248375314e+00, 1.996585541458805e+00, 1.541937041002768e+00, 1.356082152854430e+00, 1.541843960761896e+00, 1.930748519860493e+00, 1.456665677674503e+00, 2.025631244055698e+00, 3.330703188041527e-01, 2.809874704341655e+00, 1.614392445441176e+00, 8.084211027258581e-01, 1.409542636439075e+00, 3.018860106612621e+00, 2.229931050362391e+00, 1.823368401377091e+00, 2.881176426431566e+00, 1.872562161000626e+00, 2.388312605487525e+00, 2.790409676251342e+00, 2.964502422145261e+00, 3.124091473079917e+00, 2.812627479051408e+00, 2.088704879716044e+00, 2.371134908988428e+00, 1.923363547188931e+00, 1.375305951737745e+00, 3.634787829945762e+00, 2.795129742297808e+00, 1.992241196327675e+00, 2.337756530346982e+00, 1.420613223245531e+00, 2.694529559475102e+00, 1.876490114134585e+00, 7.614228655508474e-01, 1.489449669011686e+00, 2.694607167613916e+00, 3.240466764648067e+00, 9.978017113929791e-01, 2.611309020303056e+00, 2.253562405438692e+00, 1.995791450448322e+00, 1.953099844176546e+00, 3.083816794318921e+00, 7.784123598165754e-01, 7.916829220147945e-01, 3.536745454101588e-01, 5.568462533659059e-01, 4.411380657328418e-01, 1.368402714343383e+00, 1.621267130162439e+00, 1.147691157126539e+00, 8.543301717341690e-01, 2.819450989453685e+00, 9.267742043271606e-01, 7.051997041571204e-01, 2.270106995152078e+00, 1.123947144905199e+00, 3.704946664554190e+00, 1.410146256907036e+00, 2.437323293423645e+00, 1.832575541574363e+00, 3.738159250583609e+00, 3.596074543421377e+00, 1.402861647499197e+00, 4.635942334997857e-01, 6.179676389173669e-01, 1.472791240986742e+00, 5.751488646453006e-01, 1.062778968687780e+00, 1.228981968045029e+00, 2.553313158523633e+00, 1.574867348993784e+00, 4.323419838473716e+00, 3.267847446304488e+00, 8.077089138984308e-01, 2.427115750702502e+00, 7.570038892732105e-02, 1.181558168000308e+00, 2.058652363220828e+00, 9.979124140504696e-01, 1.293636847503550e+00, 2.639801102651090e+00, 2.047942248706954e+00, 9.785097179181202e-01, 1.646929182268331e+00, 1.484774877956932e+00, 1.211922975691240e+00, 1.092797331076492e+00, 9.896902351603223e-01, 5.415334993149102e-01, 1.386076881328210e+00, 3.190920581667226e-01, 1.575970019583563e+00, 2.961641973883114e+00, 1.093185432506197e+00, 1.378073117652455e+00, 1.634476000835842e+00, 1.901226600554633e+00, 2.000000000000000e+00, 1.144448579514578e+00, 1.532569515943548e+00, 1.851115623903779e+00, 1.425630607101821e+00, 2.254211011881478e+00, 1.094870899463942e+00, 2.861822828871121e+00, 2.160531891162885e+00, 2.848292655184959e+00, 2.060224310790986e+00, 3.486067456876188e+00, 2.622885500265279e+00, 2.659879863577536e+00, 3.011498173973085e+00, 1.281780303461416e+00, 1.015221246450287e+00, 1.928848882636263e+00, 2.241353463876562e+00, 9.978348031110588e-01, 1.991219451371173e+00, 1.210718063431077e+00, 5.191669823004132e-01, 1.734955381030513e+00, 2.096493336590735e+00, 2.005394137723859e+00, 2.386034546113679e+00, 1.578679945053614e+00, 2.000000000000000e+00, 3.484785386669581e-01, 5.680440665614096e-02, 2.013196123718583e+00, 2.429433752072226e+00, 1.540226135226750e+00, 5.035367446200431e-01, 2.996403517500456e-01, 4.497144142899331e-01, 1.463449153573016e+00, 8.745321834889060e-01, 9.112083626970097e-01, 1.076793533154133e+00, 1.594540261815925e-01, 1.377795681843402e+00, 1.242628943505967e+00, 2.582411786504090e+00, 1.072764146474767e+00, 9.047099185924856e-01, 1.273391971913339e+00, 2.166844992096659e+00, 1.169972349893152e+00, 1.685340706865341e+00, 1.648611915507393e+00, 1.397061069285972e+00, 3.788922277714744e-01, 6.501871125132997e-01, 1.241944666282048e+00, 1.305791537278324e+00, 6.778387886323917e-01, 1.727641801391313e+00, 1.060586123038866e+00, 1.814073893870481e+00, 2.390566708922322e+00, 8.653206784156409e-01, 8.059024802246955e-01, 1.833367245201802e+00, 1.009508181959843e+00, 1.015629925906380e+00, 2.471306413360484e+00, 1.827559635302497e+00, 1.615746354678533e+00, 7.033827257542531e-01, 9.668857073653454e-01, 8.631439377664888e-01, 1.382544526464909e+00, 1.122888329853536e+00, 1.102158450175035e+00, 1.886523839203486e+00, 8.390812917551809e-01, 9.814470853628758e-01, 9.708332162431187e-01, 1.643187599845991e+00, 1.509923541670268e+00, 1.618175943514473e+00, 1.512888850353463e+00, 1.617836196039494e+00, 1.640490733993411e+00, 6.716922726991184e-01, 1.923115342790098e+00, 2.258141149771201e+00, 1.490856419001452e+00, 2.270108290498263e+00, 1.743986294790197e+00, 1.733584351632475e+00, 1.201052398818101e+00, 1.759376643240449e+00, 3.197481302396366e+00, 2.847040646068280e+00, 2.030219983364784e+00, 2.613053695440482e+00, 2.792221492558374e+00, 8.955223736278535e-01, 3.383569888819227e+00, 1.900248843767893e+00, 1.336293396409299e+00, 1.844208183078537e+00, 1.501470665348730e+00, 1.082079980363815e+00, 1.701028584598715e+00, 2.796617707048036e+00, 2.224260396856840e+00, 2.179851925551064e+00, 1.589071452478134e+00, 1.731771910848257e+00, 9.676490228824477e-01, 1.656098252986272e+00, 1.778462049148778e+00, 6.264841259933407e-01, 9.988935227162871e-01, 2.138341376106985e+00, 1.881561886925307e+00, 1.718364365958309e+00, 6.096155997403729e-01, 8.956454313403729e-01, 8.531373278474099e-01, 1.645297327944111e+00, 2.985191611330574e-01, 1.466001357111256e+00, 5.462258308754300e-01, 5.077791255200081e-02, 7.456273431214253e-01, 9.829820187195778e-01, 8.897822461226739e-01, 1.151289736243096e+00, 3.052954799557104e-01, 1.349329889540466e+00, 9.474059564479652e-01, 1.621297486451672e+00, 1.933951756002264e+00, 1.209194082645367e+00, 6.087451169943648e-01, 1.555442444528992e+00, 5.519646052536564e-01, 2.534465754992900e-01, 7.523910705051510e-01, 2.186619171086768e+00, 1.225567385548774e+00, 2.478806602104830e+00, 2.271786969234000e+00, 1.664833999789761e-01, 9.393101201949321e-01, 9.156181841473492e-01, 5.581872712565690e-01, 2.003519420156731e+00, 7.041462459967700e-01, 1.431632213227006e+00, 1.359889675839500e+00, 2.297595807110926e+00, 1.484532535411650e+00, 1.822385222210334e+00, 1.601082011996757e+00, 1.460410610309791e+00, 6.069858112443578e-01, 1.283026847446271e+00, 1.381397324612943e+00, 9.080662218189226e-01, 1.767675565795198e+00, 1.527193340138865e+00, 1.105571474942031e+00, 1.736265102809792e+00, 1.359817987175116e+00, 1.426288344952804e+00, 1.640839478325141e+00, 1.454202947345434e+00, 1.964134050864034e+00, 1.983694260004625e+00, 9.230041438754050e-01, 2.239025626588410e+00, 1.665406809466870e+00, 1.787498991840448e+00, 2.678476183551630e+00, 1.684736394508766e+00, 3.756670073542088e+00, 2.601354353340827e+00, 1.235987340102052e+00, 1.739313850525173e+00, 4.306186364976147e-01, 1.215199420345712e+00, 2.490179521120394e+00, 1.285539517035054e+00, 2.275594864603895e+00, 1.292621671413960e+00, 2.000000000000000e+00, 2.071072213300758e+00, 2.060663334765222e+00, 1.090009668838463e+00, 1.873127299386309e+00, 2.067248840897241e+00, 1.513555635285248e+00, 4.192567718074166e-01, 1.784514822016191e+00, 1.017888313092928e+00, 6.751070436145309e-01, 6.663334926163321e-01, 1.570287728869878e+00, 2.255556258268814e+00, 4.457596017936384e-01, 7.015919128650382e-01, 5.846393110851784e-01, 6.634956204139366e-01, 4.363739785145492e-01, 1.855714214569655e-01, 1.719500032204459e+00, 1.530789510728844e+00, 9.796407994147172e-01, 1.095566071710378e+00, 8.028575047075479e-01, 1.572857478156351e+00, 1.448282242967283e+00, 5.489458289111984e-01, 2.096950035172068e+00, 1.292661564897697e+00, 2.173148763235798e+00, 2.650111794658836e+00, 2.266887587750627e+00, 1.135569200379344e+00, 1.579533450475468e+00, 5.298588216239370e-01, 1.649803377055550e+00, 2.247927236463120e-01, 1.841156936943277e+00, 1.070290700850886e+00, 2.599918557194255e+00, 1.225043600718499e+00, 7.370232215091123e-01, 7.573086136338120e-01, 1.125526298276617e+00, 1.938000049420947e+00, 1.556502198096220e+00, 1.137881444491680e+00, 1.082445022292323e+00, 2.088762850696078e+00, 7.644766050583193e-01, 1.930553755060109e+00, 2.487436072323368e+00, 6.788688551852853e-01, 4.982181282817957e-01, 1.711361388014502e+00, 1.113364618160593e+00, 4.686480536215184e-01, 1.653676138709001e+00, 1.885000389631709e+00, 8.483248175165680e-01, 2.000000000000000e+00, 2.854644447706046e+00, 1.882481913516951e+00, 1.472983311781209e+00, 3.271042033062144e+00, 2.290393800251733e+00, 1.391852890593084e+00, 1.900236394016131e+00, 1.926803736217836e+00, 9.515606614830230e-01, 1.909288247352676e+00, 6.283233197795105e-01, 5.511144500061256e-01, 5.218558675875932e-01, 3.805040402361513e+00, 1.744050482389718e+00, 1.183247578658474e+00, 8.021957939551856e-01, 1.197786374595966e+00, 1.758796413569221e+00, 2.419865810638298e+00, 1.410669922468577e+00, 3.468450452885549e+00, 1.909224540645503e+00, 1.801425763939758e+00, 1.650286026421856e+00, 1.490375871698412e+00, 2.000000000000000e+00, 2.000000000000000e+00, 1.947929824938260e+00, 9.502582199883198e-01, -8.221640139178527e-01, 2.425546716357039e+00, 1.981320702679308e+00, 9.528888809456887e-01, 2.051036473701182e+00, 2.015971137936904e+00, 1.666165757443150e+00, 2.080482524749913e+00, 2.888405849896426e+00, 1.247560782786629e-01, 6.838687828110902e-01, 2.981855859175892e+00, 3.054539303053659e+00, 4.308148307702917e+00, 1.318034949696595e+00, 3.525291791576965e+00, 2.170731921297758e+00, 1.626854459240229e+00, 1.652753736031621e+00, 8.670109252328846e-01, 1.771551767782964e+00, 3.607544683097848e+00, 3.510543363031842e-01, 7.030379310047291e-01, 1.021285918002362e+00, 2.367357381046275e+00, 2.691713897872626e+00, 7.078558064348749e-01, 2.787195305475468e+00, 2.359219849505209e+00, 1.510741546530937e+00, 2.360578317161264e+00, 4.054054878806916e+00, 3.629424211484977e-01, 1.544428779063382e+00, 1.327493534303589e+00, 1.427936917302744e+00, 1.681547761788250e+00, 6.390327431067490e-01, 1.704129616411118e+00, 1.246667640476861e+00, 1.695282304297084e+00, 2.360885589267863e+00, 1.760361372185081e+00, 3.227947939955097e+00, 3.809009840180943e+00, 5.353026256384009e-01, 3.587159126474462e+00, 2.042520478033561e+00, 2.615543838142834e+00, 3.148544135484156e+00, 3.598057109738598e+00, 3.548575978315937e+00, 2.000000000000000e+00, 3.215324522974334e+00, 3.939167457752504e+00, 3.846055939339648e+00, 2.808395885158555e+00, 2.945303095812814e+00, 3.415267038414251e+00, 3.573298546742450e+00, 3.594608209650273e+00, 2.316588096876223e+00, 3.293782488454589e+00, 2.955556295945686e+00, 1.990301191864332e+00, 3.314295276750931e+00, 1.029880900266480e-01, 1.096515371756191e+00, 2.461611078305668e+00, 2.320296229016409e+00, 1.972948642330421e+00, 1.429627896991139e+00, 1.834860766305223e+00, 1.930470175184704e+00, 3.965648855868978e+00, 1.717033245087283e+00, 2.933275249343745e+00, 1.848964097667528e+00, 2.714596966764622e+00, 2.625443685568134e+00, 2.591637725225360e+00, 2.109170535995359e+00, 2.022302939935053e+00, 2.017635808517485e+00, 2.429994685515188e+00, 1.006155792807907e+00, 7.152036515629087e-01, 2.325862046000374e+00, 5.196674197699044e-01, 1.519634422579906e+00, 1.158714802710875e+00, 2.320033097702424e+00, 2.316662544801155e-01, 1.151070218236935e+00, 7.338143321150438e-01, 3.272333367315627e+00, 2.431758932696781e+00, 1.750715319824667e+00, 1.967422527948572e+00, 1.285889988341320e+00, 1.191078418841474e+00, 8.389156789259995e-01, 1.794367930423331e+00, 2.187722370206227e+00, 2.323206809346769e+00, 2.658673722601272e+00, 2.505160652256026e+00, 2.330800265957086e+00, 2.088798157400354e+00, 2.640850953145822e+00, 6.346191563710226e-01, 6.468776898198009e-01, 1.588731411782706e+00, 2.672740266644642e+00, 1.702335942541316e+00, 2.911565772790940e+00, 2.032086278363164e+00, 1.658919465622456e+00, 2.085067876990213e-01, 2.012101768114919e-01, 1.629537862517135e+00, 2.243463426280557e+00, 1.602467186336064e+00, 1.946752000643733e+00, 5.782053873295490e-01, 2.155666419429932e+00, 2.682980082459483e+00, 1.813925367928179e+00, 2.000000000000000e+00, 3.669928832698201e+00, 1.670772347705188e+00, 2.141943732280165e+00, 2.999696925694654e+00, 2.000000000000000e+00, 2.000000000000000e+00, 1.877374387703344e+00, 2.000000000000000e+00, 2.000000000000000e+00, 1.331964976603127e+00, 2.000000000000000e+00, 2.000000000000000e+00, 1.882324494417184e+00, 1.847780958143103e+00, 1.820018138352283e+00, 1.878627707680894e+00, 2.053268174972398e+00, 1.944964112621087e+00, 2.122109488137672e+00, 1.205268755444383e+00, 1.411956810812568e+00, 2.503027533606367e+00, 1.876033089083196e+00, 2.074656928009869e+00, 1.116224673909121e+00, 1.962258985629361e+00, 2.000000000000000e+00, 8.031102536867886e-01, 1.738731579789649e+00, 3.295102420419524e+00, 2.000000000000000e+00, 1.868304317125401e+00, 1.868499379819805e+00, 2.368515618513885e-01, 2.648057186657129e+00, 1.095808883129904e+00, 2.758719498625661e+00, 1.619841263581577e+00, 1.418726565134126e+00, 5.186744905389484e-01, 1.216715576250743e+00, 2.171883569054575e+00, 1.705984432926168e+00, 1.825035159656453e-01, 3.632999207574448e+00, 1.963017308048036e+00, 1.857935106730332e+00, 2.356456954421775e+00, 9.183711255838398e-01, 5.503811908288423e-01, 1.499488822144721e+00, 2.378069232743014e+00, 8.650527163060590e-01, 6.313771459719782e-01, 1.703150431337323e+00, 2.053176163464399e+00, 3.132448273721657e+00, 1.343545624353722e+00, 8.952266033070935e-01, 1.357543537778009e+00, 1.304942689603589e+00, 9.473408469717512e-01, 3.511648053999594e-01, 1.399523655807308e+00, 1.960010522894995e+00, 1.686367341533686e+00, 3.570229879452796e+00, 9.947778355683867e-01, 2.581283347838598e+00, 1.890398647135817e+00, 2.944141108065949e+00, 1.031991935364978e+00, 8.428038458371614e-01, 3.530788844142462e+00, 1.046415010041269e+00, 1.481836052224509e+00, 1.275183581748795e-01, 2.123155331191870e+00, 4.140048761500910e-01, 2.038212599839860e+00, 1.350632653695014e+00, 2.265145244180191e+00, 2.095199246684800e+00, 6.566452302817835e-01, 2.290335771611480e+00, 1.589801414706606e+00, 2.104198915296770e+00, 2.127565514232106e+00, 1.194430883569473e+00, 8.786221494063098e-01, 7.044917099075084e-01, 2.103281654845234e+00, 8.677585299865921e-01, 1.039931847257573e+00, 3.600681245251180e+00, 2.307651935989567e+00, 2.420593054729747e+00, 1.573709851823847e+00, 1.415768012147656e+00, 1.968656088197904e+00, 2.528617212827127e+00, 1.817271964770583e+00, 1.725656853647014e+00, 1.793322920436684e-01, 3.396890914535263e+00, 3.170614524689126e+00, 1.216591460044020e+00, 2.181654957790212e+00, 1.838179799142345e+00, 1.667591786885888e+00, 2.394061976445698e+00, 1.500516526562564e+00, 2.109804849626452e+00, 2.371994708154936e+00, 2.000000000000000e+00, 2.581449588011708e+00, 1.786888160390642e+00, 1.357154928465682e+00, 1.731240599457095e+00, 1.303809371845842e+00, -3.020897647190258e-02, 1.377705676627491e+00, 1.508421230353428e+00, 1.303329714474403e+00, 2.315209122770015e+00, 6.321306471138707e-01, 4.416762809797044e-01, 1.205731601143505e+00, 1.113945860516092e+00, 1.009458229432804e+00, 2.558845651164260e+00, 1.936167275720369e+00, 2.498842227729862e+00, 2.894214188192297e+00, 6.632522795178930e-02, 1.999493021064424e+00, 2.037655118134368e+00, 9.129870621159449e-01, 1.088917110940497e+00, 2.478692181300329e+00, 2.787181974264070e+00, 6.459303502246300e-01, 1.500011058754986e+00, 7.876058572663324e-01, 2.145420205415463e+00, 7.108888152971140e-01, 2.278452040245828e+00, 1.818080178851422e+00, 2.417450190430448e+00, 1.160304217564051e+00, 8.740983969122958e-01, 2.753216447050800e+00, 1.542397318021853e+00, 7.956699323229743e-01, 1.149065675419097e+00, 2.200675429961175e+00, 1.650128092108709e+00, 1.954459796182552e+00, 1.081452943278220e+00, 1.256889813065233e+00, 1.082097325199102e+00, 1.011173664208169e+00, 1.149744981021616e+00, 3.701978144697435e+00, 3.255810587133949e+00, 1.738941247219572e+00, 2.153931857893321e+00, 6.377143389509380e-01, 2.505942715990815e+00, 1.295721860468246e+00, 2.536034562123246e+00, 1.667613235358385e+00, 1.077384939424495e+00, 2.146967654014373e+00, 2.252130792962933e+00, 1.873037557762007e+00, 1.125805919706799e+00, 9.353243528388074e-01, 2.208193815359520e+00, 1.173332839125744e+00, 1.268843982052379e+00, 2.001176724979118e+00, 1.009026633306434e+00, 1.517896061487408e+00, 1.299498625527220e+00, 2.181779311752002e+00, 1.463946667974185e+00, 1.351071875786836e+00, 2.814237721338824e+00, 2.915722791997336e+00, 1.323087305726896e+00, 1.779736892901888e+00, 1.699090936756028e+00, 1.775790663392147e+00, 1.439545451766845e+00, 2.218118622308329e+00, 2.184595280251782e+00, 1.397657256725024e+00, 1.165539289426593e+00, 1.892234486654403e+00, 2.000000000000000e+00, 9.956598193757256e-01, 1.516922256135306e+00, 3.054206741588041e+00, 2.175426973127869e+00, 8.518363524860770e-01, -1.867850162201247e-02, 1.704553602179277e+00, 1.927297278620213e+00, 8.163756560261723e-01, 2.824835354203663e+00, 3.573058229614761e-01, 3.411982430247866e+00, 1.083492702382532e+00, 1.628659175876842e+00, 1.690007179642942e+00, 3.009361203985767e+00, 1.091490401692881e+00, 2.195940148162189e+00, 2.220642016682544e+00, 9.815172197833243e-01, 2.986195569391045e+00, 1.808246276087616e+00, 2.448681834204468e+00, 1.706814746792261e+00, 2.397318174523252e+00, 1.991422825465944e+00, 1.683332923457256e+00, 2.270896705399883e+00, 1.145295267287517e+00, 2.320153498543360e+00, 4.392871453486050e-01, 1.677170628625733e+00, 1.931596245100242e+00, 1.221398915771537e+00, 1.015269033527629e+00, 2.650482992487242e+00, 1.648634911921779e+00, 8.386912941023945e-01, 1.693342556891535e+00, 2.052865771963505e+00, 2.754050829746626e+00, 2.065585787803628e+00, 1.817511926923885e+00, 1.377271022100758e+00, 1.711253003493029e+00, 1.377084085302166e+00, 1.316116945505601e+00, 1.876337299434411e+00, 1.930061391478494e+00, 2.273903365686709e+00, 8.494741853105873e-01, 1.555859912371802e+00, 1.897153924580573e+00, 5.092810397635876e-01, 1.803061031653955e+00, 2.154726263894930e-01, 6.124759335452196e-01, 1.177117656354166e+00, 1.980911891739773e+00, 1.401211819843021e+00, 1.334043036165634e+00, 1.872668721278443e+00, 1.395736339045305e+00, 1.775091958520171e+00, 1.253556995547276e+00, 2.145113909516218e+00, 1.487715993125229e+00, 2.101943161245932e+00, 1.964731045326380e+00, 2.035815264647808e+00, 9.781127850586143e-01, 2.162385037711968e+00, 1.800627091258572e+00, 2.011652120159624e+00, 1.125214589158442e+00, 1.841390799031454e+00, 1.823607066123319e+00, 1.878775043943984e+00, 1.841785186768675e+00, 3.043751164305745e+00, 7.841997915618393e-01, 1.534232136594414e+00, 2.411550598828627e+00, 2.000000000000000e+00, 4.303626411934286e+00, 1.926473022422936e+00, 1.852046127235774e+00, 3.499996335830750e+00, 2.718314618053618e+00, 2.037464221955720e+00, 1.935002903840090e+00, 4.216940417489976e-01, 4.392119858578463e-01, 6.624464318358804e-01, 1.366523755027984e+00, 1.477572695248657e+00, 1.911273950571128e+00, 1.616118388642840e+00, 3.648985886755685e+00, 7.666622294742416e-01, 1.390964310487104e+00, 2.498585145180428e+00, 2.268481014269685e+00, 1.773692147723762e+00, 2.118404195811663e+00, 1.238639845629971e+00, 2.465101134803006e-01, 9.729030649764487e-01, 3.561360373417719e+00, 2.614540673587604e+00, 2.685406783335896e+00, 2.404188416187809e+00, 2.231199871204065e+00, 3.311245937278143e+00, 3.156774187060159e+00, 1.131230197819866e+00, 1.039321350080759e+00, 2.452861277330508e+00, 1.050151109895863e+00, 3.299092954431013e+00, 2.663112462509190e+00, 7.298551686450673e-01, 1.867233336970386e+00, 6.651043216326066e-01, 7.610275515726274e-01, 2.078060528833279e+00, 1.751718799121344e+00, 2.239048749337235e+00, 5.643820871894347e-01, 8.254210021323677e-01, 2.817904210376973e+00, 1.499075800483895e+00, 9.215393271385395e-01, 4.972424942803115e-01, 1.252332822983456e+00, 5.652729199140278e-01, 2.011988788163531e+00, 3.319858822361204e+00, 9.212062009281643e-01, 2.625176956947909e+00, 1.887360366551974e+00, 1.864552969665100e+00, 1.978521383863036e+00, 1.527081727023315e+00, 1.703597937196625e+00, 1.090940077314276e+00, 1.447727338970041e+00, 1.186986105239813e+00, 1.456231475437624e+00, 2.367839571982110e+00, 1.680833987155707e+00, 1.371828456809221e+00, 2.220272461001644e+00, 2.014713169212222e+00, 8.692961541396910e-01, 5.636396059245516e-01, 2.378842626615727e+00, 2.160326580650594e+00, 1.805583588146709e+00, 2.168521485205460e+00, 1.336044677700194e+00, 2.326121078844929e+00, 1.733940693036660e+00, 1.584051539480396e+00, 2.693307141495017e+00, 1.952915040090256e+00, 1.187239775482884e+00, 2.030818538338911e+00, 2.781107020471688e+00, 1.969897770075802e+00, 1.917959988361855e+00, 7.622786971707862e-01, 1.032946851855963e+00, 1.394206324795835e+00, 1.649049276057889e+00, 3.265789205840985e+00, 3.647563959592723e+00, 3.202292451497760e+00, 1.603454347553042e+00, 8.930281822302381e-01, 3.373508715454966e+00, 3.462380777435675e+00, 3.014291244615821e+00, 1.022618500293560e+00, 1.616834607943811e+00, 9.245072969110838e-01, 2.154403856612236e+00, 1.836383445012251e+00, 2.676507741121107e+00, 1.791505954968643e+00, 4.976104012751191e-01, 1.491572780535417e+00, 1.900877012190064e+00, 2.373402628349752e+00, 6.142484659750596e-01, 6.362059275393710e-01, 1.446020245434037e+00, 2.063610118291942e+00, 1.401384475794282e+00, 1.948385349922747e+00, 4.026982316409288e-01, 3.023996388934995e+00, 6.486690103875419e-01, 2.680230028054729e+00, 1.740905530029457e+00, 1.612115561392393e+00, 2.419153585936428e+00, 1.900566992820990e+00, 2.273026218533184e+00, 3.077766176448089e+00, 1.994897204316891e+00, 1.759454317473780e+00, 1.783277803285505e+00, 9.108533769839088e-01, 1.282066593057814e+00, 2.032236888785483e+00, 2.498828841493555e+00, 1.553560121309164e+00, 1.302808528419715e+00, 1.154733223602460e+00, 9.866298422226858e-01, 2.718852832151915e+00, 1.733264091086179e+00, 1.542300368196396e+00, 2.946864427651985e+00, 2.126605117153970e+00, 2.147500588878568e+00, 1.601028720172848e+00, 1.199974106708565e+00, 1.618933149908331e+00, 1.816565136746210e+00, 1.705618312064022e+00, 2.474860901514925e+00, 1.840874550587187e+00, 2.264085905016992e+00, 1.631768074804814e+00, 2.321458320479719e+00, 2.299637494945320e+00, 2.693119328538480e+00, 1.873289510288714e+00, 2.389925730206640e+00, 1.885797044961230e+00, 2.061687783815886e+00, 3.597324777213780e+00, 1.137255503061331e+00, 1.038398853580303e+00, 8.020181910255098e-01, 1.338038862157964e+00, 1.586620284917887e+00, 1.517653919764037e+00, 2.476094791800382e+00, 1.931193423097679e+00, 2.686033935779852e+00, 2.270898275180595e+00, 1.969410544319762e+00, 1.131000498494807e+00, 1.613056221561088e+00, 1.893187239837544e+00, 1.145834329801859e+00, 1.361622181404865e+00, 1.766385763575511e+00, 9.407141105104692e-01, 8.460685307559435e-01, 1.809940357361899e+00, 2.238251405316672e+00, 1.714543431919072e+00, 2.037972924037015e+00, 1.336050713311451e+00, 8.829701685051049e-01, 3.111896489455097e+00, 2.340335263129185e+00, 1.718005214883145e+00, 1.331988192353443e+00, 1.692439965033255e+00, 8.517888840029261e-01, 2.587857073819671e+00, 3.175598746497453e+00, 2.299096873633891e+00, 1.687828946221289e+00, 1.634540872556173e+00, 3.932551687372162e-01, 2.454501073066869e+00, 2.189904861274929e+00, 2.778023773662901e+00, 2.619017068023592e+00, 1.198024801928099e+00, 3.972202967314522e+00, 1.382943399061872e+00, 2.156244330790200e+00, 2.460189230522436e+00, 1.031114284894578e+00, 7.946182656953750e-01, 1.406184873318457e+00, 2.051884710337229e+00, 1.514716077583818e+00, 2.875817164457293e+00, 2.720157273213649e+00, 2.483054781961297e+00, 2.179921386720100e+00, 2.833682386975571e-01, 3.007632749888534e+00, 2.478246696309350e+00, 1.388324368888635e+00, 9.789589829750275e-01, 1.333948299768389e+00, 1.757133364887091e+00, 1.412410979042339e+00, 1.776793570099759e+00, 2.253210854923410e+00, 1.774888566710301e+00, 2.246898388329339e+00, 2.695445046672819e+00, 2.304965143650200e+00, 2.386851406929920e+00, 1.860142939125071e+00, 1.414530622726903e+00, 1.765858774565242e+00, 2.184296197351932e+00, 1.789988499757398e+00, 2.238596983752364e+00, 2.520084616441811e+00, 1.891028152641100e+00, 1.946404672017310e+00, 2.322678462843780e+00, 1.593097866829962e+00, 2.008480169552426e+00, 8.698525557832723e-01, 1.462804701053125e+00, 1.847314925558414e+00, 2.015892663687414e+00, 1.859590748879231e+00, 1.322468826468149e+00, 1.470216747484593e+00, 2.520013122468082e+00, 2.113662070773209e+00, 2.085237153030804e+00, 2.349630081184266e+00, 2.206444350514512e+00, 1.946968335504460e+00, 1.210596403320229e+00, 1.760660759121627e+00, 1.319450201411430e+00, 2.149289063245554e+00, 1.690674818419837e+00, 9.432767206705947e-02, 5.216215627694201e-01, 9.191258990792418e-02, 8.185114257578180e-01, 2.415740355833536e+00, 2.901308886919431e+00, 1.900734088940120e+00, 1.911975971877620e+00, 1.239036437911580e+00, 3.712965751759999e-01, 2.006833854981346e+00, 2.339923677282505e+00, 1.735945681879653e+00, 9.067223042231199e-01, 3.264860240731660e+00, 4.540412228696949e-01, 4.682990890378785e-01, 2.393385416947652e-01, 1.082309214467364e+00, 8.215273380891936e-01, 1.133992510540681e+00, 1.812640800414869e-01, 1.654499703678450e+00, 2.620429951736130e+00, 1.130203105986013e+00, 6.334467266025263e-01, 3.144854549000698e-01, 7.989905974901087e-01, 6.565445695464799e-01, 1.202783926932031e+00, 1.176104814358381e+00, 1.715556406882544e+00, 9.850316739991645e-01, 2.024741567957634e+00, 2.025369057281026e+00, 1.300971435830080e+00, 1.155918992015348e+00, 1.134339634239967e+00, 1.923119217627910e-01, 2.938150324031346e+00, 4.554755858444987e-01, 1.196179025500895e+00, 1.475928620302110e+00, 1.731696226354344e+00, 1.395990166402507e+00, 7.707387083005004e-01, 1.316138844235060e+00, 1.849242634282030e+00, 1.576345448341709e+00, 1.566022846967484e+00, 1.858383260961932e+00, 2.210013209938557e+00, 2.859617511565712e+00, 1.355810652593586e+00, 1.038750468583891e+00, 1.410245736858840e+00, 1.514933980003044e+00, 1.640374009938919e+00, 1.360709498046572e+00, 1.561304197084039e+00, 1.734842269569505e+00, 1.837470483426856e+00, 6.765452461307061e-01, 5.008479417627425e+00, 2.971965288238821e+00, 2.043382487775031e+00, 6.905752183283445e-01, 1.251187021203890e+00, 2.453259611043097e-01, 9.420123921831088e-01, 8.197732035438697e-01, 1.451139438004339e+00, 2.098855375793828e+00, 2.275994080184229e+00, 2.204255564985746e+00, 1.967112356914393e+00, 1.307928491669278e+00, 1.491316563981367e+00, 2.742847493897576e+00, 5.771103257989962e-01, 6.885343012319303e-01, 4.101627129768202e+00, 1.380034356789475e+00, 2.870579118605235e+00, 3.200698122299040e+00, 7.647171867567906e-01, 1.818071276449374e-01, 2.622423911592238e+00, 1.758766619441565e+00, 8.590733997423475e-01, 2.434096553275931e-01, 7.456184228449138e-01, 5.787357554502931e-01, 1.251956782054356e+00, 1.358510153379095e+00, 1.070790915527570e+00, 2.818976499397672e+00, 2.374667607994733e+00, 1.515083787198963e+00, 1.765580078444024e+00, 2.378691631732164e+00, 8.289820591245232e-01, 1.915925838790347e+00, 3.879951503644739e+00, 6.585009658144868e-01, 1.317166872490986e+00, 5.453005727541400e-01, 9.930158409007478e-01, 1.421688768769430e+00, 1.308157581212388e+00, 1.517105671738922e+00, 1.597784218945231e+00, 1.468537777317708e+00, 2.020331024237922e+00, 3.128912533292598e+00, 1.280888318308186e+00, 1.385666797588776e+00, 2.789064329124453e+00, 1.578852349621736e+00, 3.151408831876651e+00, 7.684767029954268e-01, 1.131820959224932e-01, 1.308772918724415e+00, 1.487863144848783e+00, 1.420812500982323e+00, 1.012751145341011e+00, 1.874366293907920e+00, 8.329743953138328e-01, 1.190655494932976e+00, 1.069557584259127e+00, 9.448999899768667e-01, 1.879093277454680e+00, 1.223970074216753e+00, 9.311515126146080e-01, 2.000000000000000e+00, 1.076033828739287e+00, 1.032934424060562e+00, 2.701245659187780e+00, 1.380515240086216e+00, 2.427861272956009e+00, 1.393112421129972e+00, 2.093779477657407e+00, 2.045073363896137e+00, 1.523853393310460e+00, 1.747850011166245e+00, 2.888777441122318e+00, 9.077682991376410e-01, 1.385650385190148e+00, 2.407826650376697e+00, 1.764673326989235e+00, 2.448568284017802e+00, 8.140022260395841e-01, 2.584534407080577e+00, 4.673574850121961e-01, 1.535593759947221e+00, 1.710162274567696e+00, 8.229617042878669e-01, 2.000000000000000e+00, 2.951177299446043e+00, 1.974417047219920e+00, 1.547563562906445e+00, 1.875578850643357e+00, 2.068875522121810e+00, 1.668127762009132e+00, 4.107534470598472e-01, 2.364605606263451e+00, 2.051613307668522e+00, 4.131813998721642e+00, 1.076657962302181e+00, 1.278835410174679e+00, 1.922508725857607e+00, 1.881582445025028e+00, 3.775327048437419e+00, 6.365257361459106e-01, 3.084099526363520e+00, 1.229999289515737e+00, 3.511193326591997e+00, 6.421904882633722e-01, 1.316349043367317e+00, 3.388716998714050e+00, 3.049081920207444e+00, 3.995771576994899e+00, 3.326155274236273e+00, 3.822904244913040e+00, 1.510102109834103e+00, 9.000222105523855e-01, 6.027817390039546e-01, 2.503825312240477e+00, 1.232586144941198e-01, 3.648833983854007e-01, 3.001470889821033e+00, 1.142503743404726e+00, 4.974576948102811e+00, 9.224245331356220e-01, 2.118102459142061e+00, 3.540072464068756e+00, 2.015148238622538e+00, 3.380203025472905e+00, 5.315101513817651e-01, 3.270527163564100e+00, 5.493954157459862e-01, 2.000000000000000e+00, 4.746487589923166e+00, 9.037120695619002e+00, 1.818586586545864e+00, 1.796757056856026e+00, 3.558014542955013e+00, 9.606477055151341e-01, 2.669944706608147e+00, 1.634183465697076e+00, 2.686867780438020e+00, 4.076721057616907e-01, 4.350804673888906e-01, 3.611400973980355e+00, 1.263847809452810e+00, 2.897578919249280e+00, 1.662580716446458e+00, 4.974350806760136e-01, 2.000000000000000e+00, 2.943907075771483e+00, 2.821696379505792e+00, 2.747158820207129e+00, 6.029446462934096e+00, 3.262631200425544e+00, 3.325969638009300e+00, 2.863381349820469e+00, 2.126569756437569e+00, 3.199106110140295e+00, 2.716543807171945e+00, 2.594577667198533e+00, 1.993589104134026e+00, 6.359453316973980e-01, 2.870601342551724e+00, 2.038095936132326e+00, 2.409225740339363e+00, 3.386277209278134e+00, 1.972770609028764e+00, 1.489710569980700e+00, 2.455789419901894e+00, 2.386867199569059e+00, 8.855237163080820e-01, 2.000000000000000e+00, 2.269838655539694e+00, 2.050294966172208e+00, 3.263040921777295e+00, 1.869122979000550e+00, 3.133058102789380e+00, 5.789858684930411e-01, 3.192793263185569e+00, 1.944180506268492e+00, 1.770815035670213e+00, 1.026518666388398e+00, 3.401838998925163e+00, 4.318369261280089e-02, 1.773239489091905e-01, 4.989891869141073e-01, 3.252863664256025e+00, 1.084311842299195e+00, 1.490148240354718e+00, 3.744041486049695e+00, 2.833654983696566e+00, 5.316162095605679e-01, 7.163792727955792e-01, 6.501686075368660e-01, 7.571934817661166e-01, 1.961918643917154e+00, 3.672725486097182e+00, 1.435692196566785e+00, 2.114071946448889e+00, 2.230516532438318e+00, 7.220392103074954e-01, 9.490659297507139e-01, 2.064203924753286e+00, 2.120039386829492e+00, 1.708897158556294e+00, 1.237603897375583e+00, 3.620050149561158e+00, 3.085996573803394e+00, 1.918695701148228e+00, 1.383094816198592e+00, 9.088557744759447e-01, 7.495637203332123e-01, 9.944234916796409e-01, 3.023514483267849e+00, 2.025130600906594e+00, 3.847190731836561e+00, 2.818354637463774e+00, 1.191692567029797e+00, 1.998590409456525e+00, 2.495214591066429e+00, 2.907205469876775e-01, 6.624452616181279e-01, 2.058954764055902e+00, 3.826142645461992e-01, 1.647444650838647e+00, 9.220160574186193e-01, 1.139399639425052e+00, 2.162886195166573e+00, 7.927495142056529e+00, 8.227705555877208e-01, 4.319462747834145e+00, 3.533621724673305e+00, 2.047830794013268e+00, 4.939779145881300e+00, 2.443450211232061e+00, 3.367051826504849e+00, 3.445487672974521e+00, 2.679523642525190e+00, 8.094737768002800e-01, 4.100232016554701e-01, 1.881469836162423e+00, 2.074477146482474e+00, 3.512580676452475e+00, 2.673264898086585e+00, 2.296530946487100e+00, 1.770742093478382e+00, 3.014211449384413e+00, 1.946450594054659e+00, 6.956744018712053e-01, 3.843308025765107e+00, 3.152476564260855e-02, 7.454832090839660e-01, 4.454012520484367e+00, 7.402867586482205e-01, 4.896582241070681e-01, 2.081588668264902e+00, 2.884494814632589e+00, 2.086114876357646e+00, 6.278924470807432e+00, 1.903480381668519e+00, 1.435180071392351e+00, 1.790161487213378e+00, 6.233694674092507e-01, 1.105328773136168e+00, 7.372852500280673e-01, 2.506930562964949e+00, 2.759569913702037e+00, 1.469304013418329e+00, 3.855702934118627e+00, 1.105791613788240e+00, 2.168466628736414e+00, 1.503188230681522e+00, 4.801625351568311e-01, 7.041220261505254e-01, 7.106158853419285e-01, 2.390592497328591e+00, 2.613571318667058e+00, 1.063188716985683e+00, 2.581902422019034e+00, 1.244945847039189e+00, 1.843278061649978e+00, 3.159451316989580e+00, 1.219836848099668e+00, 2.241200647121343e+00, 1.492644095798736e+00, 9.603379832763224e-01, 1.835453344333238e+00, 1.680878481221826e+00, 2.019403060505113e+00, 3.516789523836031e+00, 1.122663372984422e+00, 7.042674541465209e-01, 9.324911591674623e-01, 1.771134899171819e+00, 2.502822132440909e+00, 1.556169911346905e+00, 1.163002150669447e+00, 1.422780857901161e+00, 1.823936078622331e+00, 1.754859503691397e+00, 7.523280392474129e-01, 1.176574029036757e+00, 1.827100062679765e+00, 2.839765143290481e+00, 1.803988944420658e+00, 9.811877446548533e-01, 1.301826709700131e+00, 1.315696607800220e+00, 1.081931739646728e+00, 7.930771196764869e-01, 4.185320229515238e-01, 1.791946633606495e+00, 1.682038325708442e+00, 1.532627630631305e+00, 1.931603262311522e+00, 2.138324053555415e+00, 1.695505118821020e+00, 9.873364849320011e-01, 1.870316878396739e+00, 2.113534783116987e+00, 2.080342734083314e+00, 2.226694891267859e+00, 2.629748013882497e+00, 1.238728266767229e+00, 1.985576058507735e+00, 1.681534596985357e+00, 1.681975838645977e+00, 2.147011504816338e+00, 5.426369646566852e-01, 1.716973631774396e+00, 1.117445026353909e+00, 1.583875696332568e+00, 2.282421714760091e+00, 1.077183860092801e+00, 1.049980777454550e+00, 1.947630569777060e+00, 2.519769757023904e+00, 2.704976545364186e+00, 1.232949690943879e+00, 1.245648068464975e+00, 2.251889815428180e+00, 1.624833959697296e+00, 3.177955854461068e+00, 2.097767807102179e+00, 2.015153013197918e+00, 1.443297835334435e+00, 1.923686308212588e+00, 1.584918139153738e+00, 2.292644052963765e+00, 3.799960079170300e-01, 9.289701191161025e-01, 2.181767320114825e+00, 3.630923475959266e-01, 4.409909889392007e-01, 2.997445080482290e+00, 1.057365619275518e+00, 2.902849452701560e+00, 5.881241578123523e-01, 5.273172418242734e-01, 3.558794037369971e+00, 1.599930783938529e+00, 2.157178858863250e+00, 2.717297026020361e+00, 2.211156222989942e+00, 9.985408920060362e-01, 9.301060283778524e-01, 1.188234692194543e+00, 3.727323815009658e-01, 1.621518443502835e+00, 1.153096797460672e+00, 1.804836067095466e+00, 1.823727585028190e+00, 1.879507933123902e+00, 5.823295056471628e-01, 1.203669806724536e+00, 1.325851252809217e+00, 2.395137020988789e+00, 1.293445431961456e+00, 1.672073282557226e+00, 3.612536040070804e+00, 7.665504957482566e-01, 1.885482358659009e+00, 3.052963549739871e+00, 2.199576309629974e+00, 2.230126721633888e+00, 9.917553645909540e-01, 3.665425618353755e+00, 2.070636416199044e+00, 1.803453005653102e+00, 8.619270242954613e-01, 