MTP
version = 1.1.0
potential_name = MTP_l4k3
scaling = 2.985984000000000e-02
L = 4
scaling_map = LK
species_count = 9
potential_tag = 
radial_basis_type = RBChebyshev_sss_lmp
	min_dist = 2.000000000000000e+00
	max_dist = 6.000000000000000e+00
	radial_basis_size = 8
	radial_funcs_count = 15
shift_coeffs = {-2.636353437440378e+00, -2.496965309175183e+00, -3.615225622128715e+00, -3.292214237625551e+00, -5.467410774776648e+00, -5.997348209462434e+00, -5.635422243858516e+00, -2.481857456989959e+00, -8.836906378425033e+00}
scal_coeffs = {4.654950947995123e+00, 2.446664405533769e+00, 5.779154788919362e+00, 3.341869010194745e-01, 4.002462941365506e+00, 4.276528494673914e+00, 3.770711611128122e+00, 2.895295798225598e-01, 3.963868196588953e+00, 1.474186458541514e+00, 6.264665847136599e+00, 7.826857800752841e-01, 7.715057242490410e-01, 6.251664123657672e-01, 6.533121570859615e-01, 5.514067704486501e-02, 1.752513085947480e-01, 8.298109444231180e-01, 1.668683028339417e-01, 2.229518690555397e+00, 6.585669768879377e-01, 1.074018700822976e+00, 3.734564934738753e+00, 4.057774871225038e+00, 2.607583402055659e+00, 3.229157801390855e+00, 3.074238086668789e+00, 6.832060826133417e+00, 1.831945669618639e+00, 4.834679057794369e+00, 3.651005522234286e-01, 3.257982131366731e+00, 1.175935403829604e+01, 3.910626750156032e+00, 3.395409950850609e-01, 8.878546813329477e+00, 5.852389170556708e+00, 1.309540682572175e+00, 6.124958724189589e+00, 3.913287510370622e-01, 1.489942649944480e+00, 3.818875846666548e+00, 4.403731103282322e+00, 4.030138135905350e+00, 3.580995879530169e+00, 4.603812258663647e+00, 1.548538835496776e+00, 4.241991827356133e+00, 8.599853563151058e+00, 3.977142634792412e+00, 4.285439287059114e+00, 4.292358748768255e+00, 9.144571176740153e-01, 4.263205484157975e+00, 5.913776702485380e+00, 5.522244145204969e-01, 9.106511600764076e+00, 2.033163840359025e+00, 1.608285665285297e+00, 4.932164128312353e+00, 1.950894292019554e+00, 6.524553289780386e+00, 4.243772234390926e+00, 4.384736610406716e-01, 1.979385214877674e+00, 1.618319097864206e-01, -3.539075149439450e-02, 3.114229133612525e+00, 2.570518369345606e+00, 6.345196901521296e+00, 9.482724219570934e-02, 9.172479772077191e+00, 3.792921187013368e+00, 1.439499292535866e+00, 4.338793310914868e+00, 5.712033967881085e+00, 3.721977281495053e+00, 3.977676494952487e+00, 4.200373908782455e+00, 3.334501202411108e+00, 3.424949776982163e+00, -3.392665895949081e+00, 1.686568810605070e+00, -5.365732164352538e+00, -8.468173339915122e+00, -2.301130945010717e+00, -2.176728258329008e+00, -3.887036142643203e-01, -8.531505682272762e+00, -1.510036033315964e+00, 1.711865973984888e+00, 1.393386475038041e+00, 1.889492312981691e+00, 2.100674592232322e+00, 2.578502827991976e+00, 2.003500085943355e+00, 1.033945425626604e+01, -2.824750396206455e+00, 2.048829743851661e+00, -6.553806054026362e+00, 2.441632738439373e+00, 2.022505121502240e+00, 4.024707242091274e+00, 2.638384257365912e+00, 2.609228465087179e+00, 2.530875004880761e+00, 2.608232247531755e+00, 2.496362050093131e+00, -3.103772085342471e+00, 2.041146476216707e+00, -1.265540623613250e+00, 3.463045651118104e-01, 2.629730689485717e+00, 2.483419070013279e+00, 2.349082978831115e+00, -4.898655700044649e+00, 2.630611860603512e+00, -5.640956615710746e+00, 2.624141124658675e+00, -5.392386756142740e+00, -4.667715565741950e+00, 1.141042859319371e+00, -2.472513823073128e-01, -7.650162217308394e-01, -7.387234100852843e-01, 1.012222589882800e+00, -3.036227369293271e+00, 2.599427582220208e+00, -5.147484229594510e-01, 1.289161407323629e+00, 4.166271353008618e-02, -4.939166589812299e+00, -2.274317663708618e-01, 2.422415735833636e-01, -3.172917598533811e-01, -5.787365612953058e+00, -1.008281084173575e+00, 2.503880611728625e+00, 2.692016005138614e-01, 1.971729823388820e+00, 4.089099852715775e-01, 2.500341020978855e+00, 2.949314607332494e+00, 8.434215627487529e-01, -5.214266853157932e+00, 3.339422072534292e+00, -9.024918924774799e+00, -3.132553713679096e+00, 3.132603983062271e+00, 2.764077415447653e+00, 2.691746613792402e+00, -1.108090536608804e+01, 3.244886197304072e+00, -4.576310707145083e-01, 2.607475807749086e+00, -2.758923159497867e-01, 1.850126313897625e+00, 8.330440787672827e-01, 1.297786565142887e-01, -1.978534277315643e-01, -8.906856690940986e-01, -2.433255041190717e+00, 4.094915936187191e+00, 1.990989567796802e+00, 4.697042506550039e+00, 3.967481303169223e+00, 5.809303299862201e+00, 7.725695776591837e+00, 3.726947407709176e+00, 6.974491970253756e+00, 9.023367000577226e+00, 1.255469433609141e-01, 3.222601705469587e+00, 2.104647402610856e+00, 2.054829728238955e+00, 1.536197974657838e+00, 9.907870520802253e-01, 9.511706171621715e-01, 1.119550409513772e+00, 9.256042958849851e-01, 7.724705321180770e-01, 1.055675242930843e+01, 4.738710042481713e+00, 4.214493013839009e+00, 4.325413846640143e+00, 4.274681377628704e+00, 3.947660140364172e+00, 3.518953373544403e+00, 5.859625770485819e+00, 8.857590227772246e+00, 1.647972865720541e+00, 5.086379995977340e+00, 2.480612883718309e+00, 6.742252839875789e+00, 7.746366804726617e+00, 7.798828551871316e+00, 5.332435255547919e+00, 2.285984949875647e+00, 5.001327187348177e+00, 1.016749715090612e+00, 1.749311356640049e+01, 9.870589524388395e+00, 3.923293168595222e+00, 3.726666208313379e+00, 3.978283423401982e+00, 7.518832179330309e-01, 1.272671096438794e+00, 4.618483490008056e+00, 1.144185964718462e+00, 5.851005094939753e+00, 7.496104458411737e+00, 1.001050174989709e+01, 1.391213445729690e+00, 4.064940684232369e+00, 4.058981118351124e+00, 4.582450260968926e+00, 2.950583330737026e+00, 3.170590992096036e+00, 4.282259076864541e-01, 2.821706465296205e-01, 6.757794808685638e+00, 4.108918786778736e+00, 3.846290159092255e+00, 5.495193837140601e+00, 5.145443033870970e-01, 6.407039028195171e-01, 6.827157831094445e+00, 3.118990491633105e-01, 4.166572278067641e+00, 5.623366566653801e+00, 2.844429483290426e+00, 2.691342433267422e+00, 2.061736364100542e+00, 8.314013250762914e+00, 4.066545983825362e+00, 2.433953644665037e-01, 1.983646804850088e+00, 2.508368647321863e-01, 1.722395424909176e+00, 3.887492582966737e+00, 3.279813121001079e+00, 2.846289691751513e+00, 3.191009044357375e-01, -1.519139266939291e+00, 1.560685802853968e+00, -2.363632366893444e+00, 9.659598822881267e-01, 1.420180824220878e+00, 1.683725952065974e+00, -3.594519547740997e-01, 1.901365572309313e+00, 2.046080477093580e+00, 3.052259900214812e+00, 1.468722287561262e+00, 1.178145906817846e+00, 1.244317217678547e+00, 2.986011977323438e+00, 3.199382359336295e+00, 3.494957609270578e+00, 2.188130941429368e+00, 3.203502712351054e+00, 3.981933737408015e+00, 2.375996840455083e+00, 1.852186253724195e+00, -1.282576999792277e+00, -7.187805491820713e-01, -1.460806072482546e+00, -6.953393553353656e-01, -7.867965614526081e-01, 6.046422157589971e-01, 1.871544373245931e+00, 2.211979314478730e+00, -1.180505632677667e+00, 1.593763326508042e+00, 1.319941156076101e+00, 2.361880658278883e+00, 2.263021132522843e+00, 2.452231566963406e+00, 1.331063090949296e+00, -1.309300195771774e+00, 1.915669261985021e-01, 2.207983941221920e+00, 2.426767888715477e+00, -1.272724022794037e+00, 2.606203319076828e-01, 1.175127268431004e+00, 3.567105693753987e+00, 5.953968066698790e+00, -1.353045157780524e+00, 1.520997639682069e+00, 2.333005088860319e+00, 2.290099117969742e+00, 2.823947671912573e+00, 1.188249084847950e+00, 1.551958515323746e+00, -3.642996143188013e-01, 2.543622646976301e+00, 7.651114154494523e-01, 1.569969098246180e+00, -1.631099683343705e+00, -8.620163455389948e+00, 2.087269955606879e+00, -3.689325821332419e-01, -4.246595822412814e-01, 2.474685379332482e+00, 8.608075679841366e-01, -3.431320524229094e+00, 1.448311892180798e+00, -7.178575300126933e+00, -1.733770422602146e+00, 2.806726600549158e+00, 4.503250443215036e+00, 2.490113000180084e+00, 1.844058848204533e+00, 4.165904888452447e+00, -4.304512397830638e-01, -9.391563514404835e+00, -3.839979070352631e+00, 7.677243158923939e+00, 2.410297374511931e+00, -5.547704155587514e-01, 4.605689182851224e-01, 1.973176332315397e+00, -7.587940827631409e+00, 1.170988366521463e-01, 6.593260153614305e-01, 5.103128442059217e-01, 4.336498704339151e-01, 8.988686292093859e-01, 4.607588776283701e-01, 4.055189340118394e+00, 1.117150926167627e-01, 2.462982855723306e-01, 5.225640135312846e-01, 1.873594738716263e+00, 1.260253491858129e+00, 1.172008276221352e+00, 8.228035162792510e-01, 8.334723238762626e-01, 7.431619449258871e-01, 6.999605271925569e-01, 8.421821369823742e-01, 4.346948392734419e+00, 5.542725994808226e-01, 2.526576863143262e+00, 3.207458553556017e+00, 1.020967515317195e+01, 4.457771353409807e-01, 3.028579122834941e+00, 5.617805514054754e-01, 4.448255429153239e-01, 1.963048522105627e+00, 1.502497501542237e+00, 5.715680667486561e+00, 1.554826221617297e+00, 5.840150590838035e+00, 6.623357357643434e+00, 8.762749401665454e-01, 3.769876311937764e+00, 1.871083277870511e+00, 3.472800109652201e+00, 7.322471989747926e-01, 4.631997095641975e+00, 9.211508738515857e-01, 4.462003664368726e+00, 4.755280298740250e+00, 4.037764358448610e+00, 3.705598197800474e+00, 3.480030730179877e+00, 2.220313237149671e+00, 5.569940001545240e-01, 2.890300572836670e+00, 7.224241626535989e-01, 7.959403927050199e-01, 6.224422259436975e+00, 4.285268186815594e+00, 2.625531389206712e+00, 1.287975928620371e-01, 4.247626975411476e+00, 7.117665914204517e-01, 2.411339904276696e+00, 4.623830562771021e+00, 2.644797974115892e-01, 3.971257981955555e+00, 1.037390724514256e+01, 1.518485941168696e+00, 1.930650351156561e+00, 5.909883246171436e+00, 1.004464561569399e+00, 6.308697113760032e+00, 9.115684923447795e+00, 5.129731175583397e+00, 3.649621317053140e+00, 8.742283233403123e+00, 1.789876129648789e-01, 4.303607723823627e+00, 2.939396039753812e-01, 2.096339904144431e-01, 3.718494958267681e+00, 3.735953640862434e+00, 3.607526060581610e+00, 1.537347442987768e+00, 2.301806132249111e+00, 2.664984121397391e+00, 1.357491021349359e+00, -5.593141928173186e+00, 9.101356779356186e-01, 5.539807117892657e-01, 6.787946842651866e-01, 1.727212030758505e+00, 5.785530261517943e-01, 2.102815192697739e+00, -8.917883499654257e+00, -2.184403760999234e+00, 1.707776602115548e+00, 1.491387183655110e+00, 2.174295588533369e+00, 2.025297813105276e+00, 2.215517680079380e+00, 2.158630426652113e+00, 2.292433782382351e+00, 2.073275474274001e+00, 2.180188748811666e+00, -2.546224548109530e+00, 1.093781755061740e+00, 1.731534374998905e+00, -3.302714949996257e-01, 1.958881443263401e+00, -1.568368856661949e+00, 2.535525315519769e+00, -7.834989952502309e-01, -1.444609804114062e+00, 1.216488510531007e+00, 1.056224229380671e+00, 2.393961057165965e+00, 1.458166770106475e+00, 1.440840453912151e+00, -3.536931020939612e+00, -1.338345143162398e+00, 1.907004888058010e+00, 1.555095200863086e+00, -1.477176914969877e+00, 1.995218251528607e+00, -8.391892024380124e-01, 9.575864266162799e-01, -2.688041574921185e+00, -1.021741255023128e+00, -3.189632435824638e-01, 6.119210375006341e-01, 1.205134581439155e+00, 1.681690386283113e+00, 1.773312369797660e+00, 2.256401769940350e+00, -1.369849076677033e-03, 1.251799774657350e+00, -2.755666981044580e+00, -8.918786583857422e-01, 2.641757512818978e+00, -5.739887622014240e+00, 4.067672291152517e-02, 1.844990275679570e+00, 2.289477281473348e+00, 1.984506800526592e+00, -2.011696266521978e+00, -5.695572611625136e-01, 1.965517744321807e+00, -2.695221413861432e+00, 2.309840649627504e+00, -2.364862293139658e+00, 1.901331449920512e+00, -3.788733181905196e+00, 2.030983971538703e+00, 3.026640102903536e+00, 2.590514180261631e+00, 2.686024320901123e+00, -2.790728186842926e+00, -1.314459679991150e+00, -5.984216706193426e+00, -1.063411419883778e+00, -4.608532840705762e-01, 2.229596211152254e+00, 9.844273879074273e-01, 2.300490316918743e+00, 2.245771398245830e+00, 2.414733936842156e+00, 1.643857614909284e+00, 3.205554823516423e+00, 1.137186900127163e+00, 1.984372859943171e+00, 1.690054171324667e+00, 4.115899164182314e+00, 2.534270445499509e+00, 2.707782151777498e+00, 2.795337604612812e-01, 5.261693223117232e-01, 1.027370669964305e+00, 1.645638012853911e+00, 1.794499361182107e+00, 1.830189119421119e+00, 1.605429203992183e+00, 1.175749736401434e+00, 1.289985833868907e+00, 1.569587922364767e+00, 3.478932004817685e-01, 7.563981765321854e+00, 8.898310256310709e-01, 4.265597384676377e+00, 1.837808867363899e-01, 6.929562860534216e-01, 6.854499228527459e-01, 9.887688202713272e-01, 3.781910819998298e+00, 3.160857072676004e+00, 6.660265183989114e+00, 9.488466376176333e-01, 2.879763653976311e+00, 5.279754610377734e+00, 3.909448977138426e+00, 3.228265763236853e+00, 3.554295476388156e+00, 4.043235622274532e+00, 3.731169582195962e+00, 3.486129939945767e-01, 1.376900732360938e+00, 2.475942435654437e-01, 4.548394365201721e+00, 1.304707302240398e+00, 5.190609892647818e+00, 3.197248420828538e+00, 4.200242430234707e+00, 3.562480059704268e+00, 2.934347469527970e+00, 7.627076130485887e-01, 2.350435314691196e+00, 1.455462518775028e+00, 5.967059405639895e+00, 3.320765263319487e-01, 1.324332143410189e+00, 4.399508348398639e+00, 6.311678179188748e-01, 3.098996119342736e+00, -2.836189232452875e-01, 4.699688702384670e+00, 4.156303471993417e+00, 1.034327343008467e+00, 1.970185034803180e+00, 4.063394166020381e+00, 3.915371059757962e+00, 3.080272772582968e+00, 5.695462533395658e-01, 3.104573572499847e+00, 4.156352988640114e+00, 5.993913072459649e+00, 3.318404342735875e+00, 3.374089026171295e+00, 3.883398526852887e+00, 1.793640570606522e+00, 3.656558083344163e+00, 4.101784233521282e+00, 9.882153002207495e-01, 2.778979093659265e+00, 4.423155535932195e+00, 5.394724974064443e+00, 2.248701734802926e+00, 4.218462139718584e+00, 3.487666565366179e+00, 4.101525874966490e+00, 1.746461836808074e+00, 2.009471835770879e+00, 5.244052242802920e-01, 1.845309095458916e+00, 1.547151453885653e+00, 1.296776116517911e+00, 1.394781378456250e+00, -1.705856368035342e+00, 7.368818458547337e-02, 1.661255028708842e+00, 1.367681905567162e+00, 1.521300662208080e+00, 1.471888700931231e+00, 1.781684839820767e+00, 1.920393138589577e+00, 1.724830579854331e+00, 1.789225416763602e+00, 1.253755455790446e+00, 1.945351614579746e+00, 1.982497115815864e+00, -4.258949107028752e-01, -3.689737092762158e+00, 7.912898931646507e-01, -1.189036907875986e+00, -1.907584085423194e+00, 2.672227223802930e+00, 2.580365565826872e+00, 1.315210231455875e+00, 1.769176879713628e+00, 2.209197793137559e+00, -1.743940704850706e+00, 1.871692448896615e+00, 1.737104919203131e+00, 2.186307042858886e+00, -3.956864892298516e+00, -6.348443988707078e-02, 6.344849701491271e-01, 1.500455155457636e+00, -4.171799140813615e+00, 1.857759860197481e+00, 2.502597753356405e+00, 2.861743583025531e+00, 1.178461858590906e+00, 3.998518519546437e-01, 9.649824097165491e-01, 1.386549051719698e+00, -9.880341878390714e-02, 1.993817974853640e+00, 6.930384884539768e-01, 2.854859446985735e+00, -5.340543563594565e+00, 1.495415585970443e-01, 2.072210390672835e-01, 2.276782970048809e+00, -1.001978742739547e+00, 3.490477508233094e+00, -1.212187185564779e+00, -3.442636461075128e-01, 4.972116661291852e-01, 1.958649576692350e+00, -1.579196995056951e+00, 2.577890099945082e+00, 2.156213794418715e+00, -1.621196911321935e+00, 1.116047162560276e+00, 5.426205361874434e-01, -2.894588400245004e-01, 2.230984018599678e+00, 3.213204845184199e-01, 2.876488980714391e+00, 2.427601921749412e+00, 3.619795380870064e-01, 1.625939529026908e+00, 8.243828140081152e-01, 2.211682345486642e+00, -1.001429191536174e+00, 3.413692202713540e+00, 2.767944050670252e+00, 2.602531288926583e+00, 1.291070706376774e+00, -2.883668745619106e-01, 4.494695088605244e-01, 7.675712825881344e+00, 5.421866922170399e+00, 4.141022750597871e+00, 1.994527752432105e+00, 5.854686093481139e+00, 1.518337584768916e+00, 4.554179053566956e+00, 1.486976399497508e+00, 5.878885542146434e-02, 2.076863967829693e+00, 1.700236182628392e+00, 1.854556358271562e+00, 5.265863546645910e-01, 4.188712292475942e-01, 7.658430527691874e-01, 2.341595477626285e-01, 9.630089792892428e-01, 3.435974228827640e-01, 1.295056383190735e+00, 3.343402382583512e+00, 8.783260448747494e-01, 4.644984554550907e+00, 5.935934645300413e+00, 4.071049901568949e+00, 7.409733883334977e-01, 5.734689785358844e+00, 3.042572356713238e+00, 1.857877238893919e+00, 4.895843265245456e+00, 4.140555285367646e+00, 4.123204731195276e+00, 1.151396154665026e+01, 8.384862645815946e-01, 1.582357953879460e+01, 1.489638959879419e+01, 2.115569831080610e-01, 6.113966393307748e-01, 2.357663658773239e-01, 1.264118937090047e+01, 1.895524919648983e-01, 8.221425858545693e+00, 4.266377899647993e+00, 3.381705951292554e+00, 3.609578774087228e+00, 5.084084130806769e+00, 6.758886518785645e-01, 3.403358547370404e+00, 2.314389476217554e+00, 3.836856680683491e+00, 2.645950516795394e+00, 5.876140494539760e+00, 2.455778474776421e+00, 3.988923864913149e+00, 1.052415768975951e+00, 8.199923401931118e-01, 1.417389752933953e-01, 7.088812777818000e+00, 1.164930551119751e+00, 1.702751037257139e+00, 2.063284047938815e+00, 1.788600365769657e+00, 5.124368801441048e+00, 4.882313957023005e+00, 2.370614259162287e+00, 3.274252073854004e+00, 2.223290053282006e-01, 4.106009245948242e+00, 2.560093220183119e+00, 6.179297872997562e+00, 2.942576776483877e-01, 4.287585850135245e+00, 1.327778248215211e+00, 4.194426052450689e-01, 1.999346394862148e+00, 1.418838114409894e-01, 3.464783504603790e+00, 1.216144857821700e+00, 4.524385807294560e+00, 3.366667984291918e+00, 2.439179682309283e-01, 2.966313702049829e+00, 1.068185730359253e+00, -3.433595881001428e+00, -1.872441699670873e+00, 2.099396671619125e+00, 1.003001971307450e-01, 1.522377863736205e+00, 2.255215048828809e-02, -1.688021451171935e+00, -6.139195627676647e+00, 1.350612372515837e+00, 2.213432390412646e+00, 2.242842247722987e+00, 1.120438136959035e+00, 1.914122160775390e+00, 2.135800421805942e+00, 2.591740762088076e+00, 2.069777070664985e+00, -2.529741937706075e+00, 1.413608860199340e+00, -1.544282299763307e+00, 2.096353776248617e-01, -8.716827316707190e-03, 1.676923089478836e-01, 2.710810592531483e+00, 1.025525768838891e-01, 8.018640349052147e-01, -8.043084663040393e+00, 1.357988784587460e+00, -1.613572359119388e+00, 1.278748437826948e+00, 2.171826340271686e+00, 2.386558282953479e+00, 2.967437405885518e+00, 2.052570660582064e+00, 2.377940247187708e+00, -7.461731086435969e+00, 7.145734539450178e-01, -5.672337297971179e+00, 1.648756722003612e+00, -1.290366519915925e+01, 2.965652872346222e+00, 2.259481233533279e+00, 1.551441542935573e+00, 1.025497841438196e+00, -1.597277020178437e+00, 1.160996695669119e+00, 1.919553370692927e+00, 1.054416146912406e+00, 9.058712263420200e-02, 2.155707700096406e+00, 2.378987664888629e+00, 2.026210788434168e+00, -3.967037748371190e-01, 8.134916907754183e-01, 1.126267455502206e+00, -1.170519107923418e+01, 3.043952299413382e-01, 4.142085219243177e-01, 2.749477265396724e+00, 1.401357614577424e+00, 1.604532418422761e+00, 8.730739360141776e-01, -1.135394000726099e+00, 1.638165915225315e+00, 2.538641829233940e+00, -5.317135036555264e+00, -5.012466981952776e-01, 2.518701130538123e+00, 2.431682996011132e+00, 4.166335832717424e+00, 7.565196618435475e-02, 1.222867777404015e+00, 7.709957324156369e-01, 1.516362459094016e+00, -1.330141000978673e+01, 1.159552969538496e+00, 1.624058924455576e+00, -5.527679239815684e-01, -2.338794439986306e-01, -1.126727094089657e+01, -1.890215198027619e-02, 4.475577066756875e-01, -1.843634740371760e-01, -7.361420672772401e-02, 3.928870188043370e+00, 3.177162116538877e-02, 9.925166294737068e-04, 1.375994994443046e-02, 4.225546008703641e+00, 2.370643141922385e-02, 2.132054839212875e+00, 9.343549688238372e-01, 1.245812521471336e+00, 1.012616944482661e+00, 9.200585521642047e-01, 8.527013637866692e-01, 7.981711817947706e-01, 9.499230749793978e-01, 6.656596899417488e+00, 1.103652264528002e+00, 4.640771975328751e+00, 5.088216522047815e+00, 1.358007456892493e+00, 1.200177132139142e+00, 4.484140335832510e+00, 7.626146206476168e-02, 1.355344413878591e+00, 1.368431707023118e+00, 1.334622705641891e+00, 4.859774598534167e-02, 7.394154433382739e-01, 1.559800040347697e+00, 3.272680127051844e+00, 7.646316097678860e-01, 1.811279370042542e+00, 3.529061061972182e+00, 2.886993690166525e+00, 1.036605366252379e+00, 1.613530914330195e+00, 2.395455663970276e+00, 2.778242891542708e-02, 1.800936109390274e-01, 3.906704459143990e+00, 3.727559315055117e-01, 9.698344616780191e-01, 1.076364415685842e+00, 9.786776370424570e-01, 8.522543469659606e-01, 5.513743729397053e-01, 1.310241122776897e+00, 8.294466143367144e-01, 5.527522263454835e-01, 4.417274883369962e-01, 2.775886565836549e+00, 5.819359144070770e-01, 3.735364480707105e-01, 3.233589618328587e+00, 3.943409546548189e-02, 3.605718605001492e+00, 1.247694294349755e-01, 7.471090505735715e-02, 4.899129565007379e+00, 1.570654719767733e+00, 4.272480644490370e+00, 1.390017184478961e+00, 8.270784704595421e+00, 1.999540065580036e+00, 6.360835065213046e-01, 3.659120362971562e+00, 4.515923293464823e-01, 6.234385777846886e-02, 1.879917245342590e+00, 1.001292336631519e+00, 1.048088325082308e+00, 1.511191890462833e+00, 1.203566063045616e-01, 3.612856127715645e+00, 5.478555238570662e-01, 7.298836513361523e-01, 3.262349232212374e+00, 3.735934787150175e-01, 9.387242950028087e+00, 3.330306704449974e+00, 3.354396081231799e+00, 4.907101932990197e+00, 2.149095187931934e+00, -4.015395132848812e+00, -5.704690539586276e+00, -3.355778778865868e-01, 8.990183563585238e-02, -7.505700615771582e+00, 1.851304342689203e+00, 2.480900086953522e+00, 2.291196225329081e+00, 3.029275063337188e+00, 2.759097022704579e+00, 3.069851589844884e+00, 3.029201126269908e+00, 2.764842393320244e+00, -6.390461740326098e+00, 1.898283370498729e+00, 2.046326203962718e+00, 9.556177109505855e-01, 2.115617617494198e+00, 2.772258713837069e+00, 4.633993398843048e-01, -3.722066591678967e+00, 2.978529435746266e+00, 1.584892669836077e+00, 1.445440792385592e+00, -2.681364162538368e+00, 1.963775526051422e+00, 2.477257718431949e+00, 2.445881186818065e+00, 2.382517442050586e+00, 2.670676510344625e+00, -6.733428735351822e-01, -7.464718146436071e-01, 2.373062029157337e+00, 2.946255383900267e+00, -1.917654697993510e+00, -4.829227330204075e+00, -3.781414948350741e+00, -1.328801042067359e-01, 2.804355228891999e+00, 1.621500454744571e+00, 1.981294637572312e+00, 2.373662129754825e+00, 2.514065872535001e+00, 2.234891098218577e+00, 2.773397591570617e+00, 3.278178958652877e+00, 2.626504461034603e+00, 2.917002440509209e+00, 2.843330344391861e+00, 1.994443565496876e-01, 2.275350840068339e+00, 2.644370558248595e+00, -3.741979155973709e+00, -1.005979615882141e+00, -2.952187294302114e+00, -3.230332288483411e+00, 2.452315333382369e+00, 2.996821990453478e+00, 1.984933744592687e-01, 2.563448616203083e+00, 2.653609585701262e+00, 2.406254728101636e+00, 1.555274230670180e+00, 2.802961258866411e-01, 3.073854301440253e+00, -1.872501588158074e+00, 2.823482860208913e+00, 2.530865910082994e+00, 2.303677842440562e+00, 2.464096079551835e+00, -5.820278527910879e+00, 3.390458039051867e+00, 3.925025040135597e-01, 3.194511775404200e+00, -8.066190891401877e-01, 3.029356511117327e+00, 8.873399789837352e-01, 3.148809299053827e-01, 9.133559576501806e-01, 1.417200675459193e+00, 1.052681233518079e+00, 1.606419493747343e+00, 1.051590296883507e+00, 1.518878865653184e+00, 1.629141254768982e+00, 1.260979040667375e-01, 1.423373813112281e+00, 9.645040123601567e-01, 8.414190576445777e-01, 9.488071830092355e-01, 1.304062274810974e+00, 1.276962468323744e+00, 8.881182077692727e-01, 1.253974196424949e+00, 1.368965015902850e+00, 9.910389258995036e-01, 4.242330710670793e-01, 2.480986613600808e+00, 5.943769251683267e-01, 3.073540373247982e+00, 2.499482703667093e+00, 4.866732020207482e+00, 1.586546678168174e+00, 2.266326997951696e+00, 1.064333114837692e+00, 2.066279832010332e+00, 5.918554784784647e+00, 4.336383723679484e+00, 3.556943452219694e+00, 1.015004691355060e+01, 4.553346863570327e+00, 1.393188377158521e+00, -2.140631478387992e-01, 6.813206426042999e-01, 3.494902304051372e+00, 4.060675015219688e+00, 6.725957904417694e+00, 2.762474628935743e-02, 3.243862161149302e+00, 2.167863283688913e+00, 3.489174334040882e+00, 1.426504106227662e-01, 2.357640360772119e-01, 7.171488765877726e-01, 5.167656230316970e-01, 4.009699216280255e+00, 3.575655114907833e+00, 3.360546317077513e+00, 5.282559320993770e+00, 3.563779848718726e+00, 8.246667474651747e-01, 1.713494568390773e-01, 1.395655078740094e+00, 1.506052996562272e+00, 4.113238631261092e+00, 3.942022879789721e+00, 4.489530960339860e+00, 4.112735016585001e+00, 5.236887088587864e+00, -1.431864791241266e-01, 6.957856840338552e-01, 2.145286262288705e+00, 4.859513289031059e+00, 3.527942084243701e+00, 3.422192715525620e+00, 3.701464806070637e+00, 4.899458310192425e+00, 3.831479598733135e+00, 9.070841238501108e-02, 4.181219292604547e+00, 1.412803387187850e+00, 1.278790650615501e+00, -1.526304533457509e+00, 3.255721154107961e+00, 1.989703842984152e-02, -3.482165486261871e-01, 9.871364034119223e-01, 2.061114792279007e+00, 5.696581220112901e+00, 1.663734033598292e+00, 1.969784594022567e+00, 3.079240787005548e+00, 2.931157372884138e+00, 2.628898539591044e+00, 3.011939329595522e+00, 2.945884538112265e+00, 9.717666172835310e+00, 1.986898451018181e+00, 3.293278437032710e+00, 3.393516644588234e+00, 3.287008235443510e+00, 3.127606885630350e+00, 3.157320515568182e+00, 3.605212672486788e+00, 3.166811498459051e+00, 2.317871409147343e+00, 3.667702254177400e+00, -6.744519238955150e-01, 2.612875722420149e+00, -8.724364330686598e-01, 2.597788483576036e+00, 2.644581918472369e+00, 2.720917719502832e+00, 1.570250869779082e+00, 1.123817666404521e+00, 3.263589655944115e+00, 3.173339738373003e+00, 2.113144951872671e+00, 2.297430980704743e+00, 2.513437778686838e+00, 2.435898735880752e+00, -6.907791818075631e-01, 3.331474769249895e-01, 9.506637488301692e-01, 3.254478055166492e+00, 2.520600215154485e+00, 2.447778179049239e+00, 2.068659785556594e+00, 2.691694103292768e+00, 1.033261082027364e+00, 2.005850742868532e+00, 1.290346858191050e+00, 6.512521874603970e-02, 5.689807569830307e+00, 1.052149642352508e+00, -5.212551835218410e-01, -7.246989968446170e-02, 2.449842034524238e+00, 3.007662261284244e+00, 3.068341238387823e+00, 8.691656372129646e-01, 1.167231357363330e+00, 7.317803283288467e+00, 2.800415560719535e+00, 2.367511942159056e+00, -6.432950148486440e-01, -8.494594552332542e-01, -7.920444703227831e-01, -2.706200828534367e-01, 2.627647707977898e+00, 3.698166497839718e+00, 4.295263793642556e+00, 2.512943574951747e+00, 2.625333949946229e+00, 6.767357853814482e-01, 6.449430761427425e-01, 2.527791658607227e-01, -2.629691824117352e+00, 1.419556662571747e-01, 8.254796387013855e+00, 1.740059096637239e+00, 3.540444442434781e+00, 3.415409783034675e+00, 4.882708472998670e+00, 2.713675153716796e-01, 7.369869462510179e+00, 2.789992512800227e+00, 3.932373060805562e+00, 1.315191719138007e+00, 3.448968529981356e-02, 1.538830116259712e-01, 9.574026695676927e-02, 1.718101828521153e-01, 1.833529190055345e+00, 5.951578945950334e-01, 5.617789705058640e-01, 1.595155485885368e+00, 1.033113173066551e-01, 1.406609297638867e+00, 1.475916856183102e+00, 1.344013946681055e+00, 5.805338282210082e-01, 7.238519534318171e-01, 4.473980836916251e-01, 9.343068366957477e-01, 5.039214447044837e-01, 5.999666984785531e+00, 1.314685387153548e+00, 1.910104874934584e+00, 3.934059883698906e+00, 1.572134384421358e+00, 5.325470664227158e+00, 4.534935731232717e+00, 6.424788391916542e+00, 5.173082178343336e+00, 6.849816372401936e-03, 1.389183762127704e+00, 3.953236017253789e+00, 5.358263896335524e+00, 6.440062092865472e-01, 5.039247424624627e+00, 6.170934483898137e+00, -2.152150511586474e-02, 7.260983757025650e+00, 1.752304977811486e-01, 3.412101334146288e-01, 3.059757438130581e+00, 1.426158734938435e-01, 1.482947466649151e+00, 3.933432304685730e+00, 8.125881605954234e+00, 1.661913062058677e+00, 3.639738546864706e+00, 1.094371032246289e+00, 7.548658252745409e-01, 6.866964752257955e+00, 4.564199489574968e-01, 4.845743271579724e-01, 2.916276067279803e+00, 3.964362475423088e+00, 1.532946485743661e+00, 1.061727026327375e+00, 3.712583450060231e-02, 1.107574146283784e+00, 2.924242304749380e+00, 1.119589932248086e+00, 2.620939865848201e+00, 3.886633341554695e+00, 6.427473189326510e-01, 3.979260178468217e+00, 3.741316289359593e+00, 1.591660820901693e+00, 1.640069799321026e+00, 4.332027662644820e-01, 3.140537350128260e+00, 1.556202998115537e+00, 7.677288358427231e-01, 4.040030973589914e+00, 7.328830805466510e+00, 3.023990383881344e+00, 6.141329899618549e-01, 1.010681479273520e+00, 1.909885980909782e-02, 1.540559680056562e-01, 3.485632612219518e+00, 4.005785534888900e+00, 3.752316850737786e+00, 1.609898278355527e+00, 4.073139047714847e+00, 5.168226176313760e-01, 6.767344561797116e+00, -5.621862457451989e+00, -1.079301146159774e+01, -5.614632073306780e+00, 1.394218585533438e+00, -4.787225377915239e-01, -5.204284168615892e-01, 1.357676830442908e+00, 4.102939406014050e+00, 1.000267244917637e+00, 2.591770020792884e+00, 2.562165470552396e+00, 2.476023973209768e+00, 3.099326506069310e+00, 2.933592273719010e+00, 3.013466767557677e+00, 3.427983530841448e+00, -4.025486612196333e+00, 2.038946035834198e+00, 2.509811600865560e+00, 9.251380044857287e-01, 3.764922553377132e+00, 2.499340381187921e+00, -1.434376204758184e+00, -3.913157146028432e+00, -1.537134788156020e+00, -7.846035337312576e+00, 1.773994954168237e+00, 2.704426114607287e+00, -1.161308811529923e+01, 2.575750232276731e+00, 2.310676780846160e+00, 2.209759528897441e+00, 6.828105154484863e-01, 2.210494186982315e+00, -5.851889042613260e+00, 1.993279313784034e+00, 2.005375854864742e+00, -9.536323040584172e+00, 2.074164856995532e+00, 3.171215898850961e-01, 2.078558731501286e+00, 1.002149177395151e+00, 7.698653782406387e-01, 1.621418196375897e+00, 1.719333839047884e+00, -4.013382880589078e+00, 2.587360415370243e+00, 4.890230294704899e+00, 2.270685581855985e+00, 1.223270331337393e-01, 1.197774445044573e+00, 3.827046789043922e+00, -1.422914867684805e+01, 1.895773962310535e+00, 2.812568581435728e+00, 1.451889142846792e+00, -1.260203289899199e+00, -2.708833277796267e-01, -6.047159063990314e+00, -1.011102803468938e+00, 6.597592517797325e-02, 1.482698816621449e+00, 2.449179150845248e+00, -3.878428729229303e+00, 1.681710842945644e+00, 2.586641066233724e+00, 5.840412730361986e-02, -4.469079699753907e-01, -1.237556958645614e+01, 3.504635495000737e+00, 9.025566003783924e-01, 1.882811605325706e+00, -2.686064906393742e+00, 1.323060297604441e-01, 1.116118825671615e+00, -1.252573345245155e+00, 4.816383566518761e-01, 3.151079949369756e+00, -3.316834695500910e-01, 4.006817897722385e+00, 8.737930361846112e-01, 7.941166879630643e-01, 4.905986290058213e+00, 1.814566319394936e+00, 6.195590949635770e+00, 4.992641409835409e+00, 4.155217802584275e+00, 3.592132630733615e+00, 2.062992687811057e-01, 1.258525974488152e+00, 9.874397352252490e-01, 1.081167654817411e+00, 1.187209365098338e+00, 1.963403941900326e+00, 1.725279429624136e+00, 1.751630186676462e+00, 1.676171681547418e+00, 2.923673430601999e-01, 2.522136489460157e+00, 6.728407926592378e+00, 7.524455312878103e+00, 4.792648389898362e+00, 6.531293429848113e+00, 4.825801660086294e+00, 6.357005605983288e+00, 5.105274961360185e+00, 8.675352207916139e-02, 2.986875619435995e+00, 2.307873190421921e-01, 6.529356210379055e+00, 1.094678514291106e+01, 6.071258218009356e+00, 6.430876299523604e+00, 4.810451864877667e+00, 5.059991022997721e+00, 7.457248340843774e-02, 2.991154290249314e+00, 4.349387210676461e+00, 3.784302622546545e-01, 4.289460108463937e+00, 9.529257372518174e+00, 5.116177853350846e+00, 3.500869393863831e+00, 4.426450790455894e+00, 4.175695167206663e-01, 2.748882210060886e+00, 1.803982649587492e+00, 1.527498146510755e-01, 5.139493345210136e+00, 6.390848147527299e+00, 4.102971173362628e+00, 3.330950576893160e+00, 4.087643365620966e+00, 5.498316485624892e-01, 2.745562748427202e+00, 3.404620013498336e+00, 1.465558396552688e+00, 3.191409904654808e-01, 1.767781663973627e+00, 4.121166939898536e+00, 3.911735350710760e+00, 6.572229057631935e+00, 5.640403466008200e-01, 3.205961821267223e+00, 7.535201623383233e-01, 3.246549774273120e-01, 5.974761211539776e+00, 3.978341104107314e+00, 3.615150313744146e+00, 3.599157877453905e+00, 4.092724099027821e+00, 4.014227216757793e+00, 2.916768162803119e+00, 1.847012219629323e+00, 3.976123829095707e-01, 3.810647953236360e+00, 4.593852764929754e-01, 8.556494567406584e-01, 1.571583437445420e+00, 2.977418361863061e+00, 1.582876941535808e+01, 2.087793373596100e+00, -5.751945767532710e+00, 1.471401257855672e+00, 1.508084243042750e+00, 1.901425787615307e+00, 2.916784722606512e-01, 1.787319870216925e+00, 7.871241023834416e-02, 4.481480816482712e+00, 9.790097050613409e-01, 4.632592121675934e+00, 4.374058447123415e+00, 3.266636448313215e+00, 3.261847617183678e+00, 3.285141618795834e+00, 3.175901868955979e+00, 3.501708447609376e+00, 2.847292744740429e-01, 2.516769427921364e+00, -6.803484061669226e+00, 2.457917198307832e+00, 1.559243260776991e+00, 2.493828750874809e+00, -8.464803968991657e-01, -4.468196282808569e+00, -2.156546397949167e+00, -1.151081315697681e+00, 2.296065411745577e+00, 1.833721330519755e+00, 1.895404122195881e+00, 1.632251901077841e+00, -3.881127052647371e+00, 2.475359606801218e+00, -1.625726252674504e+00, -1.645570943360146e+00, -6.603556440881651e+00, 2.095566006154300e+00, 2.597828757629155e+00, -1.640361303958452e+00, -3.740125602043825e+00, 3.318118682070573e+00, 9.960944574118785e-02, 2.635096059888598e+00, 3.575405635752705e+00, -5.598214422906546e+00, 2.196301075358011e+00, 1.978342236837716e+00, -8.704198141482754e+00, 2.545163270138389e+00, 3.112119770464831e+00, 3.039426649965765e+00, 2.994000322413481e+00, -1.288989072836240e+00, -4.870954539104701e+00, 2.167443477228974e+00, 2.574823048515934e+00, 2.016820743485601e+00, -2.585487115788538e+00, 2.596990836523727e+00, -5.902098655163830e-01, -3.079966389348949e-01, 3.359005537054977e+00, -1.356397749789595e+00, 2.827583651083766e+00, 1.015875062005070e+00, -3.304831462997548e+00, 2.927376100778429e+00, 2.226181789382359e+00, 9.218584530236423e-01, 2.689051506345612e+00, -3.516792359184763e-01, -2.325289041247312e+00, 2.196093925102071e+00, 1.994752183302939e+00, -4.639917588235972e-01, 6.701188795914164e-01, 6.230822781213020e-02, 3.922920563161541e+00, 2.890085235174498e+00, 6.447375257236566e-01, 6.840754403063922e+00, 2.060313761961669e-01, 1.739249654036423e+00, 1.160247210243948e+00, 3.614890963143378e-01, 1.484929912979184e+00, 3.307982264547968e+00, 2.070961471515886e+00, 1.158170355209185e+00, 3.126860064142654e-02, 3.074033805039775e+00, 8.941882256324559e-01, 7.842980886102259e-01, 8.235728947160889e-01, 7.330717697438175e-01, 6.304879490922317e-01, 5.578216501787129e-01, 7.630983735528711e-01, 1.299729150733731e-01, 2.081454917793231e+00, 1.436505236289424e-01, 2.443472528559641e+00, 2.282462242832635e+00, 4.721079808948438e+00, 6.784773752714657e+00, 1.340844257738829e+00, 5.868857801535941e+00, 3.159519999693116e+00, 1.603313765171833e+00, 7.260736044421970e-01, 1.490702025708293e+00, 2.420810533434487e+00, 5.709615904167512e+00, 4.370947200907118e+00, 3.656769652529535e+00, 6.309185157002394e+00, 8.836123559498585e-01, 2.290245728190049e+00, 2.523014263705016e+00, 1.811229826269547e+00, 8.654628415745768e-01, 3.531713785295587e-01, 9.797295716870926e-01, 1.914194282208149e-01, 8.924133272205460e-01, 2.172405269005768e-01, 1.929541980887571e+00, 1.608249420834093e+00, 3.900793293699386e-01, 8.838370830923575e-01, 8.745189440509639e-01, 2.251550855811843e-01, 2.150817026371471e-01, 2.301917037069035e-01, 2.972453019886407e-01, 1.691111140959922e+00, 1.793493825810206e+00, 1.253334825397057e+00, -4.899112103246837e-01, 2.349320630733520e-01, 1.437704179067337e+00, 2.699695060992237e-01, 1.248474417142443e+00, 4.024969925107725e-01, 6.053320009160910e-01, 3.548675739916273e+00, -1.054981088771737e+00, 1.328725944263072e+00, 1.397829585161370e+00, 4.791744103063051e-01, 2.016135227148224e-01, 5.020379852749214e+00, 1.384492235259702e-01, 1.822316122834136e+00, 1.554392381481582e+00, 3.682867168299087e-01, 2.868596240554486e-01, 6.695090328510808e-01, 2.098529541139755e-01, 2.075941397156348e-01, 2.463657015387533e-01, 9.135114042090693e-01, 1.904985705466320e+00, 1.068244618670359e-01, -8.955780617350444e-01, -6.595035923089607e+00, 6.570781147208273e-01, 2.089454886864930e+00, 1.643083938038395e+00, -1.268569680360165e-01, -1.063767104630509e+01, 5.679899561624274e-01, 1.181914807716479e+00, 1.053656554251088e+00, 1.446540189368483e+00, 1.986933208794583e+00, 1.656337343986479e+00, 1.353027896726639e+00, 2.023062757903092e+00, -1.990913539020333e+01, 1.805242358948916e+00, -1.178970123419348e+01, 2.801878272322134e+00, 8.739884750338908e-01, 2.024362859888177e+00, 1.748640149104916e-01, -3.999110863940628e-01, 2.287831630475832e+00, 8.946032836742579e-01, 1.257866948058534e+00, -1.478018685096053e+00, 1.297654764131457e+00, 1.318944570314315e+00, -5.475661529910458e+00, -6.712795734983079e+00, 2.085121796571065e+00, 2.423618243973956e+00, -6.048773015988906e-01, 1.938701446172014e+00, 1.933949104764122e+00, 1.968273657668869e+00, 8.664207160577917e-01, -7.491637656904459e+00, 3.281775859171980e+00, -2.429530516574800e-01, -9.672208317092504e-01, -1.450247741133379e+01, 1.682684082293510e+00, 1.453017993650118e+00, -3.611420466513682e+00, 2.812878859162124e+00, 1.905941409251408e+00, -3.246675346135845e+00, 4.435728580746354e-01, -3.221384096303965e+00, -1.021021232280636e+01, 1.719545805691768e+00, 2.065519222289734e+00, 1.408663198885021e+00, 6.553080423326356e+00, -3.195865304635121e+00, 1.960523722579784e+00, -1.181672599313477e+00, 1.758917153999218e+00, -2.760115118068106e+00, 2.575465089166149e+00, 2.338419371955224e+00, 5.199219178427734e+00, 2.627642281031255e+00, 2.226709445004902e+00, 8.370178829566105e-01, -2.135480449705769e+00, 2.422355978975088e+00, -2.058433225578960e+01, 1.683206189791725e+00, 1.324540296810298e+00, -4.480685076547063e+00, -7.593140174670077e-01, 2.578170899865278e+00, -3.859877239107087e+00, -4.041981783409890e+00, -7.529573062708146e+00, 3.161727946884981e+00, 1.465938982563224e-02, 5.111366666159102e+00, 2.967807454685256e+00, 3.317312848579100e+00, 7.162994599974106e-01, 5.063845815073315e+00, 5.523420517508110e+00, 2.675476387358525e+00, 1.215208075249478e-01, 2.162575925824317e+00, 1.026694602963371e+00, 1.634197871971653e+00, 6.928156243179615e-01, 8.977553849816765e-01, 6.096342526949174e-01, 9.263416800540095e-01, 9.609746447717621e-01, 1.344686785787039e+00, 2.105203111590585e+00, 1.151478206697030e+00, 3.487995178964464e+00, 2.226575325454387e+00, 3.474020364548627e+00, 2.141838310241497e+00, 4.364059402816172e+00, 3.331887925569690e+00, 4.953916469696974e+00, 7.838706600425011e-01, 4.863277061359308e-02, 1.514543834241790e-01, 2.201111480496896e+00, 1.344612859543904e+00, 5.090560935401887e+00, 7.680834988584572e+00, 6.721967437746305e+00, 4.722376616091452e+00, 1.208612108842174e+00, 4.107071680805976e+00, 4.006511519982701e+00, 3.743059496227377e+00, 3.999106750886507e+00, 4.707511424848044e+00, 3.895840900436097e+00, 3.667817252057036e+00, 5.181438451219234e+00, 1.326821011412781e+00, 6.765558179883118e+00, 4.196980608461373e+00, 3.867206695547640e+00, 4.239189770687218e+00, 1.355926648083599e+00, 5.550765753970787e-01, 4.921864460500241e+00, 3.681276611958266e+00, 1.146912265796012e+00, 1.684163669058292e+00, 2.712937232654157e+00, 4.199136240023162e+00, 2.972048814245986e+00, 1.406202856795690e+00, 3.835160390271116e+00, 3.906829246709818e-01, 3.844684416586297e+00, 2.035945071748904e+00, 4.426769604541789e+00, 3.839282748850407e-01, 3.908551697926301e+00, 3.606446844187545e+00, 2.712441734387100e+00, 6.606334631673222e+00, 3.870741482888246e-01, 2.530360532692192e-01, 1.515549329887268e+00, 3.861813746709744e-01, 1.975108481662050e+00, 2.113331063142870e+00, 5.257162469448501e+00, 5.002862452243646e+00, 4.828817237041350e+00, 1.160013028857650e+00, 1.104523391579170e+00, 1.413143576083219e+00, 1.772838336951052e+00, 1.312040708889984e+00, 1.781794170517365e+00, 5.147222354054362e-01, -2.315847885652490e-01, 1.912140356644763e+00, 1.425887758758229e+00, -1.342139516118467e+00, 1.226823656649635e+00, 2.337429823075615e+00, 1.908149872562862e+00, 2.894417395635560e+00, 3.133055369508574e+00, 3.471801551231523e+00, 2.875669260469408e+00, 2.983578417475892e+00, 9.696161390423657e-01, 1.828184644022626e+00, 1.620278525900670e+00, -4.164737837548478e+00, 1.572109600989753e+00, 2.551726100507617e+00, 2.231905229412406e+00, 2.501248550359576e+00, 2.077323044697368e+00, 1.222442329842621e+00, 2.305759153593317e+00, -4.534633386770489e+00, -1.245919091315115e+01, 2.324404806354508e+00, 1.940746921458262e+00, 7.292547968371461e-01, 1.924582523552903e+00, 2.481710950851660e+00, -3.087306850211570e+00, 2.218124011877408e+00, -1.697123445751955e+00, 1.846739023892675e+00, 1.510873648625445e+00, 2.768842137049803e-01, -7.661664298607815e-01, 1.723798422561815e+00, 1.165326772114655e+00, -4.748761837095145e+00, 2.058731405432226e+00, 2.099546846312328e+00, -2.464955768876605e+00, -4.671759398534182e-01, -2.146049913069559e+00, 1.010257029270181e+00, -2.700035228401224e+00, -1.002028590937662e+00, 2.154983430327765e+00, 2.171331248126494e+00, 1.705257063118913e+00, 1.957295385794947e+00, -5.603161881095475e-01, -1.444559788320569e-01, 9.803515438492189e-01, -3.151647979854706e-01, -2.294106966153255e+00, 2.116921868099861e+00, 2.147918809856445e+00, 2.443670803063144e+00, -9.157983519559243e-01, 6.668804271552138e-01, 2.508893124256683e+00, 2.724046437889276e+00, 2.186194783706290e+00, -1.047914321301754e-01, -7.226259163403136e+00, 2.075756820455188e+00, -5.949590275467799e+00, 1.622075253250099e+00, 1.891639081311757e+00, 2.808302469781120e+00, 1.284068009677301e+00, -9.396105833489984e-01, -3.974286332878555e-01, 3.661170075917946e-01, 7.889350041982181e-02, 5.018540323345499e+00, 6.570488775678130e+00, 4.499512868757284e+00, 4.739091191041028e+00, 3.963693267433886e+00, 4.432072172961267e+00, 4.515534063275026e+00, 1.040518376321416e-01, 8.487552806548624e-01, 5.194413659082967e-01, 4.913561176465217e-01, 7.331394347743611e-01, 5.976263998123382e-01, 6.055566784030307e-01, 6.164861057392760e-01, 6.010863210864293e-01, 3.217974911464229e-01, 1.173373915865208e-01, 3.969170511182322e+00, 6.274956507780087e+00, 4.481660845699309e+00, 4.157307029389242e+00, 4.963603835294477e+00, 3.962546660112221e+00, 1.117670625998813e+01, 5.279005907702093e+00, 1.069940168488543e+00, 3.042260789004264e+00, 3.239973531694512e+00, 4.292948751476490e+00, 3.796942106918860e+00, 2.691708835662958e+00, 4.723743449449593e+00, 4.265167846593147e+00, 9.524374164544534e-02, 2.054273378664416e+00, -5.381974009071338e-02, 1.039219664113800e-01, 1.450900908594192e-01, 3.877149716447315e+00, 4.596423099667790e+00, 4.118943647597583e+00, 3.606593776643950e+00, 5.109091019766513e-01, 1.167264713069216e+00, 3.363080344509455e+00, 5.450441068770965e+00, 1.907937998273937e+00, 2.149167291634896e+00, 8.932195225954159e-02, 2.059267179714325e+00, 2.501028018102989e+00, 6.359081543776511e-01, 1.821170736603097e+00, 1.854061716205443e-01, 1.285942038042638e-01, 1.248237093649087e+00, 3.189398509693456e+00, 8.935305872741764e-01, 8.035386310882112e+00, 3.710761151614561e+00, 4.153610202290460e+00, 8.606814519971738e-01, 4.259878373857934e+00, 5.435951040369523e+00, 4.341699726961952e+00, 3.231370449700409e+00, 1.291259550654132e+01, 1.607738541997029e+00, 3.675831462579184e+00, 2.690539861970627e+00, 9.751235350257829e-01, 7.223935954231118e-01, 2.551833317003430e+00, 7.065610349006560e+00, 3.948101559025327e+00, 2.734443610405761e+00, 7.621791329954736e+00, 3.045223056738117e-01, -6.622354912574952e+00, 1.391816442314433e+01, -2.619279855544467e+00, -4.177486074305674e+00, -8.410091694546288e-01, -6.658570615043671e-01, -1.489313642050638e+00, -9.959432004460844e-01, -5.861039566013886e-01, 1.284188133844882e+01, -2.664458812969802e+00, 3.671623039945645e+00, 3.629242109282004e+00, 3.334763376063679e+00, 3.922102081780707e+00, 3.827848019195909e+00, 3.765536372099929e+00, 3.895258128488793e+00, -1.123767512801281e+01, -1.613257230927296e+01, -3.202052279923593e+00, 3.463043155939293e-01, -1.540763580122371e+00, -5.552276249540549e-01, -1.232014663640062e+00, -6.657807563058097e-01, 2.251097709050927e+00, -3.743446877959927e+00, 2.263676779787515e+00, 1.271560340587619e+00, -1.818890775923775e+00, -2.258408889066153e+00, -1.251337397186426e+00, 1.107830145777114e+00, -2.790216413569210e+00, -1.466532940196869e+00, 1.830263516887021e+01, 1.754330895576029e+00, -1.372883810012505e+01, 1.381973682173020e+01, -2.443219162032085e+01, -1.544799606424065e-01, -1.317993242335169e+00, 8.377356488589142e-02, 1.260535060497404e+00, -7.393016952855422e+00, 2.515261051532873e+00, 1.726085659086577e+00, 2.463379420815286e+00, 2.422538592107813e-01, 3.413408829241555e+00, 1.259043037331530e+01, 3.333009165092263e+00, 3.878725249224279e+00, -3.350335503020415e+00, 2.004921389103730e+00, -1.071168222751532e+01, -2.297409982748023e+01, 3.077031843120910e-01, 2.542350753251665e+00, -9.073929455754010e-01, 2.742818004042522e+00, -8.561216534658497e-01, -2.813981862655820e-01, 1.543808706186823e+00, -9.231334286713498e-01, -1.887230262507599e+00, 3.613375188720184e-01, 2.331534354881192e+00, 2.668995691721054e+00, 1.876506194716482e+00, -1.317640437539378e-01, 7.805711256236985e-01, 1.532359594777385e+00, -3.287478421135247e+00, -2.815543011843309e+00, 2.362722574021800e+00, 1.556419496908022e-01, -7.420034818872518e-01, 2.856270693700839e+00, -8.529188661756356e+00, 3.069039552654509e-01, 1.472093282744042e+00, 2.626836427082514e+00, 1.086958738641193e+00, 2.590273043171196e+00, 4.686745407908002e-01, 4.452625315910587e+00, 8.635085193338780e+00, 3.167350093919492e+00, 4.381359949844841e-01, 1.097722279532797e+00, 1.344404004071118e+00, 1.488972217273386e+00, 1.198415722638019e+00, 1.204795838102002e+00, 1.078892015006030e+00, 7.564611129784983e-01, 1.065373680883508e+00, 1.346716862623277e-01, 4.134190857180343e-01, 3.689331996692913e+00, 4.145056551463743e+00, 6.216322339205408e+00, 5.227214417558504e+00, 5.402289798475863e+00, 2.306573371561545e+00, 4.347784194015448e+00, 5.375876934157180e-02, 1.831860770409602e+00, 4.462864910938900e-02, 1.250434379446872e-01, 2.722528558228823e-01, 2.083455304625419e+00, 1.626697958803003e+00, 9.409469938356748e+00, 5.818990784838678e+00, -6.242497941907758e-02, 1.038195784308834e+00, 5.044442862392164e-01, 1.484369467815552e+00, 7.961131068418421e-01, 2.623999177088635e+00, 3.829360958990638e+00, 1.855465137142782e+00, 3.486384862068296e+00, 2.780738386271850e-01, 8.895272907171949e-01, 1.263990390026106e+00, 5.826037141938250e-02, 4.547531867900327e+00, 1.476853409129877e-01, 4.193305434092760e+00, 2.039245339866077e+00, 1.527336959184224e+00, 4.793558480499938e-01, 5.911783845185976e-01, 7.532837809236138e-02, 3.136609402920969e-02, 1.945722608592988e-01, 3.815412782491356e+00, 8.850127927705271e-01, 2.633044074029464e-01, 4.997798458604214e+00, 3.196661349601011e-02, 6.551661135570677e-01, 4.140582418634853e+00, 9.776924733694379e+00, 3.762811997427931e+00, 3.964146435666751e+00, 5.057540642416745e+00, 4.200715112275353e+00, 3.918971106502385e+00, 3.907905025274613e-01, 6.294327594753309e-01, 1.840391578473296e+00, 7.868997851243828e-02, 3.560699414366060e+00, 4.158443239006962e+00, 3.828055807245150e+00, 3.324833968559257e+00, 3.943288799835900e+00, -1.639452131857629e+00, 1.267727815756265e+00, 1.897764517651800e+00, 1.558562883572588e+00, 1.913027292106826e+00, -4.146870355115561e+00, 6.496122689136727e-03, 2.122154046166007e+00, 1.967430089662994e+00, 4.974623701530049e-01, 1.206814319743804e+00, 1.512365721512994e+00, 1.639766928228562e+00, 1.937871438434879e+00, 1.829029810816215e+00, 1.902989608547371e+00, 1.597416706012857e+00, 1.774473340324865e+00, 2.078408992932756e+00, 1.031841119926921e+00, 1.812851286000319e+00, -1.288304540424157e+00, 2.349074448793457e+00, 1.991568526514119e+00, -2.138319684391662e+00, -9.000178339504160e-01, -4.314012216850402e-01, 2.856074224569971e+00, 9.566096525913785e-01, -1.054525100548502e+01, -1.447646490611224e+01, 1.965730121421531e+00, 2.136861860060769e+00, 2.060308241475589e+00, -7.435133575271493e-01, 2.390337564135132e+00, 1.057273453788135e+01, 1.583636549453448e+00, 2.288610979404325e+00, 2.363772546294951e+00, 2.177611059238513e+00, -9.237119798910466e-01, -5.749306598112434e-01, 1.974747261239334e+00, 1.192777735112153e+00, 2.131713532091228e+00, 1.430184489851733e+00, 1.704804417458315e+00, -1.597969412349124e+00, 2.173694326804692e+00, -7.584242662182946e+00, -7.119431553490011e-01, 2.528896796605658e+00, 2.870956070655914e+00, -2.371003249099969e+00, 9.767725566567006e-01, -1.866148582707393e-01, -1.103493302138240e+01, -1.048715593066047e+00, -1.783615480338604e-02, 2.058637470038085e+00, -2.636134830640779e+00, 2.774500393747426e+00, -2.464172272653113e+00, 1.981265966245299e+00, -1.387119113224529e-01, -1.218768522145559e-02, 7.442522644371148e-02, -1.384252564720191e-01, -9.783416235330789e-02, 1.551832943335153e-01, -1.694070182668678e-01, 2.653371536294570e+00, 1.028232817661479e+00, 2.328728517045233e+00, -1.955400203886416e+00, 1.132978170015414e+00, -1.747426200789774e+00, 3.430700548521177e-01, 2.338039354650570e-01, -2.408466225913711e+00, 5.637059732246914e-01, 1.654171495939065e+00, 8.368340692332873e-01, 1.445855829009958e+00, 4.848405117644160e+00, 4.417851750309583e-01, 3.453380794510426e+00, 7.394234323022348e+00, 4.309912202998364e+00, 5.055822187833431e-01, 2.110906761022132e+00, 1.467897890098937e+00, 1.410048606590806e+00, 8.147494163936528e-01, 1.291935733819995e+00, 1.049988021476154e+00, 3.954094957676157e-01, 1.164385014536765e+00, 1.494376227158641e-01, 1.924195856086821e+00, 3.625530428126422e+00, 2.839200438098395e-01, 3.518170145832026e+00, 4.161453299652110e+00, 2.192405658749064e+00, 2.676704713011369e+00, -3.311036763468818e-02, 3.201478974590689e+00, 1.898788178974046e+00, 4.648154441972596e+00, 2.280034609162680e+00, 6.664547175608748e-01, 4.441432032036385e-01, 3.254042066450786e+00, 2.787231239893960e+00, 4.403806321981085e+00, 7.356733548356285e-01, 2.545113573218399e-01, 4.380027529010162e-01, 6.470990199798571e-01, 2.058673246803755e+00, 4.923274995735238e+00, 2.204458840918980e+00, 3.435237778508504e+00, 3.625859088161879e+00, 9.028251171929911e-01, 1.674891311914564e+00, 2.875235689461833e+00, 2.708095270347281e+00, 7.287983778243243e-01, 2.146230586328204e+00, 2.439201080896946e+00, 3.851665327237658e+00, 4.069350790455941e+00, 1.070210274189278e+00, -4.096314890903227e-02, 4.021076821646158e+00, 4.030507858974280e+00, 1.256961574316986e+00, 4.495472536303188e+00, 3.862818474899155e+00, 4.296772464071204e+00, 3.967322761571682e+00, 4.371081308535103e+00, 1.817876755598001e+00, 4.653714798660133e+00, 7.893665112389067e+00, 1.419426277134618e+00, 4.044340009348867e+00, 2.876394104510946e+00, 4.517804699542730e+00, 1.914552065869664e+00, 7.847982369782229e-01, 1.589302533398050e+00, 3.443012401309725e+00, 3.211737277231505e+00, 2.549630402492301e+00, 3.419463182928670e+00, 4.405495753120680e+00, 3.386512133075779e+00, 5.453426681557059e+00, -2.101946668173277e+00, 6.146832211606820e-01, 1.451587546018636e+00, 2.087955322660998e+00, 2.210301349383971e+00, 2.902330407693140e+00, -4.670886386855858e-01, -4.429655234536551e+00, -1.158421111393612e+00, 1.935246864211212e+00, 2.075348506073779e+00, 2.960908243693762e+00, 2.820325851714468e+00, 2.478955340092306e+00, 2.390193229961691e+00, 2.457264716691122e+00, 4.087313320193950e+00, 2.371311197992013e+00, 5.535887862611129e+00, 1.836374198540302e+00, 1.311073788083639e+00, -1.600346650068467e+00, 2.678381688818400e+00, -3.255757906512787e-01, 2.730968294625083e+00, 2.368422245203325e+00, -1.452684365716831e+00, 1.889968196709896e+00, 1.829869026220831e+00, 2.642986124529528e+00, 2.385390807237763e+00, -1.423309165743925e+00, -1.023987270232943e+00, -5.736801927758621e-01, 3.127775788344542e+00, 2.723746176496176e+00, -4.628217557864479e-01, -2.063001154686531e+00, 3.312385647125732e+00, -1.643615570335009e+00, 1.026896676080885e+00, 2.458692275520838e+00, 2.940939693156244e+00, 6.940149246648817e-01, 1.066283152023640e+00, -1.929558595283090e-02, 1.235748087097175e+00, 1.779026389409456e+00, -1.664477904833764e+00, 8.870239487379685e-01, 2.379183616038307e+00, 1.742118358038206e+00, -5.016916819125242e-01, 8.938493179321807e-01, 6.073525651088207e-01, -4.503310210924057e+00, -7.566399400862987e-02, -1.011114814467794e+00, 2.998639114149419e+00, -1.521252299177120e+00, 2.360921631467019e+00, 2.473637127001916e+00, -1.498925622348841e-01, -7.523334091146763e-01, 2.066111490793351e+00, 2.392513955928816e+00, 2.441700359201917e+00, 2.876383649878931e+00, -1.005269193793561e-01, 2.198474633350744e+00, -2.238201290735151e-01, 2.112032592694258e+00, -7.902182411819528e-01, 1.262107519163282e+00, 3.631634853208537e-02, 2.243035789652422e+00, 3.056905051189593e+00, 1.052433610307234e+00, -5.893978679764652e-01, 1.423392311253342e-01, 1.842866528200043e+00, 3.832892221397620e+00, 7.340796013491399e-03, 4.893227097933457e+00, 9.766440203944985e+00, 1.756409374014642e-01, 3.930785409028668e+00, 4.351909298310448e+00, 3.706097968936689e+00, 3.388348648090078e+00, 9.276328317579288e-02, 1.864667787894609e+00, 3.270760965054115e-01, 3.202691299046879e-01, 7.158448075922692e-01, 6.900214017112799e-01, 5.671113287888808e-01, 1.438851068123987e-01, 5.937586744814337e-01, 3.318878736988816e-01, 1.555203883543026e+00, 2.033180614865490e-01, 3.164938462832621e+00, 2.256872214998919e+00, 2.096237930884803e+00, 4.581994093245029e-01, 1.825018381461569e+00, 1.271427941067949e+00, -2.376008582841527e-02, 1.545205047599042e+00, 6.447791455312235e-01, 9.267592971631075e-02, 1.630362299551579e+00, 4.723311221187448e-02, 1.723595518751295e+00, 1.497811546415990e+00, 1.258292850116327e+00, 5.165370492003262e+00, 8.939908467446352e-01, 6.325586047594282e+00, 1.100226536904172e+01, 7.060209062215266e-01, 4.155724438786889e+00, 3.736125460258776e+00, 4.064720391218141e+00, 3.364745506848552e+00, 3.777077909751389e+00, 4.216003773344107e-01, 2.381464849847460e+00, 3.449152701652558e+00, 4.156154453551545e+00, 6.102056423241022e-01, 3.799272093495535e+00, 5.281619562194336e+00, 3.926470068957245e+00, 4.831635237784885e+00, 5.646434533583553e-01, 1.530755170403455e-01, 3.931185181529457e+00, 4.114609358896079e+00, 4.169701526122364e-01, 2.298237469912334e+00, 2.899995888375092e+00, 3.722072930467379e+00, 4.172233016664060e+00, 1.422342232253355e-01, 2.431871611797495e+00, 4.320043235160634e+00, 2.657709349567957e+00, 3.340680979075960e+00, 3.853364101580758e+00, 4.462842398767959e-01, 3.608197208939272e+00, 4.885860698014443e+00, 3.760094821510045e-01, 1.664185385502158e-01, 4.795190332399704e+00, 3.267047343147054e+00, 4.334312910338396e+00, 3.644176631419923e+00, 4.157002446436240e+00, 4.611279143723038e+00, -1.633725253885386e+00, 6.810775369802761e+00, -3.965923437453240e+00, 1.668969532847324e+00, -6.072725080715479e+00, -2.382804032085812e-01, -4.625970841414394e-01, -1.073188536682289e+00, 1.836165283177828e+00, 8.444432484800855e-01, 1.017827214840612e-01, 1.196064588893788e+00, 1.120017648730858e+00, 1.696767992274077e+00, 2.284756373364835e+00, 2.031612198640055e+00, 4.547702740502579e-01, 2.155218979786876e+00, 2.084926096361193e+00, 1.753770417312911e+00, -5.994863028496705e+00, -1.384374807385713e+00, 2.942694413319223e+00, 2.982894837620502e+00, 2.015665299334831e+00, 2.752366364946391e+00, 2.517588035286174e+00, -2.660096802315971e+00, 1.442480565373668e+00, 2.701470315091807e+00, -1.569100665452187e+01, 2.682606698244647e+00, -9.083312136655197e-01, 3.056836228321886e+00, 2.344014264523230e+00, 2.345240796534351e+00, -4.447107700332315e+00, 1.723509812918708e+00, -6.777458685728866e+00, 1.916042665234396e+00, -1.099303966749315e-01, -5.716232166272030e-02, 1.254018253896556e-01, -2.327966213038172e-01, 1.444056297203852e+00, 1.468855560656895e+00, 5.590971429377872e-01, 2.229597941005496e-01, -5.653898669798562e-01, -1.333496958208655e-01, -1.760018875687537e+00, -2.400165377573608e-01, 2.411140234659961e+00, 1.199388150876350e-01, -1.279943191275938e+00, 9.798880097630751e-01, -1.113726044456398e+01, -1.276545172914659e+00, -8.291960598998467e-01, -1.006468735843531e+00, -3.080832571790120e+00, 2.311417762708592e+00, 2.006844341353518e-01, -2.768615336221735e-03, -2.565626500304912e-01, 2.230180217861495e+00, -4.572027035050263e+00, 1.635614877238129e+00, 3.726086658077980e-01, -5.196292208977157e-02, -2.821555047394474e+00, 3.519433300041543e-01, 1.571244240176774e+00, 4.700056789329045e-01, -1.252967689022062e+01, 1.931173275397980e+00, 1.642482240984422e+00, -8.915963989504405e-01, 4.157390788603200e-01, -4.532595465652127e-03, -1.117941767459188e+00}
	radial_coeffs
		0-0
			{-8.886495610326024e-02, 5.419669920595618e-01, -8.091107276546476e-01, 9.618385199584825e-02, -7.557457350584383e-02, 1.126232282269943e-02, -2.339982776278221e-02, 1.463801522300908e-03, 7.067298914299464e-01, 1.052288257708258e+00, 1.099546018537650e+00, 1.298852968232725e+00, 1.012186954230495e+00, 1.068509343267022e+00, 1.263719220230562e+00, 1.097648068779214e+00, 1.063214766285403e+00}
			{-8.680049598274937e-03, 2.356481641758386e-01, -1.454644650786946e-01, -8.381334425790719e-02, -1.129266343971230e-02, -6.767953434075087e-02, 4.989237016838204e-02, -3.791578300700271e-02, 1.000000000000000e+00, 1.000000000000000e+00, 1.000000000000000e+00, 1.000000000000000e+00, 1.000000000000000e+00, 1.000000000000000e+00, 1.000000000000000e+00, 1.000000000000000e+00, 1.000000000000000e+00}
			{4.580651748997146e-01, -7.373891356517914e-01, 5.031785894750745e-01, -4.860418592299030e-01, 2.741020456559651e-01, 7.732232897361721e-02, -7.599378430159420e-02, 3.893999384811155e-02, 1.000000000000000e+00, 1.000000000000000e+00, 1.000000000000000e+00, 1.000000000000000e+00, 1.000000000000000e+00, 1.000000000000000e+00, 1.000000000000000e+00, 1.000000000000000e+00, 1.000000000000000e+00}
			{4.019909232570467e+00, -7.702949595463952e+00, 6.882332218746201e+00, -5.571794078678672e+00, 3.880065324608755e+00, -2.171803693522210e+00, 8.603736613111445e-01, -2.384764042984442e-01, 1.000000000000000e+00, 1.000000000000000e+00, 1.000000000000000e+00, 1.000000000000000e+00, 1.000000000000000e+00, 1.000000000000000e+00, 1.000000000000000e+00, 1.000000000000000e+00, 1.000000000000000e+00}
			{2.603789903301651e-01, -6.748120213126729e-01, 3.781183714183047e-01, -7.377041402250945e-02, 2.302384817626422e-01, -2.864396184722956e-01, 1.097554345179134e-01, -8.346015821660284e-02, 1.000000000000000e+00, 1.000000000000000e+00, 1.000000000000000e+00, 1.000000000000000e+00, 1.000000000000000e+00, 1.000000000000000e+00, 1.000000000000000e+00, 1.000000000000000e+00, 1.000000000000000e+00}
			{-1.466069870050287e+00, 2.416249273589543e+00, -1.451202632813172e+00, 6.645781225996387e-01, -4.754631584513447e-01, 2.628145113511255e-01, -1.016259223473767e-01, 2.011141301576991e-02, 1.000000000000000e+00, 1.000000000000000e+00, 1.000000000000000e+00, 1.000000000000000e+00, 1.000000000000000e+00, 1.000000000000000e+00, 1.000000000000000e+00, 1.000000000000000e+00, 1.000000000000000e+00}
			{2.695194848125749e-03, -1.079707719419278e-01, 1.087398954373831e-01, -3.298869985471322e-01, 3.236943446373136e-01, -2.382977436120996e-01, 1.166008754487693e-01, -4.213924917037815e-02, 1.000000000000000e+00, 1.000000000000000e+00, 1.000000000000000e+00, 1.000000000000000e+00, 1.000000000000000e+00, 1.000000000000000e+00, 1.000000000000000e+00, 1.000000000000000e+00, 1.000000000000000e+00}
			{-7.029223750169760e-01, 1.081663901016049e+00, -6.609639944577156e-01, 3.911624444692718e-01, -4.964874034861174e-01, 3.645917038544631e-01, -2.177471150837417e-01, 7.453181606426014e-02, 1.000000000000000e+00, 1.000000000000000e+00, 1.000000000000000e+00, 1.000000000000000e+00, 1.000000000000000e+00, 1.000000000000000e+00, 1.000000000000000e+00, 1.000000000000000e+00, 1.000000000000000e+00}
			{-1.481964851962993e-01, 2.920623535032706e-01, 1.573850005907762e-01, -4.185206988768336e-01, 1.022596525195625e-01, -1.399000354844269e-01, 2.029679025427472e-02, -1.278767159648656e-02, 1.000000000000000e+00, 1.000000000000000e+00, 1.000000000000000e+00, 1.000000000000000e+00, 1.000000000000000e+00, 1.000000000000000e+00, 1.000000000000000e+00, 1.000000000000000e+00, 1.000000000000000e+00}
			{-1.038179766917203e+00, 1.721899349990285e+00, -2.121553201714437e+00, 2.233449769438224e+00, -1.097377918828984e+00, 8.527046304886354e-01, -2.407845467692309e-01, 1.153210441871229e-01, 1.000000000000000e+00, 1.000000000000000e+00, 1.000000000000000e+00, 1.000000000000000e+00, 1.000000000000000e+00, 1.000000000000000e+00, 1.000000000000000e+00, 1.000000000000000e+00, 1.000000000000000e+00}
			{4.925584939247361e+00, -9.344935084886794e+00, 7.985016828359814e+00, -5.851914470214301e+00, 2.984841872590252e+00, -1.208192096338945e+00, 3.424358531791272e-01, -6.782691801936477e-02, 1.000000000000000e+00, 1.000000000000000e+00, 1.000000000000000e+00, 1.000000000000000e+00, 1.000000000000000e+00, 1.000000000000000e+00, 1.000000000000000e+00, 1.000000000000000e+00, 1.000000000000000e+00}
			{-2.721863945094993e+00, 4.598875703628312e+00, -3.622358235191939e+00, 3.632501791620707e+00, -2.420937466576751e+00, 1.627519758836587e+00, -7.404428102409916e-01, 3.084389973343297e-01, 1.000000000000000e+00, 1.000000000000000e+00, 1.000000000000000e+00, 1.000000000000000e+00, 1.000000000000000e+00, 1.000000000000000e+00, 1.000000000000000e+00, 1.000000000000000e+00, 1.000000000000000e+00}
			{5.592539617462296e+00, -1.021121311657738e+01, 8.044284312638469e+00, -5.242857895294899e+00, 3.221732148642236e+00, -1.581128310251249e+00, 4.525719851139560e-01, -7.480297824370812e-03, 1.000000000000000e+00, 1.000000000000000e+00, 1.000000000000000e+00, 1.000000000000000e+00, 1.000000000000000e+00, 1.000000000000000e+00, 1.000000000000000e+00, 1.000000000000000e+00, 1.000000000000000e+00}
			{-1.032010195353056e-01, 1.208894973669506e-01, 8.837021885832543e-03, -1.451558641827167e-01, 1.685321486942491e-01, -4.052274564695624e-02, 2.465119026275732e-02, 3.720136347085316e-03, 1.000000000000000e+00, 1.000000000000000e+00, 1.000000000000000e+00, 1.000000000000000e+00, 1.000000000000000e+00, 1.000000000000000e+00, 1.000000000000000e+00, 1.000000000000000e+00, 1.000000000000000e+00}
			{-2.441969413350981e-01, 3.075579657235335e-01, -1.306048828794265e-02, 4.639980601168113e-01, 4.759151854613669e-02, -1.912224571113608e-01, -1.361223777208794e-02, -8.177475812365306e-02, 1.000000000000000e+00, 1.000000000000000e+00, 1.000000000000000e+00, 1.000000000000000e+00, 1.000000000000000e+00, 1.000000000000000e+00, 1.000000000000000e+00, 1.000000000000000e+00, 1.000000000000000e+00}
alpha_moments_count = 1042
alpha_index_basic_count = 105
alpha_index_basic = {{0, 0, 0, 0}, {1, 1, 0, 0}, {1, 0, 1, 0}, {1, 0, 0, 1}, {2, 2, 0, 0}, {2, 1, 1, 0}, {2, 1, 0, 1}, {2, 0, 2, 0}, {2, 0, 1, 1}, {2, 0, 0, 2}, {3, 3, 0, 0}, {3, 2, 1, 0}, {3, 2, 0, 1}, {3, 1, 2, 0}, {3, 1, 1, 1}, {3, 1, 0, 2}, {3, 0, 3, 0}, {3, 0, 2, 1}, {3, 0, 1, 2}, {3, 0, 0, 3}, {4, 4, 0, 0}, {4, 3, 1, 0}, {4, 3, 0, 1}, {4, 2, 2, 0}, {4, 2, 1, 1}, {4, 2, 0, 2}, {4, 1, 3, 0}, {4, 1, 2, 1}, {4, 1, 1, 2}, {4, 1, 0, 3}, {4, 0, 4, 0}, {4, 0, 3, 1}, {4, 0, 2, 2}, {4, 0, 1, 3}, {4, 0, 0, 4}, {5, 0, 0, 0}, {6, 1, 0, 0}, {6, 0, 1, 0}, {6, 0, 0, 1}, {7, 2, 0, 0}, {7, 1, 1, 0}, {7, 1, 0, 1}, {7, 0, 2, 0}, {7, 0, 1, 1}, {7, 0, 0, 2}, {8, 3, 0, 0}, {8, 2, 1, 0}, {8, 2, 0, 1}, {8, 1, 2, 0}, {8, 1, 1, 1}, {8, 1, 0, 2}, {8, 0, 3, 0}, {8, 0, 2, 1}, {8, 0, 1, 2}, {8, 0, 0, 3}, {9, 4, 0, 0}, {9, 3, 1, 0}, {9, 3, 0, 1}, {9, 2, 2, 0}, {9, 2, 1, 1}, {9, 2, 0, 2}, {9, 1, 3, 0}, {9, 1, 2, 1}, {9, 1, 1, 2}, {9, 1, 0, 3}, {9, 0, 4, 0}, {9, 0, 3, 1}, {9, 0, 2, 2}, {9, 0, 1, 3}, {9, 0, 0, 4}, {10, 0, 0, 0}, {11, 1, 0, 0}, {11, 0, 1, 0}, {11, 0, 0, 1}, {12, 2, 0, 0}, {12, 1, 1, 0}, {12, 1, 0, 1}, {12, 0, 2, 0}, {12, 0, 1, 1}, {12, 0, 0, 2}, {13, 3, 0, 0}, {13, 2, 1, 0}, {13, 2, 0, 1}, {13, 1, 2, 0}, {13, 1, 1, 1}, {13, 1, 0, 2}, {13, 0, 3, 0}, {13, 0, 2, 1}, {13, 0, 1, 2}, {13, 0, 0, 3}, {14, 4, 0, 0}, {14, 3, 1, 0}, {14, 3, 0, 1}, {14, 2, 2, 0}, {14, 2, 1, 1}, {14, 2, 0, 2}, {14, 1, 3, 0}, {14, 1, 2, 1}, {14, 1, 1, 2}, {14, 1, 0, 3}, {14, 0, 4, 0}, {14, 0, 3, 1}, {14, 0, 2, 2}, {14, 0, 1, 3}, {14, 0, 0, 4}}
alpha_index_times_count = 3172
alpha_index_times = {{0, 0, 1, 105}, {0, 105, 1, 106}, {35, 105, 1, 107}, {70, 105, 1, 108}, {0, 35, 1, 109}, {35, 109, 1, 110}, {70, 109, 1, 111}, {0, 70, 1, 112}, {70, 112, 1, 113}, {35, 35, 1, 114}, {35, 114, 1, 115}, {70, 114, 1, 116}, {35, 70, 1, 117}, {70, 117, 1, 118}, {70, 70, 1, 119}, {70, 119, 1, 120}, {1, 1, 1, 121}, {2, 2, 1, 121}, {3, 3, 1, 121}, {1, 36, 1, 122}, {2, 37, 1, 122}, {3, 38, 1, 122}, {1, 71, 1, 123}, {2, 72, 1, 123}, {3, 73, 1, 123}, {36, 36, 1, 124}, {37, 37, 1, 124}, {38, 38, 1, 124}, {36, 71, 1, 125}, {37, 72, 1, 125}, {38, 73, 1, 125}, {71, 71, 1, 126}, {72, 72, 1, 126}, {73, 73, 1, 126}, {4, 4, 1, 127}, {5, 5, 2, 127}, {6, 6, 2, 127}, {7, 7, 1, 127}, {8, 8, 2, 127}, {9, 9, 1, 127}, {4, 39, 1, 128}, {5, 40, 2, 128}, {6, 41, 2, 128}, {7, 42, 1, 128}, {8, 43, 2, 128}, {9, 44, 1, 128}, {4, 74, 1, 129}, {5, 75, 2, 129}, {6, 76, 2, 129}, {7, 77, 1, 129}, {8, 78, 2, 129}, {9, 79, 1, 129}, {39, 39, 1, 130}, {40, 40, 2, 130}, {41, 41, 2, 130}, {42, 42, 1, 130}, {43, 43, 2, 130}, {44, 44, 1, 130}, {39, 74, 1, 131}, {40, 75, 2, 131}, {41, 76, 2, 131}, {42, 77, 1, 131}, {43, 78, 2, 131}, {44, 79, 1, 131}, {74, 74, 1, 132}, {75, 75, 2, 132}, {76, 76, 2, 132}, {77, 77, 1, 132}, {78, 78, 2, 132}, {79, 79, 1, 132}, {0, 121, 1, 133}, {0, 122, 1, 134}, {0, 123, 1, 135}, {0, 124, 1, 136}, {0, 125, 1, 137}, {0, 126, 1, 138}, {35, 121, 1, 139}, {35, 122, 1, 140}, {35, 123, 1, 141}, {35, 124, 1, 142}, {35, 125, 1, 143}, {35, 126, 1, 144}, {70, 121, 1, 145}, {70, 122, 1, 146}, {70, 123, 1, 147}, {70, 124, 1, 148}, {70, 125, 1, 149}, {70, 126, 1, 150}, {0, 127, 1, 151}, {0, 128, 1, 152}, {0, 129, 1, 153}, {0, 130, 1, 154}, {0, 131, 1, 155}, {0, 132, 1, 156}, {35, 127, 1, 157}, {35, 128, 1, 158}, {35, 129, 1, 159}, {35, 130, 1, 160}, {35, 131, 1, 161}, {35, 132, 1, 162}, {70, 127, 1, 163}, {70, 128, 1, 164}, {70, 129, 1, 165}, {70, 130, 1, 166}, {70, 131, 1, 167}, {70, 132, 1, 168}, {121, 121, 1, 169}, {121, 122, 1, 170}, {121, 123, 1, 171}, {121, 124, 1, 172}, {121, 125, 1, 173}, {121, 126, 1, 174}, {122, 122, 1, 175}, {122, 123, 1, 176}, {122, 124, 1, 177}, {122, 125, 1, 178}, {122, 126, 1, 179}, {123, 123, 1, 180}, {123, 124, 1, 181}, {123, 125, 1, 182}, {123, 126, 1, 183}, {124, 124, 1, 184}, {124, 125, 1, 185}, {124, 126, 1, 186}, {125, 125, 1, 187}, {125, 126, 1, 188}, {126, 126, 1, 189}, {121, 127, 1, 190}, {121, 128, 1, 191}, {121, 129, 1, 192}, {121, 130, 1, 193}, {121, 131, 1, 194}, {121, 132, 1, 195}, {122, 127, 1, 196}, {122, 128, 1, 197}, {122, 129, 1, 198}, {122, 130, 1, 199}, {122, 131, 1, 200}, {122, 132, 1, 201}, {123, 127, 1, 202}, {123, 128, 1, 203}, {123, 129, 1, 204}, {123, 130, 1, 205}, {123, 131, 1, 206}, {123, 132, 1, 207}, {124, 127, 1, 208}, {124, 128, 1, 209}, {124, 129, 1, 210}, {124, 130, 1, 211}, {124, 131, 1, 212}, {124, 132, 1, 213}, {125, 127, 1, 214}, {125, 128, 1, 215}, {125, 129, 1, 216}, {125, 130, 1, 217}, {125, 131, 1, 218}, {125, 132, 1, 219}, {126, 127, 1, 220}, {126, 128, 1, 221}, {126, 129, 1, 222}, {126, 130, 1, 223}, {126, 131, 1, 224}, {126, 132, 1, 225}, {127, 127, 1, 226}, {127, 128, 1, 227}, {127, 129, 1, 228}, {127, 130, 1, 229}, {127, 131, 1, 230}, {127, 132, 1, 231}, {128, 128, 1, 232}, {128, 129, 1, 233}, {128, 130, 1, 234}, {128, 131, 1, 235}, {128, 132, 1, 236}, {129, 129, 1, 237}, {129, 130, 1, 238}, {129, 131, 1, 239}, {129, 132, 1, 240}, {130, 130, 1, 241}, {130, 131, 1, 242}, {130, 132, 1, 243}, {131, 131, 1, 244}, {131, 132, 1, 245}, {132, 132, 1, 246}, {10, 10, 1, 247}, {11, 11, 3, 247}, {12, 12, 3, 247}, {13, 13, 3, 247}, {14, 14, 6, 247}, {15, 15, 3, 247}, {16, 16, 1, 247}, {17, 17, 3, 247}, {18, 18, 3, 247}, {19, 19, 1, 247}, {10, 45, 1, 248}, {11, 46, 3, 248}, {12, 47, 3, 248}, {13, 48, 3, 248}, {14, 49, 6, 248}, {15, 50, 3, 248}, {16, 51, 1, 248}, {17, 52, 3, 248}, {18, 53, 3, 248}, {19, 54, 1, 248}, {10, 80, 1, 249}, {11, 81, 3, 249}, {12, 82, 3, 249}, {13, 83, 3, 249}, {14, 84, 6, 249}, {15, 85, 3, 249}, {16, 86, 1, 249}, {17, 87, 3, 249}, {18, 88, 3, 249}, {19, 89, 1, 249}, {45, 45, 1, 250}, {46, 46, 3, 250}, {47, 47, 3, 250}, {48, 48, 3, 250}, {49, 49, 6, 250}, {50, 50, 3, 250}, {51, 51, 1, 250}, {52, 52, 3, 250}, {53, 53, 3, 250}, {54, 54, 1, 250}, {45, 80, 1, 251}, {46, 81, 3, 251}, {47, 82, 3, 251}, {48, 83, 3, 251}, {49, 84, 6, 251}, {50, 85, 3, 251}, {51, 86, 1, 251}, {52, 87, 3, 251}, {53, 88, 3, 251}, {54, 89, 1, 251}, {80, 80, 1, 252}, {81, 81, 3, 252}, {82, 82, 3, 252}, {83, 83, 3, 252}, {84, 84, 6, 252}, {85, 85, 3, 252}, {86, 86, 1, 252}, {87, 87, 3, 252}, {88, 88, 3, 252}, {89, 89, 1, 252}, {1, 4, 1, 253}, {1, 5, 1, 254}, {1, 6, 1, 255}, {1, 7, 1, 256}, {1, 8, 1, 257}, {1, 9, 1, 258}, {2, 4, 1, 259}, {2, 5, 1, 260}, {2, 6, 1, 261}, {2, 7, 1, 262}, {2, 8, 1, 263}, {2, 9, 1, 264}, {3, 4, 1, 265}, {3, 5, 1, 266}, {3, 6, 1, 267}, {3, 7, 1, 268}, {3, 8, 1, 269}, {3, 9, 1, 270}, {10, 253, 1, 271}, {11, 254, 2, 271}, {12, 255, 2, 271}, {13, 256, 1, 271}, {14, 257, 2, 271}, {15, 258, 1, 271}, {11, 259, 1, 271}, {13, 260, 2, 271}, {14, 261, 2, 271}, {16, 262, 1, 271}, {17, 263, 2, 271}, {18, 264, 1, 271}, {12, 265, 1, 271}, {14, 266, 2, 271}, {15, 267, 2, 271}, {17, 268, 1, 271}, {18, 269, 2, 271}, {19, 270, 1, 271}, {45, 253, 1, 272}, {46, 254, 2, 272}, {47, 255, 2, 272}, {48, 256, 1, 272}, {49, 257, 2, 272}, {50, 258, 1, 272}, {46, 259, 1, 272}, {48, 260, 2, 272}, {49, 261, 2, 272}, {51, 262, 1, 272}, {52, 263, 2, 272}, {53, 264, 1, 272}, {47, 265, 1, 272}, {49, 266, 2, 272}, {50, 267, 2, 272}, {52, 268, 1, 272}, {53, 269, 2, 272}, {54, 270, 1, 272}, {80, 253, 1, 273}, {81, 254, 2, 273}, {82, 255, 2, 273}, {83, 256, 1, 273}, {84, 257, 2, 273}, {85, 258, 1, 273}, {81, 259, 1, 273}, {83, 260, 2, 273}, {84, 261, 2, 273}, {86, 262, 1, 273}, {87, 263, 2, 273}, {88, 264, 1, 273}, {82, 265, 1, 273}, {84, 266, 2, 273}, {85, 267, 2, 273}, {87, 268, 1, 273}, {88, 269, 2, 273}, {89, 270, 1, 273}, {36, 39, 1, 274}, {36, 40, 1, 275}, {36, 41, 1, 276}, {36, 42, 1, 277}, {36, 43, 1, 278}, {36, 44, 1, 279}, {37, 39, 1, 280}, {37, 40, 1, 281}, {37, 41, 1, 282}, {37, 42, 1, 283}, {37, 43, 1, 284}, {37, 44, 1, 285}, {38, 39, 1, 286}, {38, 40, 1, 287}, {38, 41, 1, 288}, {38, 42, 1, 289}, {38, 43, 1, 290}, {38, 44, 1, 291}, {10, 274, 1, 292}, {11, 275, 2, 292}, {12, 276, 2, 292}, {13, 277, 1, 292}, {14, 278, 2, 292}, {15, 279, 1, 292}, {11, 280, 1, 292}, {13, 281, 2, 292}, {14, 282, 2, 292}, {16, 283, 1, 292}, {17, 284, 2, 292}, {18, 285, 1, 292}, {12, 286, 1, 292}, {14, 287, 2, 292}, {15, 288, 2, 292}, {17, 289, 1, 292}, {18, 290, 2, 292}, {19, 291, 1, 292}, {45, 274, 1, 293}, {46, 275, 2, 293}, {47, 276, 2, 293}, {48, 277, 1, 293}, {49, 278, 2, 293}, {50, 279, 1, 293}, {46, 280, 1, 293}, {48, 281, 2, 293}, {49, 282, 2, 293}, {51, 283, 1, 293}, {52, 284, 2, 293}, {53, 285, 1, 293}, {47, 286, 1, 293}, {49, 287, 2, 293}, {50, 288, 2, 293}, {52, 289, 1, 293}, {53, 290, 2, 293}, {54, 291, 1, 293}, {80, 274, 1, 294}, {81, 275, 2, 294}, {82, 276, 2, 294}, {83, 277, 1, 294}, {84, 278, 2, 294}, {85, 279, 1, 294}, {81, 280, 1, 294}, {83, 281, 2, 294}, {84, 282, 2, 294}, {86, 283, 1, 294}, {87, 284, 2, 294}, {88, 285, 1, 294}, {82, 286, 1, 294}, {84, 287, 2, 294}, {85, 288, 2, 294}, {87, 289, 1, 294}, {88, 290, 2, 294}, {89, 291, 1, 294}, {71, 74, 1, 295}, {71, 75, 1, 296}, {71, 76, 1, 297}, {71, 77, 1, 298}, {71, 78, 1, 299}, {71, 79, 1, 300}, {72, 74, 1, 301}, {72, 75, 1, 302}, {72, 76, 1, 303}, {72, 77, 1, 304}, {72, 78, 1, 305}, {72, 79, 1, 306}, {73, 74, 1, 307}, {73, 75, 1, 308}, {73, 76, 1, 309}, {73, 77, 1, 310}, {73, 78, 1, 311}, {73, 79, 1, 312}, {10, 295, 1, 313}, {11, 296, 2, 313}, {12, 297, 2, 313}, {13, 298, 1, 313}, {14, 299, 2, 313}, {15, 300, 1, 313}, {11, 301, 1, 313}, {13, 302, 2, 313}, {14, 303, 2, 313}, {16, 304, 1, 313}, {17, 305, 2, 313}, {18, 306, 1, 313}, {12, 307, 1, 313}, {14, 308, 2, 313}, {15, 309, 2, 313}, {17, 310, 1, 313}, {18, 311, 2, 313}, {19, 312, 1, 313}, {45, 295, 1, 314}, {46, 296, 2, 314}, {47, 297, 2, 314}, {48, 298, 1, 314}, {49, 299, 2, 314}, {50, 300, 1, 314}, {46, 301, 1, 314}, {48, 302, 2, 314}, {49, 303, 2, 314}, {51, 304, 1, 314}, {52, 305, 2, 314}, {53, 306, 1, 314}, {47, 307, 1, 314}, {49, 308, 2, 314}, {50, 309, 2, 314}, {52, 310, 1, 314}, {53, 311, 2, 314}, {54, 312, 1, 314}, {80, 295, 1, 315}, {81, 296, 2, 315}, {82, 297, 2, 315}, {83, 298, 1, 315}, {84, 299, 2, 315}, {85, 300, 1, 315}, {81, 301, 1, 315}, {83, 302, 2, 315}, {84, 303, 2, 315}, {86, 304, 1, 315}, {87, 305, 2, 315}, {88, 306, 1, 315}, {82, 307, 1, 315}, {84, 308, 2, 315}, {85, 309, 2, 315}, {87, 310, 1, 315}, {88, 311, 2, 315}, {89, 312, 1, 315}, {253, 253, 1, 316}, {254, 254, 2, 316}, {255, 255, 2, 316}, {256, 256, 1, 316}, {257, 257, 2, 316}, {258, 258, 1, 316}, {259, 259, 1, 316}, {260, 260, 2, 316}, {261, 261, 2, 316}, {262, 262, 1, 316}, {263, 263, 2, 316}, {264, 264, 1, 316}, {265, 265, 1, 316}, {266, 266, 2, 316}, {267, 267, 2, 316}, {268, 268, 1, 316}, {269, 269, 2, 316}, {270, 270, 1, 316}, {253, 274, 1, 317}, {254, 275, 2, 317}, {255, 276, 2, 317}, {256, 277, 1, 317}, {257, 278, 2, 317}, {258, 279, 1, 317}, {259, 280, 1, 317}, {260, 281, 2, 317}, {261, 282, 2, 317}, {262, 283, 1, 317}, {263, 284, 2, 317}, {264, 285, 1, 317}, {265, 286, 1, 317}, {266, 287, 2, 317}, {267, 288, 2, 317}, {268, 289, 1, 317}, {269, 290, 2, 317}, {270, 291, 1, 317}, {253, 295, 1, 318}, {254, 296, 2, 318}, {255, 297, 2, 318}, {256, 298, 1, 318}, {257, 299, 2, 318}, {258, 300, 1, 318}, {259, 301, 1, 318}, {260, 302, 2, 318}, {261, 303, 2, 318}, {262, 304, 1, 318}, {263, 305, 2, 318}, {264, 306, 1, 318}, {265, 307, 1, 318}, {266, 308, 2, 318}, {267, 309, 2, 318}, {268, 310, 1, 318}, {269, 311, 2, 318}, {270, 312, 1, 318}, {274, 274, 1, 319}, {275, 275, 2, 319}, {276, 276, 2, 319}, {277, 277, 1, 319}, {278, 278, 2, 319}, {279, 279, 1, 319}, {280, 280, 1, 319}, {281, 281, 2, 319}, {282, 282, 2, 319}, {283, 283, 1, 319}, {284, 284, 2, 319}, {285, 285, 1, 319}, {286, 286, 1, 319}, {287, 287, 2, 319}, {288, 288, 2, 319}, {289, 289, 1, 319}, {290, 290, 2, 319}, {291, 291, 1, 319}, {274, 295, 1, 320}, {275, 296, 2, 320}, {276, 297, 2, 320}, {277, 298, 1, 320}, {278, 299, 2, 320}, {279, 300, 1, 320}, {280, 301, 1, 320}, {281, 302, 2, 320}, {282, 303, 2, 320}, {283, 304, 1, 320}, {284, 305, 2, 320}, {285, 306, 1, 320}, {286, 307, 1, 320}, {287, 308, 2, 320}, {288, 309, 2, 320}, {289, 310, 1, 320}, {290, 311, 2, 320}, {291, 312, 1, 320}, {295, 295, 1, 321}, {296, 296, 2, 321}, {297, 297, 2, 321}, {298, 298, 1, 321}, {299, 299, 2, 321}, {300, 300, 1, 321}, {301, 301, 1, 321}, {302, 302, 2, 321}, {303, 303, 2, 321}, {304, 304, 1, 321}, {305, 305, 2, 321}, {306, 306, 1, 321}, {307, 307, 1, 321}, {308, 308, 2, 321}, {309, 309, 2, 321}, {310, 310, 1, 321}, {311, 311, 2, 321}, {312, 312, 1, 321}, {10, 10, 1, 322}, {11, 11, 2, 322}, {12, 12, 2, 322}, {13, 13, 1, 322}, {14, 14, 2, 322}, {15, 15, 1, 322}, {10, 11, 1, 323}, {11, 13, 2, 323}, {12, 14, 2, 323}, {13, 16, 1, 323}, {14, 17, 2, 323}, {15, 18, 1, 323}, {10, 12, 1, 324}, {11, 14, 2, 324}, {12, 15, 2, 324}, {13, 17, 1, 324}, {14, 18, 2, 324}, {15, 19, 1, 324}, {11, 11, 1, 325}, {13, 13, 2, 325}, {14, 14, 2, 325}, {16, 16, 1, 325}, {17, 17, 2, 325}, {18, 18, 1, 325}, {11, 12, 1, 326}, {13, 14, 2, 326}, {14, 15, 2, 326}, {16, 17, 1, 326}, {17, 18, 2, 326}, {18, 19, 1, 326}, {12, 12, 1, 327}, {14, 14, 2, 327}, {15, 15, 2, 327}, {17, 17, 1, 327}, {18, 18, 2, 327}, {19, 19, 1, 327}, {4, 322, 1, 328}, {5, 323, 2, 328}, {6, 324, 2, 328}, {7, 325, 1, 328}, {8, 326, 2, 328}, {9, 327, 1, 328}, {39, 322, 1, 329}, {40, 323, 2, 329}, {41, 324, 2, 329}, {42, 325, 1, 329}, {43, 326, 2, 329}, {44, 327, 1, 329}, {74, 322, 1, 330}, {75, 323, 2, 330}, {76, 324, 2, 330}, {77, 325, 1, 330}, {78, 326, 2, 330}, {79, 327, 1, 330}, {45, 45, 1, 331}, {46, 46, 2, 331}, {47, 47, 2, 331}, {48, 48, 1, 331}, {49, 49, 2, 331}, {50, 50, 1, 331}, {45, 46, 1, 332}, {46, 48, 2, 332}, {47, 49, 2, 332}, {48, 51, 1, 332}, {49, 52, 2, 332}, {50, 53, 1, 332}, {45, 47, 1, 333}, {46, 49, 2, 333}, {47, 50, 2, 333}, {48, 52, 1, 333}, {49, 53, 2, 333}, {50, 54, 1, 333}, {46, 46, 1, 334}, {48, 48, 2, 334}, {49, 49, 2, 334}, {51, 51, 1, 334}, {52, 52, 2, 334}, {53, 53, 1, 334}, {46, 47, 1, 335}, {48, 49, 2, 335}, {49, 50, 2, 335}, {51, 52, 1, 335}, {52, 53, 2, 335}, {53, 54, 1, 335}, {47, 47, 1, 336}, {49, 49, 2, 336}, {50, 50, 2, 336}, {52, 52, 1, 336}, {53, 53, 2, 336}, {54, 54, 1, 336}, {4, 331, 1, 337}, {5, 332, 2, 337}, {6, 333, 2, 337}, {7, 334, 1, 337}, {8, 335, 2, 337}, {9, 336, 1, 337}, {39, 331, 1, 338}, {40, 332, 2, 338}, {41, 333, 2, 338}, {42, 334, 1, 338}, {43, 335, 2, 338}, {44, 336, 1, 338}, {74, 331, 1, 339}, {75, 332, 2, 339}, {76, 333, 2, 339}, {77, 334, 1, 339}, {78, 335, 2, 339}, {79, 336, 1, 339}, {80, 80, 1, 340}, {81, 81, 2, 340}, {82, 82, 2, 340}, {83, 83, 1, 340}, {84, 84, 2, 340}, {85, 85, 1, 340}, {80, 81, 1, 341}, {81, 83, 2, 341}, {82, 84, 2, 341}, {83, 86, 1, 341}, {84, 87, 2, 341}, {85, 88, 1, 341}, {80, 82, 1, 342}, {81, 84, 2, 342}, {82, 85, 2, 342}, {83, 87, 1, 342}, {84, 88, 2, 342}, {85, 89, 1, 342}, {81, 81, 1, 343}, {83, 83, 2, 343}, {84, 84, 2, 343}, {86, 86, 1, 343}, {87, 87, 2, 343}, {88, 88, 1, 343}, {81, 82, 1, 344}, {83, 84, 2, 344}, {84, 85, 2, 344}, {86, 87, 1, 344}, {87, 88, 2, 344}, {88, 89, 1, 344}, {82, 82, 1, 345}, {84, 84, 2, 345}, {85, 85, 2, 345}, {87, 87, 1, 345}, {88, 88, 2, 345}, {89, 89, 1, 345}, {4, 340, 1, 346}, {5, 341, 2, 346}, {6, 342, 2, 346}, {7, 343, 1, 346}, {8, 344, 2, 346}, {9, 345, 1, 346}, {39, 340, 1, 347}, {40, 341, 2, 347}, {41, 342, 2, 347}, {42, 343, 1, 347}, {43, 344, 2, 347}, {44, 345, 1, 347}, {74, 340, 1, 348}, {75, 341, 2, 348}, {76, 342, 2, 348}, {77, 343, 1, 348}, {78, 344, 2, 348}, {79, 345, 1, 348}, {322, 322, 1, 349}, {323, 323, 2, 349}, {324, 324, 2, 349}, {325, 325, 1, 349}, {326, 326, 2, 349}, {327, 327, 1, 349}, {322, 331, 1, 350}, {323, 332, 2, 350}, {324, 333, 2, 350}, {325, 334, 1, 350}, {326, 335, 2, 350}, {327, 336, 1, 350}, {322, 340, 1, 351}, {323, 341, 2, 351}, {324, 342, 2, 351}, {325, 343, 1, 351}, {326, 344, 2, 351}, {327, 345, 1, 351}, {331, 331, 1, 352}, {332, 332, 2, 352}, {333, 333, 2, 352}, {334, 334, 1, 352}, {335, 335, 2, 352}, {336, 336, 1, 352}, {331, 340, 1, 353}, {332, 341, 2, 353}, {333, 342, 2, 353}, {334, 343, 1, 353}, {335, 344, 2, 353}, {336, 345, 1, 353}, {340, 340, 1, 354}, {341, 341, 2, 354}, {342, 342, 2, 354}, {343, 343, 1, 354}, {344, 344, 2, 354}, {345, 345, 1, 354}, {121, 247, 1, 355}, {121, 248, 1, 356}, {121, 249, 1, 357}, {121, 250, 1, 358}, {121, 251, 1, 359}, {121, 252, 1, 360}, {122, 247, 1, 361}, {122, 248, 1, 362}, {122, 249, 1, 363}, {122, 250, 1, 364}, {122, 251, 1, 365}, {122, 252, 1, 366}, {123, 247, 1, 367}, {123, 248, 1, 368}, {123, 249, 1, 369}, {123, 250, 1, 370}, {123, 251, 1, 371}, {123, 252, 1, 372}, {124, 247, 1, 373}, {124, 248, 1, 374}, {124, 249, 1, 375}, {124, 250, 1, 376}, {124, 251, 1, 377}, {124, 252, 1, 378}, {125, 247, 1, 379}, {125, 248, 1, 380}, {125, 249, 1, 381}, {125, 250, 1, 382}, {125, 251, 1, 383}, {125, 252, 1, 384}, {126, 247, 1, 385}, {126, 248, 1, 386}, {126, 249, 1, 387}, {126, 250, 1, 388}, {126, 251, 1, 389}, {126, 252, 1, 390}, {127, 247, 1, 391}, {127, 248, 1, 392}, {127, 249, 1, 393}, {127, 250, 1, 394}, {127, 251, 1, 395}, {127, 252, 1, 396}, {128, 247, 1, 397}, {128, 248, 1, 398}, {128, 249, 1, 399}, {128, 250, 1, 400}, {128, 251, 1, 401}, {128, 252, 1, 402}, {129, 247, 1, 403}, {129, 248, 1, 404}, {129, 249, 1, 405}, {129, 250, 1, 406}, {129, 251, 1, 407}, {129, 252, 1, 408}, {130, 247, 1, 409}, {130, 248, 1, 410}, {130, 249, 1, 411}, {130, 250, 1, 412}, {130, 251, 1, 413}, {130, 252, 1, 414}, {131, 247, 1, 415}, {131, 248, 1, 416}, {131, 249, 1, 417}, {131, 250, 1, 418}, {131, 251, 1, 419}, {131, 252, 1, 420}, {132, 247, 1, 421}, {132, 248, 1, 422}, {132, 249, 1, 423}, {132, 250, 1, 424}, {132, 251, 1, 425}, {132, 252, 1, 426}, {247, 247, 1, 427}, {247, 248, 1, 428}, {247, 249, 1, 429}, {247, 250, 1, 430}, {247, 251, 1, 431}, {247, 252, 1, 432}, {248, 248, 1, 433}, {248, 249, 1, 434}, {248, 250, 1, 435}, {248, 251, 1, 436}, {248, 252, 1, 437}, {249, 249, 1, 438}, {249, 250, 1, 439}, {249, 251, 1, 440}, {249, 252, 1, 441}, {250, 250, 1, 442}, {250, 251, 1, 443}, {250, 252, 1, 444}, {251, 251, 1, 445}, {251, 252, 1, 446}, {252, 252, 1, 447}, {0, 247, 1, 448}, {0, 248, 1, 449}, {0, 249, 1, 450}, {0, 250, 1, 451}, {0, 251, 1, 452}, {0, 252, 1, 453}, {35, 247, 1, 454}, {35, 248, 1, 455}, {35, 249, 1, 456}, {35, 250, 1, 457}, {35, 251, 1, 458}, {35, 252, 1, 459}, {70, 247, 1, 460}, {70, 248, 1, 461}, {70, 249, 1, 462}, {70, 250, 1, 463}, {70, 251, 1, 464}, {70, 252, 1, 465}, {1, 1, 1, 466}, {1, 2, 1, 467}, {1, 3, 1, 468}, {2, 2, 1, 469}, {2, 3, 1, 470}, {3, 3, 1, 471}, {4, 466, 1, 472}, {5, 467, 2, 472}, {6, 468, 2, 472}, {7, 469, 1, 472}, {8, 470, 2, 472}, {9, 471, 1, 472}, {39, 466, 1, 473}, {40, 467, 2, 473}, {41, 468, 2, 473}, {42, 469, 1, 473}, {43, 470, 2, 473}, {44, 471, 1, 473}, {74, 466, 1, 474}, {75, 467, 2, 474}, {76, 468, 2, 474}, {77, 469, 1, 474}, {78, 470, 2, 474}, {79, 471, 1, 474}, {36, 36, 1, 475}, {36, 37, 1, 476}, {36, 38, 1, 477}, {37, 37, 1, 478}, {37, 38, 1, 479}, {38, 38, 1, 480}, {4, 475, 1, 481}, {5, 476, 2, 481}, {6, 477, 2, 481}, {7, 478, 1, 481}, {8, 479, 2, 481}, {9, 480, 1, 481}, {39, 475, 1, 482}, {40, 476, 2, 482}, {41, 477, 2, 482}, {42, 478, 1, 482}, {43, 479, 2, 482}, {44, 480, 1, 482}, {74, 475, 1, 483}, {75, 476, 2, 483}, {76, 477, 2, 483}, {77, 478, 1, 483}, {78, 479, 2, 483}, {79, 480, 1, 483}, {71, 71, 1, 484}, {71, 72, 1, 485}, {71, 73, 1, 486}, {72, 72, 1, 487}, {72, 73, 1, 488}, {73, 73, 1, 489}, {4, 484, 1, 490}, {5, 485, 2, 490}, {6, 486, 2, 490}, {7, 487, 1, 490}, {8, 488, 2, 490}, {9, 489, 1, 490}, {39, 484, 1, 491}, {40, 485, 2, 491}, {41, 486, 2, 491}, {42, 487, 1, 491}, {43, 488, 2, 491}, {44, 489, 1, 491}, {74, 484, 1, 492}, {75, 485, 2, 492}, {76, 486, 2, 492}, {77, 487, 1, 492}, {78, 488, 2, 492}, {79, 489, 1, 492}, {466, 466, 1, 493}, {467, 467, 2, 493}, {468, 468, 2, 493}, {469, 469, 1, 493}, {470, 470, 2, 493}, {471, 471, 1, 493}, {466, 475, 1, 494}, {467, 476, 2, 494}, {468, 477, 2, 494}, {469, 478, 1, 494}, {470, 479, 2, 494}, {471, 480, 1, 494}, {466, 484, 1, 495}, {467, 485, 2, 495}, {468, 486, 2, 495}, {469, 487, 1, 495}, {470, 488, 2, 495}, {471, 489, 1, 495}, {475, 475, 1, 496}, {476, 476, 2, 496}, {477, 477, 2, 496}, {478, 478, 1, 496}, {479, 479, 2, 496}, {480, 480, 1, 496}, {475, 484, 1, 497}, {476, 485, 2, 497}, {477, 486, 2, 497}, {478, 487, 1, 497}, {479, 488, 2, 497}, {480, 489, 1, 497}, {484, 484, 1, 498}, {485, 485, 2, 498}, {486, 486, 2, 498}, {487, 487, 1, 498}, {488, 488, 2, 498}, {489, 489, 1, 498}, {4, 4, 1, 499}, {5, 5, 1, 499}, {6, 6, 1, 499}, {4, 5, 1, 500}, {5, 7, 1, 500}, {6, 8, 1, 500}, {4, 6, 1, 501}, {5, 8, 1, 501}, {6, 9, 1, 501}, {5, 5, 1, 502}, {7, 7, 1, 502}, {8, 8, 1, 502}, {5, 6, 1, 503}, {7, 8, 1, 503}, {8, 9, 1, 503}, {6, 6, 1, 504}, {8, 8, 1, 504}, {9, 9, 1, 504}, {4, 499, 1, 505}, {5, 500, 2, 505}, {6, 501, 2, 505}, {7, 502, 1, 505}, {8, 503, 2, 505}, {9, 504, 1, 505}, {39, 499, 1, 506}, {40, 500, 2, 506}, {41, 501, 2, 506}, {42, 502, 1, 506}, {43, 503, 2, 506}, {44, 504, 1, 506}, {74, 499, 1, 507}, {75, 500, 2, 507}, {76, 501, 2, 507}, {77, 502, 1, 507}, {78, 503, 2, 507}, {79, 504, 1, 507}, {39, 39, 1, 508}, {40, 40, 1, 508}, {41, 41, 1, 508}, {39, 40, 1, 509}, {40, 42, 1, 509}, {41, 43, 1, 509}, {39, 41, 1, 510}, {40, 43, 1, 510}, {41, 44, 1, 510}, {40, 40, 1, 511}, {42, 42, 1, 511}, {43, 43, 1, 511}, {40, 41, 1, 512}, {42, 43, 1, 512}, {43, 44, 1, 512}, {41, 41, 1, 513}, {43, 43, 1, 513}, {44, 44, 1, 513}, {4, 508, 1, 514}, {5, 509, 2, 514}, {6, 510, 2, 514}, {7, 511, 1, 514}, {8, 512, 2, 514}, {9, 513, 1, 514}, {39, 508, 1, 515}, {40, 509, 2, 515}, {41, 510, 2, 515}, {42, 511, 1, 515}, {43, 512, 2, 515}, {44, 513, 1, 515}, {74, 508, 1, 516}, {75, 509, 2, 516}, {76, 510, 2, 516}, {77, 511, 1, 516}, {78, 512, 2, 516}, {79, 513, 1, 516}, {74, 74, 1, 517}, {75, 75, 1, 517}, {76, 76, 1, 517}, {74, 75, 1, 518}, {75, 77, 1, 518}, {76, 78, 1, 518}, {74, 76, 1, 519}, {75, 78, 1, 519}, {76, 79, 1, 519}, {75, 75, 1, 520}, {77, 77, 1, 520}, {78, 78, 1, 520}, {75, 76, 1, 521}, {77, 78, 1, 521}, {78, 79, 1, 521}, {76, 76, 1, 522}, {78, 78, 1, 522}, {79, 79, 1, 522}, {4, 517, 1, 523}, {5, 518, 2, 523}, {6, 519, 2, 523}, {7, 520, 1, 523}, {8, 521, 2, 523}, {9, 522, 1, 523}, {39, 517, 1, 524}, {40, 518, 2, 524}, {41, 519, 2, 524}, {42, 520, 1, 524}, {43, 521, 2, 524}, {44, 522, 1, 524}, {74, 517, 1, 525}, {75, 518, 2, 525}, {76, 519, 2, 525}, {77, 520, 1, 525}, {78, 521, 2, 525}, {79, 522, 1, 525}, {499, 499, 1, 526}, {500, 500, 2, 526}, {501, 501, 2, 526}, {502, 502, 1, 526}, {503, 503, 2, 526}, {504, 504, 1, 526}, {499, 508, 1, 527}, {500, 509, 2, 527}, {501, 510, 2, 527}, {502, 511, 1, 527}, {503, 512, 2, 527}, {504, 513, 1, 527}, {499, 517, 1, 528}, {500, 518, 2, 528}, {501, 519, 2, 528}, {502, 520, 1, 528}, {503, 521, 2, 528}, {504, 522, 1, 528}, {508, 508, 1, 529}, {509, 509, 2, 529}, {510, 510, 2, 529}, {511, 511, 1, 529}, {512, 512, 2, 529}, {513, 513, 1, 529}, {508, 517, 1, 530}, {509, 518, 2, 530}, {510, 519, 2, 530}, {511, 520, 1, 530}, {512, 521, 2, 530}, {513, 522, 1, 530}, {517, 517, 1, 531}, {518, 518, 2, 531}, {519, 519, 2, 531}, {520, 520, 1, 531}, {521, 521, 2, 531}, {522, 522, 1, 531}, {20, 20, 1, 532}, {21, 21, 4, 532}, {22, 22, 4, 532}, {23, 23, 6, 532}, {24, 24, 12, 532}, {25, 25, 6, 532}, {26, 26, 4, 532}, {27, 27, 12, 532}, {28, 28, 12, 532}, {29, 29, 4, 532}, {30, 30, 1, 532}, {31, 31, 4, 532}, {32, 32, 6, 532}, {33, 33, 4, 532}, {34, 34, 1, 532}, {20, 55, 1, 533}, {21, 56, 4, 533}, {22, 57, 4, 533}, {23, 58, 6, 533}, {24, 59, 12, 533}, {25, 60, 6, 533}, {26, 61, 4, 533}, {27, 62, 12, 533}, {28, 63, 12, 533}, {29, 64, 4, 533}, {30, 65, 1, 533}, {31, 66, 4, 533}, {32, 67, 6, 533}, {33, 68, 4, 533}, {34, 69, 1, 533}, {20, 90, 1, 534}, {21, 91, 4, 534}, {22, 92, 4, 534}, {23, 93, 6, 534}, {24, 94, 12, 534}, {25, 95, 6, 534}, {26, 96, 4, 534}, {27, 97, 12, 534}, {28, 98, 12, 534}, {29, 99, 4, 534}, {30, 100, 1, 534}, {31, 101, 4, 534}, {32, 102, 6, 534}, {33, 103, 4, 534}, {34, 104, 1, 534}, {55, 55, 1, 535}, {56, 56, 4, 535}, {57, 57, 4, 535}, {58, 58, 6, 535}, {59, 59, 12, 535}, {60, 60, 6, 535}, {61, 61, 4, 535}, {62, 62, 12, 535}, {63, 63, 12, 535}, {64, 64, 4, 535}, {65, 65, 1, 535}, {66, 66, 4, 535}, {67, 67, 6, 535}, {68, 68, 4, 535}, {69, 69, 1, 535}, {55, 90, 1, 536}, {56, 91, 4, 536}, {57, 92, 4, 536}, {58, 93, 6, 536}, {59, 94, 12, 536}, {60, 95, 6, 536}, {61, 96, 4, 536}, {62, 97, 12, 536}, {63, 98, 12, 536}, {64, 99, 4, 536}, {65, 100, 1, 536}, {66, 101, 4, 536}, {67, 102, 6, 536}, {68, 103, 4, 536}, {69, 104, 1, 536}, {90, 90, 1, 537}, {91, 91, 4, 537}, {92, 92, 4, 537}, {93, 93, 6, 537}, {94, 94, 12, 537}, {95, 95, 6, 537}, {96, 96, 4, 537}, {97, 97, 12, 537}, {98, 98, 12, 537}, {99, 99, 4, 537}, {100, 100, 1, 537}, {101, 101, 4, 537}, {102, 102, 6, 537}, {103, 103, 4, 537}, {104, 104, 1, 537}, {0, 532, 1, 538}, {0, 533, 1, 539}, {0, 534, 1, 540}, {0, 535, 1, 541}, {0, 536, 1, 542}, {0, 537, 1, 543}, {35, 532, 1, 544}, {35, 533, 1, 545}, {35, 534, 1, 546}, {35, 535, 1, 547}, {35, 536, 1, 548}, {35, 537, 1, 549}, {70, 532, 1, 550}, {70, 533, 1, 551}, {70, 534, 1, 552}, {70, 535, 1, 553}, {70, 536, 1, 554}, {70, 537, 1, 555}, {4, 4, 1, 556}, {4, 5, 1, 557}, {4, 6, 1, 558}, {4, 7, 1, 559}, {4, 8, 1, 560}, {4, 9, 1, 561}, {5, 5, 1, 562}, {5, 6, 1, 563}, {5, 7, 1, 564}, {5, 8, 1, 565}, {5, 9, 1, 566}, {6, 6, 1, 567}, {6, 7, 1, 568}, {6, 8, 1, 569}, {6, 9, 1, 570}, {7, 7, 1, 571}, {7, 8, 1, 572}, {7, 9, 1, 573}, {8, 8, 1, 574}, {8, 9, 1, 575}, {9, 9, 1, 576}, {20, 556, 1, 577}, {21, 557, 4, 577}, {22, 558, 4, 577}, {23, 559, 2, 577}, {24, 560, 4, 577}, {25, 561, 2, 577}, {23, 562, 4, 577}, {24, 563, 8, 577}, {26, 564, 4, 577}, {27, 565, 8, 577}, {28, 566, 4, 577}, {25, 567, 4, 577}, {27, 568, 4, 577}, {28, 569, 8, 577}, {29, 570, 4, 577}, {30, 571, 1, 577}, {31, 572, 4, 577}, {32, 573, 2, 577}, {32, 574, 4, 577}, {33, 575, 4, 577}, {34, 576, 1, 577}, {55, 556, 1, 578}, {56, 557, 4, 578}, {57, 558, 4, 578}, {58, 559, 2, 578}, {59, 560, 4, 578}, {60, 561, 2, 578}, {58, 562, 4, 578}, {59, 563, 8, 578}, {61, 564, 4, 578}, {62, 565, 8, 578}, {63, 566, 4, 578}, {60, 567, 4, 578}, {62, 568, 4, 578}, {63, 569, 8, 578}, {64, 570, 4, 578}, {65, 571, 1, 578}, {66, 572, 4, 578}, {67, 573, 2, 578}, {67, 574, 4, 578}, {68, 575, 4, 578}, {69, 576, 1, 578}, {90, 556, 1, 579}, {91, 557, 4, 579}, {92, 558, 4, 579}, {93, 559, 2, 579}, {94, 560, 4, 579}, {95, 561, 2, 579}, {93, 562, 4, 579}, {94, 563, 8, 579}, {96, 564, 4, 579}, {97, 565, 8, 579}, {98, 566, 4, 579}, {95, 567, 4, 579}, {97, 568, 4, 579}, {98, 569, 8, 579}, {99, 570, 4, 579}, {100, 571, 1, 579}, {101, 572, 4, 579}, {102, 573, 2, 579}, {102, 574, 4, 579}, {103, 575, 4, 579}, {104, 576, 1, 579}, {39, 39, 1, 580}, {39, 40, 1, 581}, {39, 41, 1, 582}, {39, 42, 1, 583}, {39, 43, 1, 584}, {39, 44, 1, 585}, {40, 40, 1, 586}, {40, 41, 1, 587}, {40, 42, 1, 588}, {40, 43, 1, 589}, {40, 44, 1, 590}, {41, 41, 1, 591}, {41, 42, 1, 592}, {41, 43, 1, 593}, {41, 44, 1, 594}, {42, 42, 1, 595}, {42, 43, 1, 596}, {42, 44, 1, 597}, {43, 43, 1, 598}, {43, 44, 1, 599}, {44, 44, 1, 600}, {20, 580, 1, 601}, {21, 581, 4, 601}, {22, 582, 4, 601}, {23, 583, 2, 601}, {24, 584, 4, 601}, {25, 585, 2, 601}, {23, 586, 4, 601}, {24, 587, 8, 601}, {26, 588, 4, 601}, {27, 589, 8, 601}, {28, 590, 4, 601}, {25, 591, 4, 601}, {27, 592, 4, 601}, {28, 593, 8, 601}, {29, 594, 4, 601}, {30, 595, 1, 601}, {31, 596, 4, 601}, {32, 597, 2, 601}, {32, 598, 4, 601}, {33, 599, 4, 601}, {34, 600, 1, 601}, {55, 580, 1, 602}, {56, 581, 4, 602}, {57, 582, 4, 602}, {58, 583, 2, 602}, {59, 584, 4, 602}, {60, 585, 2, 602}, {58, 586, 4, 602}, {59, 587, 8, 602}, {61, 588, 4, 602}, {62, 589, 8, 602}, {63, 590, 4, 602}, {60, 591, 4, 602}, {62, 592, 4, 602}, {63, 593, 8, 602}, {64, 594, 4, 602}, {65, 595, 1, 602}, {66, 596, 4, 602}, {67, 597, 2, 602}, {67, 598, 4, 602}, {68, 599, 4, 602}, {69, 600, 1, 602}, {90, 580, 1, 603}, {91, 581, 4, 603}, {92, 582, 4, 603}, {93, 583, 2, 603}, {94, 584, 4, 603}, {95, 585, 2, 603}, {93, 586, 4, 603}, {94, 587, 8, 603}, {96, 588, 4, 603}, {97, 589, 8, 603}, {98, 590, 4, 603}, {95, 591, 4, 603}, {97, 592, 4, 603}, {98, 593, 8, 603}, {99, 594, 4, 603}, {100, 595, 1, 603}, {101, 596, 4, 603}, {102, 597, 2, 603}, {102, 598, 4, 603}, {103, 599, 4, 603}, {104, 600, 1, 603}, {74, 74, 1, 604}, {74, 75, 1, 605}, {74, 76, 1, 606}, {74, 77, 1, 607}, {74, 78, 1, 608}, {74, 79, 1, 609}, {75, 75, 1, 610}, {75, 76, 1, 611}, {75, 77, 1, 612}, {75, 78, 1, 613}, {75, 79, 1, 614}, {76, 76, 1, 615}, {76, 77, 1, 616}, {76, 78, 1, 617}, {76, 79, 1, 618}, {77, 77, 1, 619}, {77, 78, 1, 620}, {77, 79, 1, 621}, {78, 78, 1, 622}, {78, 79, 1, 623}, {79, 79, 1, 624}, {20, 604, 1, 625}, {21, 605, 4, 625}, {22, 606, 4, 625}, {23, 607, 2, 625}, {24, 608, 4, 625}, {25, 609, 2, 625}, {23, 610, 4, 625}, {24, 611, 8, 625}, {26, 612, 4, 625}, {27, 613, 8, 625}, {28, 614, 4, 625}, {25, 615, 4, 625}, {27, 616, 4, 625}, {28, 617, 8, 625}, {29, 618, 4, 625}, {30, 619, 1, 625}, {31, 620, 4, 625}, {32, 621, 2, 625}, {32, 622, 4, 625}, {33, 623, 4, 625}, {34, 624, 1, 625}, {55, 604, 1, 626}, {56, 605, 4, 626}, {57, 606, 4, 626}, {58, 607, 2, 626}, {59, 608, 4, 626}, {60, 609, 2, 626}, {58, 610, 4, 626}, {59, 611, 8, 626}, {61, 612, 4, 626}, {62, 613, 8, 626}, {63, 614, 4, 626}, {60, 615, 4, 626}, {62, 616, 4, 626}, {63, 617, 8, 626}, {64, 618, 4, 626}, {65, 619, 1, 626}, {66, 620, 4, 626}, {67, 621, 2, 626}, {67, 622, 4, 626}, {68, 623, 4, 626}, {69, 624, 1, 626}, {90, 604, 1, 627}, {91, 605, 4, 627}, {92, 606, 4, 627}, {93, 607, 2, 627}, {94, 608, 4, 627}, {95, 609, 2, 627}, {93, 610, 4, 627}, {94, 611, 8, 627}, {96, 612, 4, 627}, {97, 613, 8, 627}, {98, 614, 4, 627}, {95, 615, 4, 627}, {97, 616, 4, 627}, {98, 617, 8, 627}, {99, 618, 4, 627}, {100, 619, 1, 627}, {101, 620, 4, 627}, {102, 621, 2, 627}, {102, 622, 4, 627}, {103, 623, 4, 627}, {104, 624, 1, 627}, {1, 10, 1, 628}, {1, 11, 1, 629}, {1, 12, 1, 630}, {1, 13, 1, 631}, {1, 14, 1, 632}, {1, 15, 1, 633}, {1, 16, 1, 634}, {1, 17, 1, 635}, {1, 18, 1, 636}, {1, 19, 1, 637}, {2, 10, 1, 638}, {2, 11, 1, 639}, {2, 12, 1, 640}, {2, 13, 1, 641}, {2, 14, 1, 642}, {2, 15, 1, 643}, {2, 16, 1, 644}, {2, 17, 1, 645}, {2, 18, 1, 646}, {2, 19, 1, 647}, {3, 10, 1, 648}, {3, 11, 1, 649}, {3, 12, 1, 650}, {3, 13, 1, 651}, {3, 14, 1, 652}, {3, 15, 1, 653}, {3, 16, 1, 654}, {3, 17, 1, 655}, {3, 18, 1, 656}, {3, 19, 1, 657}, {20, 628, 1, 658}, {21, 629, 3, 658}, {22, 630, 3, 658}, {23, 631, 3, 658}, {24, 632, 6, 658}, {25, 633, 3, 658}, {26, 634, 1, 658}, {27, 635, 3, 658}, {28, 636, 3, 658}, {29, 637, 1, 658}, {21, 638, 1, 658}, {23, 639, 3, 658}, {24, 640, 3, 658}, {26, 641, 3, 658}, {27, 642, 6, 658}, {28, 643, 3, 658}, {30, 644, 1, 658}, {31, 645, 3, 658}, {32, 646, 3, 658}, {33, 647, 1, 658}, {22, 648, 1, 658}, {24, 649, 3, 658}, {25, 650, 3, 658}, {27, 651, 3, 658}, {28, 652, 6, 658}, {29, 653, 3, 658}, {31, 654, 1, 658}, {32, 655, 3, 658}, {33, 656, 3, 658}, {34, 657, 1, 658}, {55, 628, 1, 659}, {56, 629, 3, 659}, {57, 630, 3, 659}, {58, 631, 3, 659}, {59, 632, 6, 659}, {60, 633, 3, 659}, {61, 634, 1, 659}, {62, 635, 3, 659}, {63, 636, 3, 659}, {64, 637, 1, 659}, {56, 638, 1, 659}, {58, 639, 3, 659}, {59, 640, 3, 659}, {61, 641, 3, 659}, {62, 642, 6, 659}, {63, 643, 3, 659}, {65, 644, 1, 659}, {66, 645, 3, 659}, {67, 646, 3, 659}, {68, 647, 1, 659}, {57, 648, 1, 659}, {59, 649, 3, 659}, {60, 650, 3, 659}, {62, 651, 3, 659}, {63, 652, 6, 659}, {64, 653, 3, 659}, {66, 654, 1, 659}, {67, 655, 3, 659}, {68, 656, 3, 659}, {69, 657, 1, 659}, {90, 628, 1, 660}, {91, 629, 3, 660}, {92, 630, 3, 660}, {93, 631, 3, 660}, {94, 632, 6, 660}, {95, 633, 3, 660}, {96, 634, 1, 660}, {97, 635, 3, 660}, {98, 636, 3, 660}, {99, 637, 1, 660}, {91, 638, 1, 660}, {93, 639, 3, 660}, {94, 640, 3, 660}, {96, 641, 3, 660}, {97, 642, 6, 660}, {98, 643, 3, 660}, {100, 644, 1, 660}, {101, 645, 3, 660}, {102, 646, 3, 660}, {103, 647, 1, 660}, {92, 648, 1, 660}, {94, 649, 3, 660}, {95, 650, 3, 660}, {97, 651, 3, 660}, {98, 652, 6, 660}, {99, 653, 3, 660}, {101, 654, 1, 660}, {102, 655, 3, 660}, {103, 656, 3, 660}, {104, 657, 1, 660}, {36, 45, 1, 661}, {36, 46, 1, 662}, {36, 47, 1, 663}, {36, 48, 1, 664}, {36, 49, 1, 665}, {36, 50, 1, 666}, {36, 51, 1, 667}, {36, 52, 1, 668}, {36, 53, 1, 669}, {36, 54, 1, 670}, {37, 45, 1, 671}, {37, 46, 1, 672}, {37, 47, 1, 673}, {37, 48, 1, 674}, {37, 49, 1, 675}, {37, 50, 1, 676}, {37, 51, 1, 677}, {37, 52, 1, 678}, {37, 53, 1, 679}, {37, 54, 1, 680}, {38, 45, 1, 681}, {38, 46, 1, 682}, {38, 47, 1, 683}, {38, 48, 1, 684}, {38, 49, 1, 685}, {38, 50, 1, 686}, {38, 51, 1, 687}, {38, 52, 1, 688}, {38, 53, 1, 689}, {38, 54, 1, 690}, {20, 661, 1, 691}, {21, 662, 3, 691}, {22, 663, 3, 691}, {23, 664, 3, 691}, {24, 665, 6, 691}, {25, 666, 3, 691}, {26, 667, 1, 691}, {27, 668, 3, 691}, {28, 669, 3, 691}, {29, 670, 1, 691}, {21, 671, 1, 691}, {23, 672, 3, 691}, {24, 673, 3, 691}, {26, 674, 3, 691}, {27, 675, 6, 691}, {28, 676, 3, 691}, {30, 677, 1, 691}, {31, 678, 3, 691}, {32, 679, 3, 691}, {33, 680, 1, 691}, {22, 681, 1, 691}, {24, 682, 3, 691}, {25, 683, 3, 691}, {27, 684, 3, 691}, {28, 685, 6, 691}, {29, 686, 3, 691}, {31, 687, 1, 691}, {32, 688, 3, 691}, {33, 689, 3, 691}, {34, 690, 1, 691}, {55, 661, 1, 692}, {56, 662, 3, 692}, {57, 663, 3, 692}, {58, 664, 3, 692}, {59, 665, 6, 692}, {60, 666, 3, 692}, {61, 667, 1, 692}, {62, 668, 3, 692}, {63, 669, 3, 692}, {64, 670, 1, 692}, {56, 671, 1, 692}, {58, 672, 3, 692}, {59, 673, 3, 692}, {61, 674, 3, 692}, {62, 675, 6, 692}, {63, 676, 3, 692}, {65, 677, 1, 692}, {66, 678, 3, 692}, {67, 679, 3, 692}, {68, 680, 1, 692}, {57, 681, 1, 692}, {59, 682, 3, 692}, {60, 683, 3, 692}, {62, 684, 3, 692}, {63, 685, 6, 692}, {64, 686, 3, 692}, {66, 687, 1, 692}, {67, 688, 3, 692}, {68, 689, 3, 692}, {69, 690, 1, 692}, {90, 661, 1, 693}, {91, 662, 3, 693}, {92, 663, 3, 693}, {93, 664, 3, 693}, {94, 665, 6, 693}, {95, 666, 3, 693}, {96, 667, 1, 693}, {97, 668, 3, 693}, {98, 669, 3, 693}, {99, 670, 1, 693}, {91, 671, 1, 693}, {93, 672, 3, 693}, {94, 673, 3, 693}, {96, 674, 3, 693}, {97, 675, 6, 693}, {98, 676, 3, 693}, {100, 677, 1, 693}, {101, 678, 3, 693}, {102, 679, 3, 693}, {103, 680, 1, 693}, {92, 681, 1, 693}, {94, 682, 3, 693}, {95, 683, 3, 693}, {97, 684, 3, 693}, {98, 685, 6, 693}, {99, 686, 3, 693}, {101, 687, 1, 693}, {102, 688, 3, 693}, {103, 689, 3, 693}, {104, 690, 1, 693}, {71, 80, 1, 694}, {71, 81, 1, 695}, {71, 82, 1, 696}, {71, 83, 1, 697}, {71, 84, 1, 698}, {71, 85, 1, 699}, {71, 86, 1, 700}, {71, 87, 1, 701}, {71, 88, 1, 702}, {71, 89, 1, 703}, {72, 80, 1, 704}, {72, 81, 1, 705}, {72, 82, 1, 706}, {72, 83, 1, 707}, {72, 84, 1, 708}, {72, 85, 1, 709}, {72, 86, 1, 710}, {72, 87, 1, 711}, {72, 88, 1, 712}, {72, 89, 1, 713}, {73, 80, 1, 714}, {73, 81, 1, 715}, {73, 82, 1, 716}, {73, 83, 1, 717}, {73, 84, 1, 718}, {73, 85, 1, 719}, {73, 86, 1, 720}, {73, 87, 1, 721}, {73, 88, 1, 722}, {73, 89, 1, 723}, {20, 694, 1, 724}, {21, 695, 3, 724}, {22, 696, 3, 724}, {23, 697, 3, 724}, {24, 698, 6, 724}, {25, 699, 3, 724}, {26, 700, 1, 724}, {27, 701, 3, 724}, {28, 702, 3, 724}, {29, 703, 1, 724}, {21, 704, 1, 724}, {23, 705, 3, 724}, {24, 706, 3, 724}, {26, 707, 3, 724}, {27, 708, 6, 724}, {28, 709, 3, 724}, {30, 710, 1, 724}, {31, 711, 3, 724}, {32, 712, 3, 724}, {33, 713, 1, 724}, {22, 714, 1, 724}, {24, 715, 3, 724}, {25, 716, 3, 724}, {27, 717, 3, 724}, {28, 718, 6, 724}, {29, 719, 3, 724}, {31, 720, 1, 724}, {32, 721, 3, 724}, {33, 722, 3, 724}, {34, 723, 1, 724}, {55, 694, 1, 725}, {56, 695, 3, 725}, {57, 696, 3, 725}, {58, 697, 3, 725}, {59, 698, 6, 725}, {60, 699, 3, 725}, {61, 700, 1, 725}, {62, 701, 3, 725}, {63, 702, 3, 725}, {64, 703, 1, 725}, {56, 704, 1, 725}, {58, 705, 3, 725}, {59, 706, 3, 725}, {61, 707, 3, 725}, {62, 708, 6, 725}, {63, 709, 3, 725}, {65, 710, 1, 725}, {66, 711, 3, 725}, {67, 712, 3, 725}, {68, 713, 1, 725}, {57, 714, 1, 725}, {59, 715, 3, 725}, {60, 716, 3, 725}, {62, 717, 3, 725}, {63, 718, 6, 725}, {64, 719, 3, 725}, {66, 720, 1, 725}, {67, 721, 3, 725}, {68, 722, 3, 725}, {69, 723, 1, 725}, {90, 694, 1, 726}, {91, 695, 3, 726}, {92, 696, 3, 726}, {93, 697, 3, 726}, {94, 698, 6, 726}, {95, 699, 3, 726}, {96, 700, 1, 726}, {97, 701, 3, 726}, {98, 702, 3, 726}, {99, 703, 1, 726}, {91, 704, 1, 726}, {93, 705, 3, 726}, {94, 706, 3, 726}, {96, 707, 3, 726}, {97, 708, 6, 726}, {98, 709, 3, 726}, {100, 710, 1, 726}, {101, 711, 3, 726}, {102, 712, 3, 726}, {103, 713, 1, 726}, {92, 714, 1, 726}, {94, 715, 3, 726}, {95, 716, 3, 726}, {97, 717, 3, 726}, {98, 718, 6, 726}, {99, 719, 3, 726}, {101, 720, 1, 726}, {102, 721, 3, 726}, {103, 722, 3, 726}, {104, 723, 1, 726}, {10, 10, 1, 727}, {11, 11, 1, 727}, {12, 12, 1, 727}, {10, 11, 1, 728}, {11, 13, 1, 728}, {12, 14, 1, 728}, {10, 12, 1, 729}, {11, 14, 1, 729}, {12, 15, 1, 729}, {10, 13, 1, 730}, {11, 16, 1, 730}, {12, 17, 1, 730}, {10, 14, 1, 731}, {11, 17, 1, 731}, {12, 18, 1, 731}, {10, 15, 1, 732}, {11, 18, 1, 732}, {12, 19, 1, 732}, {11, 11, 1, 733}, {13, 13, 1, 733}, {14, 14, 1, 733}, {11, 12, 1, 734}, {13, 14, 1, 734}, {14, 15, 1, 734}, {11, 13, 1, 735}, {13, 16, 1, 735}, {14, 17, 1, 735}, {11, 14, 1, 736}, {13, 17, 1, 736}, {14, 18, 1, 736}, {11, 15, 1, 737}, {13, 18, 1, 737}, {14, 19, 1, 737}, {12, 12, 1, 738}, {14, 14, 1, 738}, {15, 15, 1, 738}, {12, 13, 1, 739}, {14, 16, 1, 739}, {15, 17, 1, 739}, {12, 14, 1, 740}, {14, 17, 1, 740}, {15, 18, 1, 740}, {12, 15, 1, 741}, {14, 18, 1, 741}, 